,0
0,2.5111325476900084
1,-0.019931561657245033
2,-0.3125670580213268
3,-0.5223599258541146
4,0.3763670371991087
5,0.38658258917092975
6,0.9506278731265124
7,-0.9260621643490131
8,-0.31249487814126115
9,2.0305457232242023
10,0.22459063324999182
11,-0.17252437332674642
12,-0.9416177655837017
13,0.5059343058207516
14,1.031018217042444
15,0.8745876458098074
16,-0.2588008636089165
17,0.361252283363536
18,1.6716594366486115
19,1.070882292171469
20,-0.7841627421933196
21,-2.5460050646214696
22,0.29677250708423497
23,0.7985681267484328
24,-1.0892244918732625
25,-0.0087895221227777
26,-0.2636990658730787
27,0.10428632223219882
28,-0.5446962871197124
29,1.2905109976279934
30,0.14796888063276262
31,-0.8790168861647499
32,0.9174621535937203
33,-1.264187595991705
34,1.2844943775351327
35,0.9910594242225638
36,1.389775295320786
37,-0.15824637244161582
38,-0.4961139797833766
39,0.08402176093309313
40,-0.08443678635553135
41,-0.6527362855635124
42,-0.5536233141256425
43,-0.3663728472664642
44,-1.1700036864398629
45,0.6779632895993346
46,-0.05229713757100648
47,-0.3083784692336465
48,-1.1103541609416774
49,-1.160372977667465
50,1.9359140507224122
51,-0.6272574628615696
52,0.6105283942093266
53,0.1626344699001771
54,-2.7751884611081024
55,1.7924508231385923
56,0.684083978776116
57,-0.7676701543048088
58,-0.028366504429595287
59,-1.1491833674036658
60,1.8262204784611338
61,-0.9076577082414645
62,-0.5230839966946594
63,-0.7295610781475912
64,0.08037940020917021
65,1.3703165001393138
66,1.7893744490951577
67,-0.3989961442222967
68,0.3782589823179224
69,0.08190541260407326
70,-0.981609264444058
71,2.422555574595944
72,1.3627595622962556
73,0.18911584971103457
74,1.5818760934989877
75,1.2121067127178047
76,0.08186134108175565
77,0.3259636053279932
78,1.512126142376654
79,-0.9461535811296805
80,1.6736906973213392
81,-0.22511256068511618
82,1.5246767428475672
83,-0.0052265974628201255
84,0.33760622247297195
85,-0.03430835657245901
86,-0.5318436228112274
87,-0.27005489814431205
88,1.379111403168567
89,-2.3141639826724685
90,-1.2389659448048371
91,-0.7254717093581022
92,-1.0783447924360212
93,1.509979610415489
94,1.2576769778532042
95,0.5920318093946155
96,-0.6378040674775352
97,1.3350518667941367
98,-1.5881299259955441
99,2.141982640147936
100,-0.6846297971775508
101,-0.2620352218414382
102,-0.4293438504947142
103,-1.073107414098677
104,1.9251131239369192
105,0.7888946307844868
106,1.2154705420797876
107,-1.2236692720607711
108,0.1809378270039994
109,0.5210286893314037
110,0.27075652354984336
111,-1.160373451068
112,1.0755000211306371
113,0.12155008278515436
114,-0.9549640356430029
115,-1.8552505395526635
116,0.60666651348988
117,2.450455734131501
118,-1.0152542733462815
119,0.17044705041296596
120,1.1104972790915768
121,-1.2696522661013012
122,-0.47995676908502455
123,-0.8601587792614019
124,0.9846766948245461
125,1.3255225693540593
126,0.159036264731735
127,-0.841734068994101
128,-0.44279093792784774
129,-0.6304985142467532
130,-0.9772688616230066
131,-0.1020382008184647
132,0.5748264844618621
133,0.4902574444285194
134,-0.008232364569510726
135,0.05705383682536383
136,-0.08155079508977878
137,-1.2972115391662733
138,0.16013489698287253
139,-0.5836255854546498
140,-1.3473432191594377
141,0.3707055671155837
142,-0.611730036418545
143,0.22775392125883576
144,0.8476378150694271
145,-0.9502387211452318
146,0.0921212820729715
147,-1.8104228817303614
148,1.5325330906092762
149,-1.359066496888782
150,-0.5148196623973748
151,1.3383799037639572
152,-0.2345229260809859
153,-1.1973976863003002
154,0.7130732322865353
155,0.6905324621511849
156,-0.6331863393652334
157,-0.5249265207803991
158,-0.43540897061808626
159,-0.2070239606860313
160,-1.8929710769218067
161,-0.18142386111809947
162,1.7839141981831486
163,-0.8959699672367043
164,-0.5834935934697638
165,-1.183617663196396
166,0.6121619263953536
167,1.2031973581423763
168,1.180317839177625
169,-1.2480105888936601
170,0.49979173049695996
171,1.4337500342142357
172,0.5096631077101231
173,0.4784096833437766
174,-0.47164257863515857
175,0.22010982379366362
176,1.2363181797064053
177,0.32820896842876396
178,-1.2482747560297265
179,-0.4560416742859714
180,1.2092795388889936
181,0.32474332035109527
182,0.11906207824307634
183,-0.5540155332467
184,1.188599180534435
185,1.662412597822257
186,1.263189123018033
187,1.4425916214453727
188,-0.35870624076616653
189,-0.5001690973739036
190,-0.15634517349918595
191,0.0385732419762537
192,1.4310197801252555
193,1.1658867394684167
194,0.5384693872544944
195,-1.4311867658468875
196,-1.6880218445968753
197,0.2404627448017032
198,0.8802632056007167
199,-0.0795670489861375
200,1.914904504978405
201,-1.0824410437804357
202,-1.208351949495599
203,-0.6642809744743209
204,-0.7022972131912357
205,0.5262858686819794
206,-0.42171185184350274
207,-1.5478404612786614
208,0.8915784566951168
209,-1.7599519260721297
210,-1.0712182230107092
211,-1.6227065707438688
212,0.20712127707087358
213,0.18604771215121202
214,1.9164543210163532
215,0.9138266561455501
216,1.4416461833422005
217,0.2886096512984931
218,-0.9769318210905635
219,0.1281076019934963
220,0.5924210073873069
221,0.7038073822515749
222,-0.47241214410834226
223,0.48878647378239914
224,-0.9330279708412645
225,-1.043277594110717
226,-1.1157847113854849
227,0.02462598855679703
228,-1.1778363550763036
229,-0.42474438987100777
230,0.902916551413958
231,-1.029129678078305
232,-0.5043120335043169
233,0.07163127677616955
234,0.24688690153226664
235,-0.499290590805561
236,0.786860068735157
237,0.5904523007847245
238,1.1398566043617029
239,-0.08160192434705991
240,-0.5128188094563433
241,-0.6826320220121218
242,0.3070275179293628
243,-0.3771557828112729
244,-0.5691697776807892
245,-0.4482872642453222
246,-0.6836904851242517
247,0.19902111276273202
248,-1.412583182544061
249,0.3030162924749628
250,0.6765487604029505
251,-0.5808791381772979
252,1.922036939606547
253,0.017621310976853315
254,-1.5613429830998886
255,-0.28124290633667054
256,0.06265614493579669
257,0.4489675555702139
258,-0.2574305241108466
259,-1.0115702757043907
260,-1.0949806181122828
261,-0.6535992851816712
262,-0.557775362518763
263,-1.1349741648992575
264,-0.7328131611036991
265,0.6594585244393549
266,1.6484126076944867
267,0.7554617138709632
268,1.3058610861868123
269,0.9741184682336981
270,0.8331303283983444
271,-0.33779626305732835
272,0.14091087838694707
273,-0.42061934245602134
274,-0.219107162333627
275,0.06816710038658609
276,0.7135661515790268
277,0.4233233815151238
278,-0.1618292630143563
279,0.05553874089166623
280,0.4334636741935265
281,0.667394438057835
282,-1.5189951632572025
283,-1.077388963898937
284,1.1073105339393423
285,-0.06086956993105802
286,-0.4240765933669789
287,-0.2634994729260388
288,-0.2637053055765539
289,0.5579377815243737
290,-1.108016393980767
291,0.024777746496761215
292,0.24611772945040442
293,0.39626791656550336
294,0.22286399621029307
295,0.5159062303140283
296,-0.5726961510583128
297,-0.9418027323249555
298,2.4570044432505136
299,-0.30126468457423644
300,-0.18445447065456796
301,0.6778400977178841
302,1.5960892921942411
303,-0.5445281169346958
304,-0.9988152681895256
305,-1.2421533507916103
306,1.5931062215029255
307,-1.0381069864610342
308,-0.027555936515566763
309,-0.977284832042969
310,-1.4483559179583039
311,-0.292375353093686
312,-0.9377866663411604
313,-0.6916284254233128
314,2.0061050974174037
315,0.42489610417240287
316,0.9314695195539889
317,0.8246595628492529
318,-0.1008609230790248
319,-0.4397183593776238
320,0.24893461186111668
321,0.16845076993249436
322,-0.5688054171653079
323,0.12984783046686055
324,-0.706329706696292
325,-0.17145793064083975
326,-0.33528347451733687
327,-1.268872592605779
328,-2.35115821311217
329,-0.9390632499396991
330,1.804104664586301
331,-0.3096817820367279
332,0.7759681608964043
333,-2.124445143093358
334,-1.0082860679643277
335,-1.3544896173623504
336,-0.20230001008711487
337,2.4219554805352432
338,0.4602389432279179
339,1.6956125332780865
340,-0.2544367276856635
341,1.364869373855072
342,2.0732567066828906
343,-0.10936906641045824
344,-0.5392647112273649
345,-1.3178109369901527
346,-0.3090602585769696
347,0.08189667520079116
348,2.030953617349149
349,-1.2949739740960864
350,0.05966189369697816
351,-1.814308121389617
352,-0.42676282883856803
353,0.31139535741201874
354,0.512583152688558
355,0.5890230796419218
356,0.3974040328868454
357,0.580421940096241
358,0.04573912900266335
359,-1.0478663059889717
360,-1.8516569636800562
361,-0.5466878217372169
362,-0.13461543306322973
363,1.2539317971754806
364,-0.10060167515618698
365,-0.1965690342166925
366,0.3855271268417794
367,-0.2700119874512019
368,0.8105419989469385
369,1.9793336183838783
370,2.1907855142107007
371,0.09704062724448921
372,0.33689236469544814
373,1.5788561203734834
374,-0.14996202289627097
375,0.6791921419241791
376,-1.1351601296858251
377,-0.31083914827499803
378,1.1561146166453071
379,-0.7181956337876233
380,-0.12805117872967775
381,-1.5742096456021195
382,2.005768294509637
383,1.2630280698169032
384,0.18809956615274828
385,0.5075128720823281
386,0.3958981069433685
387,1.384311753030786
388,-0.5188000423713726
389,0.732267619928232
390,1.0774164988521733
391,1.215325970476457
392,-2.2593708838316977
393,-0.5992744782651446
394,-1.019170621301904
395,0.1495882855706858
396,-2.0160302195142723
397,-2.045622890945603
398,2.17009499187626
399,0.6176893882633404
400,0.12100924319881162
401,0.3636726478389822
402,0.1463409237491799
403,0.997350656551526
404,-0.6324441920639787
405,0.18661482607356927
406,0.22742126793771542
407,-1.0468579584583377
408,1.2769830590630524
409,-0.44567673990140944
410,1.017421669808901
411,0.11491272637148015
412,1.633584832409058
413,-1.0413790885215242
414,-1.08475880151045
415,-0.9056955910043086
416,0.1332955505143741
417,1.5414683957782052
418,1.5930936181652504
419,-2.30996860043844
420,0.24970716122253878
421,-3.2129536105150227
422,0.7950317937850347
423,1.118169414895207
424,-0.040244274692185604
425,0.0839815774947546
426,0.07363889294023972
427,-0.7844419187412465
428,0.4317057853214802
429,-0.23140800165325723
430,0.9302917092896185
431,-0.11362693451922978
432,-0.8610231064882589
433,-1.5358646708655104
434,-1.8640648250557121
435,1.3125093439544353
436,-0.4577893528590192
437,0.3385741900816487
438,1.7832298917445188
439,-0.5628043312978913
440,-0.6274774843811537
441,-0.1321617523553239
442,0.029432700419992814
443,1.8875513502558465
444,1.5658205940941132
445,0.6208754159067471
446,1.449413768996868
447,-0.17821901256785602
448,0.29916456718847856
449,-0.3015136445386949
450,-1.2903683825796395
451,1.203874741793595
452,0.5316987339898607
453,0.018073473423663822
454,-0.0024678493121753704
455,-1.5062148709065084
456,-0.9774753331527154
457,0.33615317011402485
458,-0.5291126672745058
459,-0.21771304121749013
460,-0.10465606477910164
461,-0.6824687690171107
462,-0.9679183200240504
463,-1.6123576309253735
464,-0.1465182790115405
465,0.6186085476102836
466,-1.6436341422199503
467,-0.02404782509982628
468,0.28114325269156065
469,-0.9895804037291447
470,1.4221418115480882
471,-0.385715369038408
472,-0.1012596884565111
473,-0.16126950059797882
474,-1.770774422591056
475,1.008752071684044
476,-0.9555187684192374
477,-0.23652051540573635
478,0.5976610012779955
479,1.460903426144534
480,-1.0799322818968393
481,-0.44648358559442713
482,1.3824186300071535
483,0.46371387927544694
484,0.6711713590516085
485,-1.051131735776168
486,-0.37920952992655815
487,-0.16783543238043075
488,-0.857894757342974
489,-1.674569625673907
490,-0.5104985587635958
491,1.3542881995844298
492,0.05917346556049609
493,1.3742909135733763
494,0.1790209142295196
495,-0.7647077295879625
496,1.2776190132317218
497,0.21232614066789893
498,0.9618388324273973
499,-1.0683281711205714
500,1.038756289614503
501,1.0688892755441983
502,0.28976714435653544
503,-0.8069220858097824
504,-0.046008828712611895
505,0.6112911472382442
506,0.23457001993653365
507,0.6010827381077641
508,1.0122459076529051
509,-0.6484466533719213
510,-1.1550756209601392
511,-0.03753880137224185
512,-0.3297431588698678
513,0.7858464131561501
514,-1.074498389658808
515,1.0203818741776796
516,1.353612109546766
517,0.00030496426228980426
518,0.06073612558130447
519,-0.7675465012301531
520,-0.5426608989740664
521,-0.4083366806456837
522,1.442940067837931
523,-0.07187078581077398
524,-1.3221729566400084
525,0.2553543421120036
526,0.826290124622276
527,-0.02541136932159493
528,1.4692134397269894
529,0.777508667265898
530,-1.0491287298878536
531,-0.5514328123964021
532,0.22622628142460888
533,-1.6661892380266072
534,0.33635673747061456
535,-1.7615824272546483
536,1.0234334555645097
537,0.9072736847917083
538,0.5047813609150709
539,-0.6758783643523114
540,0.17020282461353894
541,-0.5133774875146491
542,-1.0308152774500663
543,-0.3387430117714108
544,0.6982655364920956
545,0.043814192831760926
546,1.4507099241344232
547,0.7657805394802747
548,0.6586908139056186
549,-1.608926549445604
550,-0.28515853015527837
551,-1.0643724104341996
552,-0.1830028796239041
553,-0.6932761239231569
554,-0.3776049530579387
555,1.0611627323738506
556,0.4752499290058339
557,1.007114428981635
558,-1.6006831090159857
559,0.05797469661566357
560,0.9667049813966009
561,1.5062959148871558
562,-1.548088389692493
563,-0.35148363616116995
564,1.0342266740047628
565,-0.19227831281144533
566,-0.9104176741697237
567,-1.5499991784960077
568,-0.9487015346631669
569,-1.688901668563729
570,0.058460456834025704
571,0.8963101857786598
572,-1.260974758908604
573,0.2577297412110527
574,0.8452710294458669
575,-0.0027083268483496454
576,-1.6106942949172454
577,0.3862115546625031
578,-0.05464694476447034
579,-0.1565046486008555
580,-0.5468372457604646
581,0.08678742627404126
582,0.50981790844696
583,2.3906481343358488
584,0.11233206838720484
585,1.5111411600126732
586,0.3577550834268766
587,-0.09952832764775339
588,0.14854752771129245
589,-1.2217363696925094
590,0.3058602707520377
591,-1.9920650648213725
592,-0.8626663578885319
593,0.10984309313381067
594,1.193982273178844
595,1.4306243969983938
596,-0.23654657964093476
597,0.15571731953044088
598,0.9843624695820279
599,-1.3294935721929189
600,0.4047475053155036
601,-0.827892867365809
602,-0.17182504467671872
603,-0.45902325049431536
604,0.43535812704814747
605,0.5503036740090902
606,0.8910786773973972
607,0.34819882846444833
608,0.17165376996889645
609,1.8540238004386014
610,-1.5243590701971772
611,1.6956098601292395
612,-0.28982190886839676
613,0.570891586368305
614,-0.32565968059360106
615,-0.702541629551626
616,0.4845771927942283
617,1.0421283086144428
618,0.473007954967405
619,-0.5421157866828821
620,3.6113500628156694
621,1.1985736708662522
622,0.9333423042072527
623,-0.35296423074220423
624,-0.6251657882890393
625,-0.2798390758429393
626,1.081406544392483
627,-0.9906043370758278
628,-1.068203831454317
629,0.5395475333610181
630,0.3191964446421203
631,-0.7703135378908958
632,-1.0912035784152248
633,1.437896993368432
634,0.35700442529956194
635,-1.3635358637280326
636,-1.293625536082294
637,-0.3615119724504693
638,0.7328418069976331
639,0.5950088021082799
640,1.1316785370012177
641,-1.4903498074607975
642,0.22384668977965672
643,1.4259103323213609
644,1.3328017304760988
645,0.3589099814126859
646,2.348018508653876
647,0.6092851164158597
648,1.042746632841343
649,0.044447918775506724
650,-0.7809752928442871
651,-0.8752092007787461
652,0.18161521479442014
653,-0.21150200685020693
654,-1.7685856699134812
655,-1.0257935849257411
656,-0.318403574054093
657,0.7272793759371594
658,-0.016073886162074582
659,-0.07206421050051394
660,-0.9869126270033162
661,0.023166080062098828
662,1.3191010274459878
663,0.155575112758557
664,-1.507313581481862
665,-1.251522794304531
666,0.588788877223153
667,-0.22431547522261966
668,-0.07458023010351422
669,-0.612734175014757
670,0.5034122121999125
671,-0.30091771324534927
672,-0.18661322172860464
673,-0.8512233916631263
674,0.9216912981427697
675,-0.22113279161642146
676,0.6078803331197599
677,-1.1935915640340178
678,1.7338831383786082
679,1.2773740385132224
680,-1.9097976696589267
681,-0.801937475063715
682,0.47763439100988486
683,-1.319728656149004
684,-0.1315940821633258
685,0.4266317859767969
686,-0.18472591197948338
687,0.538838703537096
688,-0.6933299046018816
689,-2.244181542168122
690,0.9821153121650605
691,0.9758146536025302
692,2.5036366422883325
693,-2.2071865179343146
694,0.7508321093468155
695,-1.968682138083387
696,1.7564932816753192
697,0.48786683369600947
698,-0.9519288476762531
699,0.7802224746014357
700,-0.5530450077169359
701,0.300416099551269
702,0.205960716209084
703,1.7441681361472945
704,1.8149259100865125
705,-0.5972653732735059
706,1.0581056179960362
707,0.35484015557029747
708,-1.4126820670069118
709,-0.69622838037218
710,2.336146099599624
711,0.3578544011046551
712,0.9997795795175225
713,-0.21204431236699098
714,-0.5399419147193418
715,0.02726450763447467
716,-0.26610405524621716
717,-1.4932529310315983
718,-1.0033254574540318
719,0.7078845144122309
720,-0.3806906891024109
721,0.02570488202790712
722,0.23492305049721063
723,0.3130500488187198
724,1.1465790613153706
725,-1.098695815068532
726,0.5702527235436246
727,0.7550277935196478
728,0.9858517790015056
729,-1.4129175994148724
730,0.25481921834699817
731,1.7160759463985173
732,-0.09912051915662319
733,0.4834947019642914
734,0.7803955945851846
735,-1.0254698443982602
736,1.8338247289999745
737,0.4995007969689037
738,0.5195028141934261
739,-1.662027378010535
740,0.7945447982133127
741,0.5064103413791371
742,1.624191327722064
743,-0.3112652143043535
744,-0.9876583295984417
745,-0.6822389947743331
746,-0.5049782350072989
747,-1.1188465181313738
748,1.2901600237659931
749,1.3276978629316667
750,-0.1957917011400552
751,-0.392759922084194
752,-1.815481913319312
753,0.6959612553036046
754,1.653440108825843
755,-0.6371947172595566
756,-0.11678452577639813
757,0.4342914613157309
758,1.7244183606099057
759,0.19977622183509458
760,0.19542991602651832
761,0.17931850115980283
762,-1.4250325069036731
763,-1.4467906538298647
764,-0.8079951691148726
765,1.0128905740373726
766,-0.3353570705459931
767,-0.5296040488022927
768,-0.5471746041437677
769,-0.1376568784726773
770,1.7021079341016403
771,-0.15119738569712154
772,-0.7862974053748583
773,0.025245629081632897
774,1.7550836057615369
775,-0.5028247189356159
776,-1.1810050084309451
777,-0.5009912697304171
778,0.12876373634843294
779,0.6882409508253399
780,1.0068835786822459
781,-1.0457172739623284
782,-0.9508453344590697
783,-0.32326225938749004
784,0.6844930246968961
785,-1.2600078976522555
786,-0.6073269104176972
787,-0.592743729411948
788,0.9417488553643707
789,0.5282607606644375
790,0.90371836104992
791,1.3386779742330543
792,-0.30565009508908053
793,-1.1874061548536818
794,-1.18096361784702
795,-1.8381075650588399
796,-0.45876682966619275
797,-0.3842226148317383
798,0.7875534068050477
799,0.016914217176603973
800,-0.4903284443426062
801,-0.11599872616058583
802,-1.0389734837147637
803,1.0254065707512865
804,-0.7859155628095085
805,-1.1399312719358956
806,0.81788196670747
807,0.5741642083638515
808,-1.7236853785590116
809,0.8550016347102224
810,-0.7415926390940565
811,-0.3741045275639198
812,0.1870201076939375
813,0.5866248826168219
814,0.4454791746875265
815,-0.04981833090600245
816,-0.4246433289159108
817,0.41222069356544744
818,-0.11838783734422807
819,1.805354459125924
820,0.5864090099699019
821,-0.9234156249903548
822,-0.4775999513736513
823,0.04819217725982952
824,1.2994312150704548
825,1.411105009112135
826,-0.39613472036556435
827,-0.933634216589443
828,-1.0614976412061874
829,0.2524287572157801
830,2.303784309217493
831,0.5390941042551023
832,-1.593912526684007
833,-0.7260041032460012
834,-0.623914201844913
835,-0.822002520114908
836,-0.38789382493422025
837,0.36939486101994184
838,0.6819811693226466
839,1.0917634909166438
840,0.5242025730471778
841,-1.9541502403288409
842,-1.0573045875313134
843,-0.1580940368591912
844,0.14727985576747896
845,0.861418359876257
846,0.043184176216772716
847,0.050707253863674355
848,0.23779736313905908
849,-0.2550217387812016
850,0.08688513987781159
851,1.1258321790117507
852,-0.08391089878400182
853,-0.03021272678428291
854,-0.03358540476718952
855,1.2977738137911687
856,-1.1080533268294424
857,1.7758468947911954
858,-1.1763818545155131
859,-0.654220261327759
860,0.7447382697153195
861,1.0303166954736709
862,-1.403499016998488
863,-1.092701863247086
864,0.2778428094718478
865,2.344419387763796
866,1.2462627809986806
867,-0.24809704963181028
868,-2.419129138075756
869,0.08164273442115923
870,0.36229680364655387
871,-0.38269514108280367
872,-0.8507239905465955
873,0.15916526032138825
874,-0.9422611938939608
875,1.8724486608087239
876,1.516744797533817
877,0.657912631592761
878,0.08971056911931645
879,-0.6601640866135599
880,-0.020787183890901204
881,1.639297135207276
882,0.8686540584366282
883,0.2036922784764595
884,0.9239743341675953
885,0.5456106633808282
886,0.3962775398868717
887,0.9805632589915353
888,0.5170276448247577
889,0.8585514701033784
890,0.1613870496345091
891,-0.2541258231901035
892,-0.5481628789401488
893,-0.6673096054709586
894,-1.6051704424415325
895,-0.9119399468116645
896,-0.9408535295821808
897,-0.5073451959840358
898,1.5622442106382912
899,-0.1575619555537773
900,0.24176688988430992
901,0.2733196445119271
902,1.5875809128423666
903,-0.5755854538452915
904,-0.22252208025806164
905,-0.10619937177418337
906,1.136534855774768
907,1.3441056937544549
908,0.4745838196939445
909,1.2329093740618797
910,0.17766099646898928
911,-0.17260324761682247
912,1.1787240865856219
913,0.4876176752337977
914,-0.7355306659075819
915,0.9974209381243507
916,-0.2084926310202796
917,-0.3308235227242045
918,0.8930043681997122
919,-0.08883214084491302
920,0.38895853604028957
921,0.6619395840707993
922,-0.7829430792723844
923,0.38485056468220186
924,1.3494731052616238
925,-0.9564671437396102
926,0.4499088888312278
927,-0.8294677345802876
928,1.0213976838403982
929,1.0119055837497712
930,-0.3543223402490986
931,2.2096286521908626
932,1.1066253091372844
933,0.7069289851361691
934,0.6506108961061356
935,0.9839269092062237
936,-0.9956424072441601
937,0.19460759846102424
938,0.38319038537732747
939,-0.40013606330256013
940,0.4647952694439654
941,1.2316943004340057
942,-0.4217690877659065
943,-0.054424300371305634
944,-0.8205852958539446
945,-1.7869890098107923
946,0.7789321805205109
947,-0.025733794839247516
948,0.047579417152787795
949,-0.9867736181735269
950,-0.18550352903619077
951,1.0965937891821234
952,0.0008213367794600936
953,0.029183758055412807
954,0.2075282778634226
955,-1.236382128406456
956,0.624920464102357
957,-1.2551981149158307
958,-0.9396155812790266
959,-1.049214769007165
960,-0.1752249666305454
961,-0.3524527035378573
962,-0.0012250383082545331
963,-0.9052561597764432
964,1.0054953203063783
965,0.8340275687263308
966,-0.1738135128917204
967,-0.478366716587938
968,-0.5793574933451994
969,-0.3101449950106793
970,-1.4002452287511766
971,-0.9596073122118406
972,0.8601203919849665
973,0.3018124860758687
974,1.6342744859765308
975,-0.2991951501693214
976,-0.3615132271068673
977,-0.407898924543648
978,-0.31916448321816865
979,-0.659954013146598
980,0.27098821468719997
981,0.029104067148411294
982,-0.5099145018382725
983,1.2511489130189024
984,1.896582922486307
985,1.1665772055734005
986,0.5581240130833949
987,0.7617697262637739
988,1.856415517826335
989,0.7603193157594238
990,-0.5851858525992847
991,0.3922725266505483
992,0.6262442660633177
993,-0.9947172740359198
994,-0.2849308186431779
995,1.100391824055466
996,-1.8234927350495862
997,-1.250428545040594
998,-0.1764070536283277
999,0.3536795955057045
1000,-1.357632444948907
1001,-0.1267892516659413
1002,1.1537685390885666
1003,0.06865145707428366
1004,0.9390889436311305
1005,-0.5921141213350033
1006,-0.8099168567891817
1007,0.8488738302850475
1008,0.36926553465618983
1009,-1.1855960077744592
1010,-0.8008409161627891
1011,1.5645812410574147
1012,-0.9245552194693163
1013,0.9343287467259977
1014,-0.47818669723369966
1015,-0.003175856767131344
1016,0.29459262094337224
1017,-2.1009812104995986
1018,-1.462717335427299
1019,0.0863330187871626
1020,-0.7243075637838803
1021,0.9965812952746222
1022,-1.6061208808681247
1023,0.565255056257987
1024,-1.3762212204043263
1025,-0.35210499414442864
1026,-1.064377764237964
1027,1.9024298804711979
1028,-1.3394921629700358
1029,-0.1220596953690234
1030,-1.726836148020152
1031,1.5995701220705898
1032,0.4012824161772051
1033,0.13697308959866786
1034,1.4743129392917256
1035,0.1474224414226123
1036,0.21957135614107717
1037,0.13172528806515177
1038,0.5636343254431191
1039,-0.49244138392126235
1040,-0.21428730736333237
1041,0.810334628457446
1042,0.27737295155788194
1043,-0.11424391410212563
1044,-1.4005223910307123
1045,1.4980502845365953
1046,-0.6614541099507706
1047,0.9872372384192568
1048,0.1757536516880854
1049,-1.2934505227298703
1050,1.252275477530615
1051,0.25454064639953966
1052,1.3353453567370426
1053,-0.18240870073591886
1054,0.7040512299670544
1055,-1.7625271113450138
1056,-0.5002158635937571
1057,-1.2729933322312716
1058,-0.37478385003839176
1059,0.47181173950614497
1060,-0.6045800876541457
1061,0.8638420936387817
1062,-0.8566126435500113
1063,0.8852366136499785
1064,1.3097571658740361
1065,1.0135261350909857
1066,-0.3441890518297729
1067,-2.125453597944143
1068,0.5821669967373478
1069,-0.12523471471530392
1070,-0.9783929401273533
1071,-0.5562790648704103
1072,1.4344253164448015
1073,-1.1373402006101545
1074,0.4683091756212118
1075,0.21795817563740372
1076,-0.35738766466323213
1077,0.6445326873130467
1078,1.6322452588988656
1079,-0.29597150388619836
1080,-0.24318094807710125
1081,0.6220649049902
1082,0.9182428214350015
1083,-0.1277072071486352
1084,-0.3053737360936483
1085,-2.2176465207197604
1086,-0.7780089123665535
1087,-1.1393116720675505
1088,0.6846249963118912
1089,-0.24390294860084202
1090,-0.28302160553892824
1091,-0.009056263622981188
1092,-0.8701764701253999
1093,1.553247186688754
1094,1.2981939116966108
1095,1.6181067830476878
1096,0.6834172312388914
1097,-0.029478115021937257
1098,1.614729303006885
1099,-0.6809668359129796
1100,-0.8712089790330124
1101,-0.6015115147698592
1102,0.5228712669142984
1103,-0.7621051933876727
1104,-0.1553729882179987
1105,-1.6018552938847763
1106,0.4810976654282442
1107,-1.5171033671831091
1108,-0.9321610548653619
1109,1.217167134896644
1110,1.1803183169861102
1111,0.37431308954649783
1112,0.2756635817352304
1113,-0.5309596471542589
1114,-0.7729036637422013
1115,-0.36224169775737963
1116,-1.5136541744623178
1117,0.2524485549536634
1118,0.0488311248084097
1119,-0.9334212667102665
1120,1.5686819188413577
1121,0.6069137102870481
1122,0.6918418040088565
1123,-0.4873399260391653
1124,-0.0013300780263234098
1125,0.6273726701874222
1126,0.15278236710023552
1127,1.6019007847698716
1128,-0.20378756941675114
1129,-0.5045605322361106
1130,0.6342528764714259
1131,-1.2646472722865119
1132,0.9242969323081122
1133,-1.3007118005919829
1134,0.6385846660585501
1135,-0.6482735541726626
1136,0.4765841469833932
1137,0.9073429460610174
1138,0.15342119550391875
1139,-1.1996209516406802
1140,-0.896775244507152
1141,-0.7286591410337823
1142,-1.895006893597774
1143,1.127477858731929
1144,0.11010758575632887
1145,-1.1355180451889948
1146,1.4556748574583571
1147,-0.7013281001381633
1148,0.25057248907487145
1149,-0.8252705451962018
1150,-2.018260153329028
1151,-1.3644405588512607
1152,-0.44849043086643114
1153,0.8982968712060475
1154,0.3465331468192452
1155,0.14020512617124528
1156,-2.010027622744882
1157,1.2700861476800949
1158,0.22367969649555597
1159,-0.11941766989216007
1160,1.1324231099888955
1161,1.247496723568274
1162,1.1545902476091912
1163,-0.24708649670328767
1164,-1.0034765607841956
1165,0.9889229171420729
1166,-1.365054443070417
1167,1.9472567386642823
1168,0.027999545194562925
1169,-1.0608842556995841
1170,-1.2318685541566103
1171,-1.2776048240560596
1172,0.1403629067208431
1173,-0.006392320059787118
1174,-1.235922173509193
1175,-0.356455786555902
1176,-1.3679353860913424
1177,0.5893018059441726
1178,-0.054593266112713645
1179,-0.3784025059174476
1180,-1.2881107300675272
1181,-0.3001556002227654
1182,-0.4147278813463268
1183,0.31772670120959673
1184,0.16701797811696067
1185,0.7920601020793424
1186,-0.48457654350506235
1187,-1.8604115021964944
1188,0.99109287659804
1189,-0.9360325130481806
1190,-1.1069170530152554
1191,-0.043116545113752174
1192,0.30227051295451685
1193,-0.5308364057146827
1194,-0.5386926814681269
1195,-0.3910263177655551
1196,1.4165403509931433
1197,-0.0026780875581322683
1198,-0.9679628394617964
1199,-0.9577833569029673
1200,-0.2508841795823693
1201,0.23785793402800734
1202,0.48398016196619054
1203,0.12415860384721537
1204,-0.8418733509170888
1205,-0.42394129956078275
1206,0.7339078818646241
1207,-1.1460919604530955
1208,-0.46575339307746244
1209,0.5974628578813526
1210,0.8752814266351764
1211,-0.19291537109138282
1212,-0.41120681057081593
1213,-1.32211794144374
1214,0.5256399227270945
1215,1.3187796851467894
1216,2.5651540585996915
1217,0.3864461835180462
1218,-0.05087965164398104
1219,-0.9198106131509073
1220,-1.8788569137431494
1221,0.17695924973983332
1222,2.350339120154303
1223,1.2708122296569129
1224,1.1165642691137982
1225,0.24560281705791556
1226,0.35952316028032216
1227,-2.4237473182779774
1228,0.762510580763997
1229,-0.5793405695758157
1230,-0.7017273465958874
1231,-0.3232569530486076
1232,-0.3570044894510149
1233,-0.7176355919716624
1234,0.01387207217597611
1235,-0.5582775962080532
1236,0.10032295575614611
1237,-1.487177814550033
1238,-0.2140577706320174
1239,-1.0962955896862512
1240,-0.6414493184978661
1241,0.14339884303353057
1242,-1.603997614754958
1243,-0.8224073772721373
1244,0.568964384836334
1245,-1.413177841865801
1246,1.7778671402788075
1247,1.2044079561306467
1248,-0.49452708445227916
1249,-0.7872096877850634
1250,0.20193990333548184
1251,-1.4474622570271596
1252,-2.002142724832433
1253,-0.45933512405256655
1254,-0.13404876650219177
1255,0.09442722435353061
1256,-0.6147406161178844
1257,1.2739467294749474
1258,-1.4951396584838834
1259,-1.1382621349580988
1260,0.48663595614481137
1261,-1.1616473856371412
1262,-1.2003204521973168
1263,0.12335479220716372
1264,-1.0535226203160315
1265,-0.13308442792068725
1266,-0.6998565596577566
1267,-0.8616637033727397
1268,-2.1023053913449403
1269,0.1395631528213373
1270,-1.2471899921129288
1271,-0.1682422035305197
1272,-0.512104898348565
1273,-0.20650805869988326
1274,-0.14967537401326075
1275,0.1936282509182633
1276,-0.727759301491443
1277,1.2426964792733686
1278,-1.8474000608555767
1279,-0.22659111852722916
1280,0.8362309764108673
1281,0.4767725530026038
1282,-0.9748355765285969
1283,-0.8082454929880237
1284,-1.0067925593266038
1285,0.5992276306643892
1286,-0.7399237285155085
1287,0.2551230881234501
1288,0.2643014140759551
1289,2.368393468235372
1290,0.31325125980170343
1291,-0.8111440147504634
1292,-1.460150262066399
1293,-0.27585271463774547
1294,-0.11908584242731844
1295,-2.2106995273905556
1296,-0.7138541602930133
1297,0.2973525428275529
1298,-0.5323556702661748
1299,0.9686237857058371
1300,-1.55835644472052
1301,0.6768828201532168
1302,0.9138897415259529
1303,0.9564964758415365
1304,-1.5658563846543787
1305,0.3145527958573842
1306,-0.6687541185215149
1307,-1.4061424419829012
1308,-0.4138677249737084
1309,-0.9049779919008093
1310,0.9207504681638696
1311,0.5130633430135693
1312,-1.1524444681088677
1313,-0.724221313830929
1314,-0.3806974256166236
1315,-0.07240514731789721
1316,1.0063782748037806
1317,0.6907823264806331
1318,0.05139196897484001
1319,-0.26064884989492215
1320,-1.773354034607472
1321,1.2919976261260564
1322,-0.44709659786565714
1323,1.5548402404262571
1324,0.1961092921318354
1325,2.0252842086214446
1326,0.6063215333663162
1327,-1.4320196312208788
1328,-0.6144154802612122
1329,-0.16913496067196493
1330,-0.873782887108324
1331,-0.37706081718204426
1332,-1.3669391585821093
1333,0.0057212810991223995
1334,0.23741194901093982
1335,-1.0041094072061187
1336,1.9402542934819114
1337,0.06351326128045881
1338,-0.8167408661229121
1339,-1.6295392999652176
1340,0.05994288939716832
1341,-0.2604885328133525
1342,0.783040907286443
1343,-0.14337026497196806
1344,-1.1937187822687272
1345,1.6707182961775813
1346,0.4356248795071857
1347,-0.2541087115983586
1348,0.16463853144973825
1349,0.47404195656165815
1350,-1.428856613893435
1351,0.15769421996281013
1352,-0.45012347329389174
1353,0.5072999856297519
1354,-0.7401819246062783
1355,-0.6047018550970825
1356,1.6628710985640576
1357,1.2309120908821363
1358,-3.2955611799673084
1359,1.1567619824643116
1360,-0.07365202625775685
1361,-0.7081820628990116
1362,-1.0071747357076501
1363,-0.9491176282799884
1364,-0.6799359447584152
1365,-1.1271325836818435
1366,-1.3545996610726423
1367,-1.0403801508439108
1368,0.3233938550656872
1369,0.050090148570797105
1370,0.5558564515518563
1371,-0.06636983921005428
1372,-1.3066793306447917
1373,0.49444092349360613
1374,-1.0046892788749149
1375,0.6466143019889341
1376,-1.1659200029569607
1377,-0.6874766264035254
1378,-0.36139164056791484
1379,0.6744048010569486
1380,0.17599725212739498
1381,0.020001322150924445
1382,1.8856687850553053
1383,-1.8369831612251455
1384,-1.038377642700551
1385,-1.0811884780389913
1386,-1.7706523099222744
1387,-0.7195195128860274
1388,0.687769163796706
1389,-0.5916473985157515
1390,-0.3330029719863096
1391,-1.722554827880282
1392,-0.7965255751603473
1393,-0.46169871558758396
1394,0.642400422547114
1395,-1.6749163979182211
1396,-0.45500874572113814
1397,1.0868180300688903
1398,-0.445083285623264
1399,-2.115561414118679
1400,1.2791757773481915
1401,0.734896942538333
1402,0.8693971750787908
1403,-1.743783646745394
1404,1.5124557258472144
1405,-0.7732760851111978
1406,-0.509438944220231
1407,-0.7027771659920036
1408,0.9469371819552072
1409,-0.17979835250529552
1410,0.48174103258762574
1411,0.07590102288436813
1412,-0.09504200369292053
1413,-0.9467840637461963
1414,1.8121405873077656
1415,-1.4633936285052291
1416,0.4122539740346844
1417,0.3766565921072789
1418,1.1543562861524255
1419,1.3880900323792782
1420,-0.13738859941677573
1421,0.5303943059247528
1422,1.7648737104525094
1423,-0.06517676692225227
1424,-1.0664334750651765
1425,-0.3844681126994213
1426,-1.3046459986144672
1427,0.37181681099472264
1428,1.0644562081406352
1429,-0.1210414920675384
1430,-1.6209600494536405
1431,1.0216508350576774
1432,-1.7762989615657787
1433,-1.5459547779230411
1434,-0.17833838749471878
1435,0.25178524567549915
1436,0.42224749875835416
1437,-0.06613955204647334
1438,1.7600437651348573
1439,0.06516834108320184
1440,1.0346681017529358
1441,0.786954564094698
1442,-1.2928737322045296
1443,-0.1697304872855214
1444,2.123320513281019
1445,-0.5043508539402574
1446,-0.6746205243566907
1447,0.17057558147702223
1448,-0.4685199292600519
1449,-0.7937045795022385
1450,-0.48328339429758677
1451,1.4320096713686254
1452,-0.13661869147757238
1453,-1.328075032754712
1454,-1.5117465380881643
1455,2.2068049320544696
1456,-0.22333436943410218
1457,0.43457850096541806
1458,-0.7713772263396093
1459,0.3209859692714158
1460,1.459329651601532
1461,-0.6522631837437548
1462,0.45858677994858266
1463,-1.405746275890388
1464,2.022866118366792
1465,0.2685359302445748
1466,-0.41279384435229194
1467,-0.2978741232861638
1468,-0.5100381745143354
1469,-0.4589051641234932
1470,-2.44749514234966
1471,-0.09796573209675552
1472,-0.13987868060571226
1473,0.4886615372604771
1474,-0.5231437464415264
1475,-0.7710363141410225
1476,-0.007774944452975179
1477,-1.6123681180904839
1478,0.14342318753458425
1479,-1.861819259521721
1480,1.1208186488307958
1481,0.684269955660775
1482,-0.9261858764240133
1483,0.6611380133380368
1484,0.11151422425388119
1485,-1.0090102310848599
1486,-2.0228761572290894
1487,0.31643568342645223
1488,-0.7942818471350348
1489,1.0949695696960795
1490,0.014033733881851283
1491,-0.6995826964973172
1492,1.7978387330904715
1493,0.5764464926030052
1494,-3.655086515104106
1495,-0.48639176879086643
1496,-1.3840889920124233
1497,-0.7997979377203086
1498,-0.1447323989185361
1499,0.3540485085875462
1500,0.2613657421135737
1501,1.0778730765648021
1502,0.6365983775086671
1503,0.5747469291255053
1504,0.20149232313327436
1505,1.2867988527259013
1506,-0.31627654319091725
1507,-0.2903032687351905
1508,-1.9055733529725303
1509,1.0561640438100357
1510,-0.07692575577915453
1511,2.9336057061712726
1512,-0.4055326917624579
1513,0.08857812941673526
1514,0.5465049536084137
1515,-1.101899972988713
1516,0.3585477138792277
1517,0.03466143205718531
1518,-0.30368818967683764
1519,1.1726039587430066
1520,-0.9037487179106557
1521,0.27490211308222157
1522,1.4546642913850458
1523,-0.7066217559562984
1524,-0.29688598269229904
1525,2.3453045634718284
1526,0.4743910651560572
1527,-0.5061974766426178
1528,0.802624760078478
1529,-0.5680935515910258
1530,-1.564915924160071
1531,1.3723639452651701
1532,-1.1030592641310144
1533,2.451712624997291
1534,-0.4893323754622055
1535,2.133264681561855
1536,-1.3686710685200578
1537,1.0254935862662529
1538,0.4997262729846501
1539,0.8377462255551519
1540,0.9680227066762607
1541,-0.4977451422811719
1542,-1.3088438420029984
1543,-0.05091773033921787
1544,0.22303025758513412
1545,-0.4718446211555048
1546,0.2775539701598618
1547,0.32962553117474036
1548,-0.9100264465438659
1549,0.3949712816904657
1550,-0.26721202369464586
1551,-0.6999809002033713
1552,0.7873751382239931
1553,-0.7769912116935443
1554,-0.45666758990472633
1555,0.07205085018665584
1556,1.3743116206542387
1557,0.19278407772429806
1558,0.5282883324746676
1559,-0.2976425359964962
1560,-0.0784896243763409
1561,-0.04887723351959414
1562,0.2933062360170245
1563,-0.29596757304825994
1564,1.3399998854762094
1565,-0.3731662385021419
1566,-1.7072411352053674
1567,2.7427966043700196
1568,-0.327368690943752
1569,1.3131697870913475
1570,1.4047908419597586
1571,0.9452143122503819
1572,-0.19802721959740258
1573,0.2866848198743432
1574,-1.2745102093049272
1575,1.990147773818276
1576,-0.8518059981826698
1577,-0.25390096274087554
1578,0.09898648704025091
1579,-0.10743975483696008
1580,-0.6568732822933941
1581,1.3943390520546883
1582,0.9502792834882797
1583,0.3220472043256931
1584,-0.39955305599675006
1585,1.0642758718444707
1586,-0.46446863277756556
1587,1.5703918403378159
1588,0.11122091548342763
1589,1.229781526972715
1590,-0.11382032618358252
1591,0.0715331820409442
1592,1.2254210614586665
1593,2.1939251518044447
1594,1.5603668175048813
1595,0.87713461937785
1596,0.5892834329575966
1597,-0.506948690259626
1598,0.2952297411054326
1599,-0.9130491839967313
1600,0.3757821336847739
1601,0.4400506606935736
1602,-1.9608451414681916
1603,0.038738609191706894
1604,0.41487489908910524
1605,-0.08370985713902226
1606,0.35804883885657074
1607,-1.341722243356314
1608,-0.7758643055602588
1609,1.0349381631639325
1610,0.0005716656457768392
1611,0.33987898131490846
1612,-0.5465211607085788
1613,0.01949402327685635
1614,-2.3020121801351987
1615,0.8460119384207664
1616,1.8079328389524703
1617,-1.0650175492146408
1618,-0.9403321875095684
1619,0.44087989823748247
1620,1.473879290506746
1621,-0.0020973173829448243
1622,-1.229318020812504
1623,-0.20861723663787313
1624,-1.0299320803117926
1625,-0.6688462928687765
1626,-0.3040410991533166
1627,-0.9293245882416272
1628,-0.777905724174565
1629,0.07453400022224349
1630,0.21503581213723
1631,-1.4239803338209671
1632,0.39638172250933745
1633,-0.3819338631313981
1634,0.7202615235526091
1635,0.78049752068786
1636,-0.5445411809550487
1637,0.6141476940377332
1638,-0.8369560396988299
1639,1.32376206283529
1640,-0.7991362008564648
1641,0.3527496086255131
1642,-0.1876091446442799
1643,-1.0168945142376007
1644,0.9009157617853091
1645,-0.614131808866791
1646,-1.7000721649783064
1647,-2.88201336316803
1648,-0.8750446944279707
1649,1.3759084192989735
1650,1.2577384675036598
1651,-0.718598402347532
1652,-0.3744549147013795
1653,-0.4649130755560231
1654,-1.3334321454495686
1655,-0.948831871623343
1656,0.9811495194007849
1657,0.5038878713794005
1658,0.27308885852988896
1659,-1.3351466116608586
1660,0.10070321403397768
1661,-2.3038449694880216
1662,0.8428026912605329
1663,0.2585749007371417
1664,-1.3452324520998302
1665,1.6164255574900401
1666,-1.7961646591685814
1667,0.5303061822496024
1668,0.5551717689786619
1669,-1.2396704393524807
1670,-0.037850690810116897
1671,-1.636827842152863
1672,-2.8463743163268136
1673,-1.0678762269316586
1674,-0.6166249422619972
1675,0.644256180810792
1676,0.0674080850608203
1677,0.09354545938614688
1678,-1.014421623283585
1679,-0.5300113040413865
1680,-0.9299266098691611
1681,-1.2249740070298083
1682,-0.5936994269872572
1683,0.07451238509633384
1684,-0.5726385194242033
1685,-0.3235026694249729
1686,0.6949148109113903
1687,-0.5007544186907036
1688,-1.3339666309878915
1689,0.5634535216012392
1690,0.26584964850828446
1691,0.32865949817231443
1692,0.6258386575357096
1693,0.45664152730794516
1694,0.028728692471304076
1695,2.391452662852093
1696,-1.2849687463019543
1697,-0.5864172784885583
1698,0.9673343646781669
1699,0.14258629209557436
1700,0.7579230340112383
1701,0.16975642953687128
1702,1.3740565511599814
1703,-1.0075108556332457
1704,1.3424598894067097
1705,1.1709964932042665
1706,-1.21028911423038
1707,0.630665409887673
1708,-0.04303993223658949
1709,-0.6065820191190638
1710,-1.8886191897177196
1711,-1.0108136711173168
1712,0.7081121401845892
1713,0.8138412692605572
1714,-0.21071048057617164
1715,0.8169851431432842
1716,0.9452600778941374
1717,0.15463995862634736
1718,-0.7223336238502043
1719,0.4410541128156447
1720,0.4869847076588633
1721,0.6739443903503098
1722,0.8654032700022395
1723,-1.3621645719212216
1724,-0.5099292453657421
1725,-1.8986213456878198
1726,0.7469960383553472
1727,-0.21231144798041618
1728,0.430814070697415
1729,-1.475678748190158
1730,1.4009808496930505
1731,-1.194339164619275
1732,0.7745633043824588
1733,0.11795017089254153
1734,-0.18944277752617922
1735,-0.2701601066121744
1736,-0.6380630093161301
1737,1.2951961769007687
1738,0.01261283435224257
1739,-1.2692215303532202
1740,-0.38396020203484016
1741,0.1283390272029383
1742,0.8978052814453255
1743,-0.6046197205172072
1744,-0.5377765558045478
1745,0.023432127147405314
1746,0.8734248199473257
1747,-1.368754535596029
1748,0.5053546309917457
1749,-0.464062530128656
1750,-0.32443258174848666
1751,2.001575745129749
1752,-0.19646922455152543
1753,0.7546937503085799
1754,0.7189138372033486
1755,-1.1800239140985067
1756,-1.8453943252229041
1757,0.8209820924169108
1758,-1.0835461924485188
1759,-1.6641829545710272
1760,1.0261622148441978
1761,-1.019426733775593
1762,-0.772517475684394
1763,1.9743731550892953
1764,-1.659735361381571
1765,-1.2562860414069255
1766,-0.45969814247392055
1767,-0.2402568398344221
1768,-0.8937452821176534
1769,-1.1586550973229166
1770,1.509994324431931
1771,0.26298612410471556
1772,0.585168744209188
1773,-0.13722517655853597
1774,0.2894549488591364
1775,0.9329016611095904
1776,-0.9962990145453348
1777,0.26483599651798184
1778,0.6960423134078911
1779,1.5447973463842604
1780,1.9478909798017614
1781,0.06985979698176144
1782,1.138638949687134
1783,-2.670167933371547
1784,1.552282909376714
1785,-0.7258836617208037
1786,-0.241097448987891
1787,0.44110448436702143
1788,-0.15344236731551375
1789,0.1964533795681345
1790,1.5876929682261434
1791,-0.3842200453459713
1792,-1.0869238165005535
1793,1.813463857298551
1794,0.5267642170046775
1795,1.9222389753134637
1796,0.8636299105789041
1797,-1.3235943920134368
1798,0.6453846717568817
1799,-0.983948065882555
1800,0.007431802439666953
1801,-0.07571440360775782
1802,-1.6176638046330563
1803,-0.8128104895617866
1804,2.2051873001591
1805,0.23837740484116443
1806,-0.17559613466295235
1807,1.8128902199409256
1808,-0.3962353100691686
1809,-0.09142036196912011
1810,0.9908028561228497
1811,-0.4007357986163498
1812,-0.7465207393525012
1813,-2.2537564153607175
1814,-0.9364983133827613
1815,-0.9460277459896131
1816,0.15856669546860983
1817,-0.610458265727776
1818,2.158019010857196
1819,-1.057628930234806
1820,1.400646686857405
1821,0.21975295512754914
1822,0.806774035712389
1823,0.7460195947358699
1824,-2.2182355303124166
1825,-0.01155267897655717
1826,-0.26222813723383226
1827,-1.1329780946912675
1828,0.4596260372158683
1829,1.7165403158774715
1830,-2.673003643884066
1831,-0.5344696758417209
1832,-1.2457661641136228
1833,0.07177782623769331
1834,-0.32562128314999594
1835,-0.6056772127571779
1836,0.6895068283290587
1837,1.6361813010570987
1838,2.6613186517578353
1839,-0.7396290484685878
1840,-1.8208755518180693
1841,0.5591964340783401
1842,1.6104847353232035
1843,0.8136899670407284
1844,1.606347039530311
1845,-0.22548667060211924
1846,-0.6095744397731283
1847,0.11543590740131227
1848,-0.3305531873668884
1849,0.663094021340344
1850,0.9697677780034908
1851,1.0480836645718856
1852,0.5105926708043899
1853,0.24582232667529963
1854,0.7944266892508483
1855,-1.9629919076527214
1856,0.21057075233394207
1857,0.05247805717045095
1858,0.2130803959715548
1859,-0.08762354625423106
1860,0.4318554934616159
1861,-0.574602921534015
1862,1.12952342945363
1863,0.4736497774134741
1864,0.1506858578838607
1865,-0.6975165706361196
1866,0.8153168852079051
1867,0.2066596984944911
1868,-0.7554833935369165
1869,-0.056661542413238425
1870,0.6290826192412396
1871,0.5515735388198252
1872,0.48700896780815517
1873,0.0925313917410772
1874,1.0258195333018967
1875,1.23779650381161
1876,0.7373226156755405
1877,-0.5874512748557071
1878,-1.0580617172905176
1879,-0.5439397669715936
1880,1.9536567479767233
1881,0.28169591382735354
1882,2.126441827526385
1883,-0.12019834358743646
1884,-0.25881367049292153
1885,-0.07405653664407366
1886,-0.09217408005330353
1887,-0.7736509118677243
1888,-1.148848268166677
1889,0.5013366271808629
1890,1.0549007175973637
1891,2.444981300666402
1892,-0.4337129066910224
1893,-0.352655486864075
1894,-0.7712292944510174
1895,1.1257274293735673
1896,0.8149874547962647
1897,-0.8769345818745263
1898,-0.9021980869729431
1899,0.9525147585958975
1900,0.3831961512084077
1901,0.7583887130111439
1902,-0.8827684783389129
1903,-1.8777248639102067
1904,-0.8749650166801699
1905,0.6877667300112269
1906,2.111057978634891
1907,-0.4294639895276082
1908,2.2758558818768657
1909,0.8298197674916881
1910,-1.3930323017088262
1911,0.21403383781103172
1912,0.8639742784118607
1913,-2.4254828985526866
1914,0.644451157913382
1915,1.1727211798231125
1916,0.39886812413114325
1917,-0.0617212106814233
1918,-0.17292658300140687
1919,-0.2313223276918222
1920,-1.1759798037671092
1921,-0.6875238319049674
1922,-0.4165940456521597
1923,0.11349434622574224
1924,-0.5568147576570665
1925,-0.8691292424979301
1926,0.7597708591258453
1927,0.3706139719478557
1928,-0.5392295367895666
1929,0.5062784714875871
1930,-0.453157893685935
1931,0.06306502948812001
1932,0.9750440547228668
1933,-0.6037410931662635
1934,-1.172411607833743
1935,-0.14513458302134166
1936,-1.363465016185462
1937,-0.2774485093509754
1938,-0.28063747931345684
1939,-2.4636841239055634
1940,0.5306351637445099
1941,-0.18268976668132056
1942,1.1818964527719358
1943,0.21553197979408253
1944,0.7356085703155483
1945,1.1900387532070433
1946,-0.13171708277074626
1947,-0.0008231888639018695
1948,-1.5735432233902318
1949,1.2395377452342413
1950,-0.14569739972155454
1951,-1.0057305503479814
1952,0.7397224864874274
1953,-2.179781191964252
1954,-0.4292742228731781
1955,0.9083110412118409
1956,-0.43772185196590513
1957,-0.7179219509485815
1958,-0.41615479711295045
1959,-2.009929264468574
1960,0.7154784317830334
1961,-0.12288604197691305
1962,-0.2723246099947618
1963,-0.26866861640904105
1964,0.014079798464584264
1965,0.6534373706720666
1966,-0.052063541199248935
1967,-1.3616365481798123
1968,0.5755161215440671
1969,0.4985696910042263
1970,0.20552699821646023
1971,1.0752413069613191
1972,0.030378676412958838
1973,1.1113760889892559
1974,1.4072110214783964
1975,0.5823128855244826
1976,-0.7479336218779372
1977,-0.13078571850244072
1978,1.2388560340583739
1979,-1.4976278660695068
1980,-0.39195366817860855
1981,-0.3429648364467439
1982,-0.8652106003537336
1983,0.8728789499187865
1984,0.37681507104077705
1985,-0.711058356600492
1986,0.6055129202358394
1987,-0.15841623466821794
1988,-0.8901945732223427
1989,-0.7129184102428672
1990,0.43605107477593974
1991,0.9390098785218384
1992,-0.486768232954786
1993,0.5444413336690115
1994,1.5817541575774825
1995,-1.258870556370253
1996,0.3556698728386236
1997,0.8306556912954081
1998,-0.09514981659883061
1999,1.2382832108556467
2000,2.198837038261284
2001,0.34335534838630294
2002,-0.23358973227799906
2003,0.9769828076619566
2004,0.8420688603779013
2005,-2.5188309549181844
2006,-0.002735556091113595
2007,-0.39459946673911417
2008,0.3967056915139164
2009,-0.1936582802937902
2010,-0.0851760922710017
2011,-0.8632127594610817
2012,0.7345292184244875
2013,1.655042221468732
2014,-0.8476719492150352
2015,-1.3970550231469738
2016,0.0200032198274639
2017,-0.02865566103526391
2018,1.17093278612036
2019,-1.2291949523785322
2020,-0.5379551750240976
2021,-2.1477032392668534
2022,1.3749836362118226
2023,0.25054462832336355
2024,-0.46343291398079656
2025,-1.3222714785911764
2026,-1.230476058177251
2027,0.41426689979139125
2028,-1.1074250456007102
2029,0.10400542314856936
2030,2.0429448611350307
2031,-0.3475876229448206
2032,-0.9614444439743789
2033,0.38200720545276307
2034,-1.2257917407817274
2035,1.7199845303294035
2036,1.403619668528335
2037,-0.16417161895364407
2038,-0.8972931814242199
2039,-0.4257698727753605
2040,-0.29566561208542824
2041,0.38356713170706486
2042,1.039632329301116
2043,-1.03651263075859
2044,1.0109095653427445
2045,0.6176856128112981
2046,-0.5077894908066064
2047,-1.0867118956770103
2048,0.1162327172925678
2049,-1.0595884837020841
2050,1.0236808491626064
2051,-1.123882772132205
2052,0.547706193163144
2053,-0.0806163648150821
2054,-0.5606248843752012
2055,-0.10283150631929085
2056,1.0799831696342017
2057,-1.1922574089937898
2058,-0.4121565551918167
2059,-0.7517435646871881
2060,-0.03861713354871464
2061,-0.6846808925126543
2062,-1.7680812423866146
2063,-1.0551375469323625
2064,1.6377550185381118
2065,0.24672821128627265
2066,0.21236205380807743
2067,-0.28261239000863825
2068,-0.05162542410916941
2069,-0.42981192283138003
2070,0.5269285310410652
2071,0.10080885425937298
2072,-1.1712682101586152
2073,0.25372450310419264
2074,-2.4587419232715506
2075,0.41385919967778556
2076,-1.4093568568365213
2077,-0.09605508617007594
2078,-1.194627603196189
2079,0.002823199533097012
2080,0.5782785192762222
2081,1.5028270852495802
2082,-1.5413576550114785
2083,0.975472955671135
2084,0.1311527053774716
2085,-0.45066715282462405
2086,0.7598565050594597
2087,-0.23592485108520672
2088,0.7175305164006791
2089,-0.992269713127995
2090,-0.6329970322962923
2091,0.9436000527945995
2092,1.485400523570422
2093,-0.035031899152849294
2094,-2.78728892535578
2095,-0.19904928260845492
2096,0.03242611782242969
2097,-0.23277337669317158
2098,0.3363385616655311
2099,-0.476909927597322
2100,0.8388708606780273
2101,-1.166713272731042
2102,1.236848707354141
2103,1.5500788239610925
2104,-0.9130597380603073
2105,-0.9135998256030625
2106,0.41069531377752816
2107,-1.1872204097428893
2108,-0.49260287110232015
2109,1.1025269564560145
2110,0.7376067644769629
2111,1.9801963416895896
2112,0.17078414760020774
2113,-0.6108380022781855
2114,0.05124351165302028
2115,-0.15058833940863386
2116,-0.13655710920313543
2117,-0.023803708095732967
2118,-0.9317667088462365
2119,0.28221775497064283
2120,-1.408663267758591
2121,-0.7168266079081144
2122,-0.11887876313981743
2123,-2.2595533126555916
2124,0.7689915363449175
2125,-2.0531545098475052
2126,0.6695876908981782
2127,-1.2928092899281622
2128,-0.4049186907034995
2129,0.5191306469494293
2130,2.1981395194794824
2131,0.1164519777073494
2132,-1.982626328199508
2133,0.953695132635774
2134,-0.23191840485901827
2135,0.06990665445882359
2136,0.5578630298876143
2137,-2.225377956905714
2138,0.006536847735195777
2139,-0.40969388995269546
2140,1.221834906005519
2141,0.7271137633387429
2142,-1.6270019227815469
2143,1.262625852349048
2144,0.4495250881602111
2145,-1.5472415974532179
2146,0.05575310349277308
2147,1.0348261138558552
2148,-1.214043872573394
2149,1.377577335845417
2150,-1.5126287741275257
2151,-0.7912271766469846
2152,-0.942870835389692
2153,1.3769337315886618
2154,-0.49101613654919685
2155,-1.1628170026609979
2156,0.445210878914062
2157,0.6611809905927191
2158,0.6675360947941315
2159,-0.27133916522600965
2160,0.2545343010369478
2161,-0.6502330862292854
2162,1.6748016779357304
2163,1.1442051586579316
2164,1.0829568290406755
2165,0.7941159345735456
2166,0.5197333059950014
2167,-1.244362484149788
2168,0.6333012362556484
2169,0.11426523006332008
2170,1.2633640849509191
2171,0.8074191823824282
2172,0.5503804701530215
2173,-1.684224797530156
2174,-0.08900053660847065
2175,-0.5578922599036565
2176,0.2523659241830736
2177,-0.4155482714426437
2178,-0.27594577609330595
2179,0.4590339049067038
2180,-0.43213811356877607
2181,0.12159153957401245
2182,-1.5194118908743064
2183,-0.8324014767600587
2184,0.6560435672029605
2185,-1.2301921166964747
2186,1.245725077602997
2187,0.9743993553013208
2188,-0.2682299353397865
2189,2.9987341055024648
2190,1.2431035778482933
2191,-0.949279506705735
2192,0.7461740537000482
2193,0.06586306631975722
2194,-0.7767120908594111
2195,-1.0699091431662089
2196,0.994893334888379
2197,-0.5979454646241336
2198,-0.10187635503705197
2199,-0.9210259282265284
2200,-0.7481579372985909
2201,-0.12692920007147204
2202,0.38818229272415156
2203,-2.5883591635514485
2204,0.016919799166750137
2205,-0.7461210125850358
2206,1.402362653450225
2207,2.9427526460054367
2208,-0.35927903495371544
2209,-1.7222285607131944
2210,0.11687696991856647
2211,-0.20542932949320494
2212,1.9713506490012904
2213,1.6665893433755425
2214,0.8653749705965644
2215,-0.5866940812126582
2216,0.6777665661808034
2217,0.26500635906830405
2218,0.24132320329939075
2219,-1.5582298485678703
2220,1.0617953384536465
2221,0.10780832831123513
2222,-0.10084134754457509
2223,-0.6001564950088275
2224,-0.7936164996533775
2225,0.31725858127898193
2226,-1.749162801858082
2227,0.7894987596500425
2228,-1.0541054369956855
2229,-2.058680686205292
2230,1.8218953159260207
2231,-0.8580870493455784
2232,-0.7221591615216955
2233,1.1345383310080743
2234,1.8544309005166413
2235,-1.5330015786034301
2236,-0.9561680602506695
2237,-0.8826788221605966
2238,0.9348016626956543
2239,1.6391321279295332
2240,-1.080252561578079
2241,1.41474533796822
2242,-0.7090341115287021
2243,0.33612290294557223
2244,-1.2714536994278176
2245,-0.12193041358199798
2246,-0.11111271407271618
2247,-0.31515830631527364
2248,0.3849709813196971
2249,-1.007030864852526
2250,-0.8837232981868416
2251,0.4378721449493555
2252,1.3420353309757287
2253,-0.022813694047922984
2254,0.5036707734621725
2255,0.7580800102973402
2256,0.8305051886334915
2257,-0.9535247258366385
2258,-0.7770102302049039
2259,-0.6900745939435349
2260,1.9286338008939643
2261,0.508192939171904
2262,0.46331572038501684
2263,0.3662357531837386
2264,-1.320793403619499
2265,1.9381904707770388
2266,0.47918753078696064
2267,0.7231601126549526
2268,-1.765521288915802
2269,0.779643852361518
2270,-0.35621245012762687
2271,-1.3227829747262372
2272,-0.9537636658717974
2273,-1.2648942084533663
2274,-1.2817841951146103
2275,0.060547820364210025
2276,-0.38676278873165104
2277,0.33406936216138733
2278,1.6759758710680044
2279,-0.12950371362733745
2280,-2.244889293958427
2281,-0.24195821154781655
2282,1.1933944363978717
2283,-0.08593947249682984
2284,1.529330653691702
2285,0.4529415931378187
2286,-1.838269734397389
2287,0.10958225043835845
2288,0.2970012942647289
2289,1.0803558012736438
2290,1.8196365716115683
2291,0.9077255197086991
2292,0.44047979738721704
2293,0.6761882715783463
2294,-0.1680068064495674
2295,-1.4628778368074289
2296,0.04149608622286022
2297,0.3652903274589056
2298,-1.203657625911923
2299,1.3266216394999415
2300,1.0054110154824312
2301,-1.3717614152878692
2302,1.3658322887898744
2303,-0.3083143692098472
2304,-0.7784915651183486
2305,1.079277692746526
2306,-0.05105441276005814
2307,1.8991853208368699
2308,-0.852888043886751
2309,-1.7316575239726546
2310,-0.2804382811661415
2311,0.7892224990604728
2312,-0.9271429855355432
2313,-1.3301003827998792
2314,0.2289274027027541
2315,-1.4636872101675165
2316,0.3066926996134137
2317,-0.3406230512281771
2318,0.4944664883523733
2319,-1.3838288039246018
2320,1.2981631514439038
2321,-0.18303448499368985
2322,0.7635226679048231
2323,0.9598754612848892
2324,-1.1574449523659558
2325,0.8822575096080764
2326,-1.4250667751443256
2327,-1.3701377427598929
2328,1.9639992359884344
2329,1.1118533687966246
2330,2.073664175433755
2331,-0.3702140306079106
2332,0.10242866407800864
2333,0.5273547467523633
2334,-0.012195566593894366
2335,-0.7461360206959045
2336,-0.896084697880049
2337,0.21386223282894956
2338,-1.066859841662305
2339,-1.0948634923668525
2340,0.3935720111545927
2341,-0.09515935148561522
2342,0.9372062705816853
2343,-0.4249114100828423
2344,-0.5812559499755355
2345,0.423553396035471
2346,-0.8120248745538271
2347,-0.6581277255566853
2348,-0.6184543903794149
2349,-0.2097021062955529
2350,1.7724365432959026
2351,-1.3767888249571572
2352,1.2955075821174589
2353,0.7377867562899169
2354,1.5669788473699928
2355,3.136686048322273
2356,1.4314530207878553
2357,0.9256669479078613
2358,-1.3124963516250179
2359,-1.186222261511043
2360,0.3601901843652216
2361,-1.6980761479195645
2362,0.6154392512912192
2363,-2.1349218907610115
2364,1.1522333855646154
2365,-0.3217003119335985
2366,0.12659694547018902
2367,-0.7483722964204825
2368,-1.8985264102225723
2369,1.2346952791942618
2370,1.335701394954714
2371,-0.35148776520369784
2372,0.6619295647340078
2373,-0.3908914202104039
2374,0.2884898442662463
2375,0.7591391989201096
2376,0.5550849245738734
2377,1.340969613409345
2378,0.5188806757053354
2379,0.02808461703859529
2380,-0.761418967877422
2381,-0.4785053803239208
2382,0.8100513967250161
2383,-1.5018265189141187
2384,1.1058073034127964
2385,-0.2811437260145332
2386,-0.8186059044078899
2387,-1.0987241767814673
2388,0.6743677856483871
2389,-0.014641353803318163
2390,1.58876522322982
2391,-1.263075650525921
2392,-0.578163623061863
2393,-0.09222115812741334
2394,-0.751856743969934
2395,0.006118664141802973
2396,0.31950076641551906
2397,0.48448423912974037
2398,1.506167130884461
2399,-1.3034724287815804
2400,0.33776031993531075
2401,-0.6469428195881666
2402,0.43001338002358463
2403,0.431332186353047
2404,-0.9869193832323313
2405,-0.9011523426340876
2406,0.5116430634695749
2407,0.02340451074413049
2408,-0.2196218407316043
2409,0.6579868297749736
2410,0.7317184758621317
2411,-0.5296301127017028
2412,-0.8520531376425
2413,-1.261918976837642
2414,0.03345412020148505
2415,-1.4231602771485647
2416,0.09942845822903407
2417,1.2168367914244393
2418,-0.3534597702862842
2419,-0.5362042805401637
2420,1.997844773627145
2421,1.509701819187646
2422,-0.7645978705554142
2423,0.13901318105897514
2424,0.3286782423480826
2425,0.2036604227261782
2426,1.8146734477127877
2427,0.08722989241942036
2428,0.23723487563101686
2429,0.6886622951464159
2430,1.1899197160476673
2431,0.9368991943041058
2432,0.5380847863116393
2433,-1.5586998053939083
2434,-0.488137724058426
2435,0.8194212072052708
2436,0.2503986972793056
2437,0.8261286338229519
2438,1.887166061671248
2439,-1.1769632050593244
2440,1.137910174804584
2441,-0.33036346249363113
2442,0.9353498192747322
2443,-0.04122074336811748
2444,2.1270045388929955
2445,0.13008693626173806
2446,-0.6405142243559804
2447,0.4198746227917677
2448,0.32394278071826993
2449,1.1380970941104478
2450,0.4480527986049255
2451,2.475064639169303
2452,-0.1114041354022729
2453,-0.09961994978047421
2454,-0.6038860500530543
2455,0.085668338354177
2456,0.23105912108295384
2457,0.2812105299558774
2458,0.0671876754939992
2459,-0.6098212167272987
2460,-0.8816651280823552
2461,-0.37517372483555633
2462,1.1415376602351135
2463,1.3567996854914794
2464,-0.07696453644043502
2465,-0.9415829664674247
2466,-0.08117361031679111
2467,2.0916654352700794
2468,0.9989678353166206
2469,0.5507426915325475
2470,0.9626849170525694
2471,1.5405666113413128
2472,-1.1528662015471196
2473,-0.39203986869712276
2474,-0.5287216328368156
2475,0.5871143970709833
2476,0.1601108906395973
2477,0.7563112906894081
2478,-0.5068873498672228
2479,1.3719520506791567
2480,-0.06933370814930175
2481,0.6945455519581828
2482,1.1954064989229398
2483,1.1151243154949684
2484,0.3608284084017966
2485,0.8193469063825453
2486,1.7416606639722867
2487,0.5136012339746958
2488,-0.7296464020615799
2489,0.583050730963885
2490,-0.03728121801959037
2491,-2.3480011344043437
2492,0.4619980237030926
2493,0.11665065001560704
2494,1.1564177714974384
2495,-0.7500936574883064
2496,-1.5057096623793076
2497,0.16868085941050945
2498,0.3801773876054463
2499,0.0938329453855689
2500,0.020708683685403476
2501,-1.0687269542063265
2502,-0.13891713697492322
2503,-0.3484058295044152
2504,1.07270874076744
2505,0.3793253640306142
2506,-0.277997121745195
2507,1.7238848764227657
2508,-0.26890767621500933
2509,0.5577867238861631
2510,-0.1669213335892823
2511,1.631152515028004
2512,0.08685977581361101
2513,0.11641422789067367
2514,-0.13987035877271356
2515,0.1965119260012147
2516,1.1995378386479094
2517,0.845843844684688
2518,0.028076181116170988
2519,1.701325106456654
2520,0.8729856413425691
2521,-0.43818111919734926
2522,-1.3803483537339376
2523,-0.41501380179657016
2524,0.4133487785502528
2525,0.5972003706314267
2526,1.359137683302019
2527,-1.094545975119
2528,-0.43915533394681044
2529,-1.177642669874513
2530,-1.3387992115794456
2531,-0.6278187459533185
2532,0.36661224429402095
2533,0.7713944348903159
2534,-0.9483541066216747
2535,-0.8092759193872399
2536,-1.779823175323434
2537,0.2143522082769957
2538,-0.7321389019707383
2539,1.6630313782118475
2540,0.4098087996495947
2541,-0.1714457434567751
2542,-0.6411124275444524
2543,-1.4946702201942292
2544,-1.367871776945431
2545,-0.6221409545721348
2546,-0.6989028820243047
2547,-0.9991718428459944
2548,0.37709472744234446
2549,0.5142655924148591
2550,-0.4586323973017281
2551,1.9351522682653173
2552,-1.7467293665160921
2553,0.058163898972263255
2554,-0.21858020408792528
2555,-0.5507008819672566
2556,-0.6976628460130594
2557,-0.006959882912358075
2558,-0.2255278273217289
2559,-0.3918765271125597
2560,-1.2987196349893746
2561,-1.618111817810499
2562,-0.2885164751955654
2563,-0.40209610449653027
2564,-0.19703686027682768
2565,-0.10862179788950874
2566,-0.5225023418828179
2567,-0.21240742381820554
2568,-0.8535283081034944
2569,1.5239458091632834
2570,-0.7997401481499686
2571,-0.37098070946534056
2572,-0.7237887891138806
2573,-0.7405815402049029
2574,0.02464156663794665
2575,-0.10223420988301203
2576,-0.4594603903752102
2577,-0.2834759915543116
2578,-0.7198135509932705
2579,0.4017256377261605
2580,2.0551927425907137
2581,-0.8748412772332184
2582,0.3939632237346047
2583,0.044948957020710126
2584,0.6686297581325897
2585,0.6967929604960715
2586,0.20541269721866062
2587,-0.03982057611509975
2588,-0.43445019964844644
2589,-0.7649603531086354
2590,-0.09684566095178475
2591,-1.2845888314176803
2592,-0.5938559901174687
2593,1.1068536244725686
2594,0.09851222107969118
2595,0.8926644189355497
2596,1.469643886658424
2597,-0.17702945591481717
2598,0.20732583419364153
2599,-0.30184589415275553
2600,-0.8126057604756063
2601,-0.9529682593324047
2602,0.8431503725964913
2603,0.20862728048564805
2604,1.846603072081053
2605,0.972052012923891
2606,-0.7312129895363679
2607,0.8403421802267712
2608,-0.3050755391022553
2609,1.2168597091290012
2610,-0.48633387724302035
2611,-1.0524259602426727
2612,-0.7957550770614096
2613,-0.7446649024149137
2614,-0.8402517646186641
2615,-0.5726082756051067
2616,0.8566918703252376
2617,1.7960442082661843
2618,-1.3301895155535037
2619,1.2635130428331494
2620,-0.4777037159744287
2621,0.34788253120223395
2622,-1.6541460305732973
2623,0.5240350173448559
2624,-2.0053123968160627
2625,0.3139350723101654
2626,0.2572560470293368
2627,0.1910076342954676
2628,-0.7349101506329291
2629,0.5495266744296436
2630,0.3910815094167172
2631,-0.20995278364111966
2632,0.671850307175194
2633,-0.0956041465655053
2634,0.528777158908762
2635,-0.1258793273940902
2636,0.2167019911095407
2637,0.5747229410752622
2638,-0.39791257361803495
2639,-1.2338365862541953
2640,0.27607900554815457
2641,1.1893913786129298
2642,0.29915097295744597
2643,0.3181423146963727
2644,-0.04217610649664051
2645,0.7391186527732009
2646,-0.18593541613793732
2647,-0.4538987811268618
2648,1.1052982528748658
2649,-0.5305383182926822
2650,0.8894709464517491
2651,1.1059354619577089
2652,0.5668169320620609
2653,-1.2492355195726326
2654,0.02715490922249759
2655,-0.2019999970586173
2656,-0.4959992553353133
2657,0.14275158734642754
2658,0.7692063474975481
2659,-0.45855266013119844
2660,-0.1713826742736742
2661,-0.2410589338319873
2662,1.1638710455443118
2663,-0.2571006178105865
2664,-1.2344056577617455
2665,-1.573434838990514
2666,0.3627295665659698
2667,-0.7606817398859019
2668,0.6687245052724784
2669,-1.3312199885071314
2670,-0.5389121666106079
2671,-1.3305688495201484
2672,0.4346107155489233
2673,0.6488475406246502
2674,0.3386251576366002
2675,-1.0859363204038428
2676,-0.7457637441106663
2677,0.23431398861155397
2678,-1.687741408124364
2679,-0.24113494438790298
2680,1.5169053533358814
2681,-0.17995554918037482
2682,-1.4885446390319514
2683,-0.6074092476761354
2684,-0.6306923256775757
2685,2.140308779836561
2686,1.6656790805138957
2687,0.730935434101578
2688,-0.3430759307413982
2689,1.200629660979723
2690,-1.1334596390504585
2691,1.0765753152442592
2692,0.9279735374200438
2693,-0.15134573464928072
2694,1.139186313350772
2695,-0.4472211294638499
2696,-1.2650855980982336
2697,0.9779650129999213
2698,-0.08524292913945923
2699,0.6017806032986677
2700,1.8208865915594061
2701,-0.7222540723962968
2702,-0.1433795048399753
2703,1.569634504577714
2704,0.6687317308552835
2705,-0.6997827442045963
2706,-0.9550177035394786
2707,-0.5280806401033457
2708,-0.7384147048028783
2709,0.23734811948953083
2710,0.07843450719759949
2711,0.27923775427535086
2712,-0.8408128015597823
2713,-0.07083390752525513
2714,-2.0556997739562166
2715,0.14500631736136646
2716,1.1754406449558652
2717,-1.4247459093461803
2718,0.48342823064746115
2719,-0.6110143517605632
2720,0.8025011536933694
2721,0.15864745121227877
2722,0.40470411266044076
2723,0.06482389875544045
2724,1.3283318063843528
2725,0.34741047769510236
2726,-0.7054237140024512
2727,0.09871505232100361
2728,-0.3688810429660496
2729,0.16239990651958927
2730,-0.4197697123668127
2731,-0.6768107355463147
2732,0.19927221274844584
2733,0.055789628616553615
2734,1.0639558450458475
2735,-0.41495587913281295
2736,-1.9808538474953072
2737,-0.3638707984633129
2738,-1.626430758916577
2739,0.41567197409657614
2740,-1.6738979283487876
2741,-0.9883710624141014
2742,-0.362334458274863
2743,1.5439506047611449
2744,-1.0728901157149175
2745,0.0124049831465862
2746,0.579976576957259
2747,1.4840605532206974
2748,0.7777947517214097
2749,1.093906951632465
2750,0.8643070588515412
2751,-1.2091229713961391
2752,0.35969210431704673
2753,0.8486609521722227
2754,-0.9565002896740199
2755,-0.5797598767240226
2756,-0.803192295127056
2757,0.7726229859680329
2758,-0.06928112032913192
2759,-0.32084589433509664
2760,-1.2816699166529877
2761,-0.06739425319379243
2762,-0.5675883549847487
2763,0.24333956526416223
2764,-1.1429671986454508
2765,0.17790625950620062
2766,-0.4389507704988208
2767,-1.2492969257351467
2768,-1.3272840378781467
2769,-1.1770203880226942
2770,-0.20639905744054216
2771,0.1209954343635004
2772,0.2698236323771812
2773,0.3075529177284476
2774,-0.7585232609792003
2775,1.0584029080951756
2776,-0.442225526008153
2777,0.45014976005973206
2778,-0.1641554334938168
2779,0.3756212317030415
2780,-0.21432806614491376
2781,0.3936348765745664
2782,-0.0073888698803235885
2783,0.8138405706506887
2784,-0.8186850432111983
2785,-1.7698913358905783
2786,-0.9733574194340967
2787,1.0689184152380338
2788,-0.1545588198877396
2789,0.09206229554656235
2790,-1.053636614046387
2791,0.0655537251502785
2792,-1.0228126440726963
2793,-0.875781275052755
2794,-0.4024836828238805
2795,0.44509725784214577
2796,0.5518475806425102
2797,0.579044897937837
2798,-1.588084115044374
2799,-0.006664500390261396
2800,-0.19678183338273605
2801,-1.5321824160814557
2802,0.015983766722198485
2803,-0.25042721743676183
2804,0.5115256721178874
2805,0.08124707623980247
2806,-0.5493205302832531
2807,0.9257624504569774
2808,-2.2212335007751243
2809,-0.06426512842961017
2810,-1.7632509319919358
2811,-0.9121932712061199
2812,0.5248137030093496
2813,-1.274197480440803
2814,-1.4237178187039348
2815,2.3819449834156243
2816,-1.3592890514201645
2817,1.6505209030879733
2818,-0.1722021645792605
2819,-0.5248291214389753
2820,0.5667863905882049
2821,1.3365940755444994
2822,-1.1460679421083284
2823,-0.5102497897285304
2824,0.8468697346842523
2825,0.287994312427
2826,1.1019178306413826
2827,0.5151119544317794
2828,1.8082240091491482
2829,0.17858859883365027
2830,0.22181114833096185
2831,0.32172137201579876
2832,-0.142488851726558
2833,0.8480871588009244
2834,0.23704122386302606
2835,0.7881800091451439
2836,0.9444998536241601
2837,0.4284546815603274
2838,0.5017163242341968
2839,-1.0103297875965338
2840,-0.5503535878198212
2841,0.8433834529907315
2842,1.4236311818185134
2843,-1.9404302255083603
2844,-0.5678631472514148
2845,0.023620602414650072
2846,-0.8792744620806778
2847,-0.8225196441816829
2848,0.4749198737938048
2849,1.5813759691714335
2850,-2.031823556322141
2851,-0.17047614898169622
2852,0.4632803417903879
2853,0.7802139722002417
2854,0.31912734306903845
2855,1.7614025499361152
2856,0.028906593325794032
2857,1.3119927903920972
2858,-0.6463676703459691
2859,0.05798294658884979
2860,-1.2127150757988507
2861,0.9008644405489943
2862,-0.1204428626411764
2863,0.357821062519898
2864,-0.31336863128507375
2865,0.5864285016590159
2866,0.3974339738557521
2867,-0.9946514299712064
2868,-0.9367674325830104
2869,-0.027768730341351775
2870,0.6595739574066574
2871,1.8628955531138476
2872,0.302990856665729
2873,1.0075314024885402
2874,-1.6128509347641684
2875,2.0129558494339825
2876,0.6056862111291927
2877,-0.049604511158779736
2878,-0.1646960474579254
2879,-1.1071997978589982
2880,-0.8212867957201709
2881,1.910435632133414
2882,-0.9890044382860126
2883,-1.008267757866345
2884,-0.7022204860755791
2885,-1.1981807529612727
2886,0.015306574845510054
2887,1.0889105126652388
2888,-0.6104923262720335
2889,-1.3733242797608214
2890,0.2918613130146538
2891,-0.05577433767981306
2892,1.0027245500816246
2893,-0.45450829930227044
2894,-0.26015677962667516
2895,-0.14953036454326896
2896,0.0890041105534821
2897,-0.39256167735758984
2898,-0.5546441080460088
2899,-1.8503776848818414
2900,-0.5653872091201171
2901,0.7152232680817521
2902,0.8502455193688858
2903,-0.4711130235913006
2904,1.299485998181762
2905,-0.0287040717003548
2906,-1.337846371815948
2907,-1.6523840564542558
2908,1.2182579226197263
2909,-0.3730037252610738
2910,-1.214064523072579
2911,-2.259276171435535
2912,-0.3957161108751431
2913,0.4047508589963614
2914,-0.6976911440462046
2915,-1.0532451601338715
2916,-0.5493757686067274
2917,1.2431920191448558
2918,-1.3929816176751906
2919,-0.6417010304225171
2920,1.2107577396175906
2921,0.4941762894237535
2922,0.1791278137789563
2923,-0.6484461354162487
2924,0.030504814500427926
2925,-0.5378290684533007
2926,-0.859386131070751
2927,-1.0800574753017402
2928,0.7840955963724985
2929,-0.06040613221613558
2930,0.31451374380269603
2931,0.15167318580140368
2932,0.44091882780835917
2933,-0.2547187899858917
2934,-0.48165745105457414
2935,-0.8152803293911222
2936,-1.4139691334071136
2937,-1.1220331706229165
2938,-0.3654177211002215
2939,-1.603039484435478
2940,-1.3822859041360303
2941,1.0421398926351775
2942,0.22417948485379244
2943,-0.45183672820352067
2944,2.2715744589045603
2945,-1.6482497187130287
2946,0.9756112764618219
2947,-0.11146608277941604
2948,0.7850470229128118
2949,0.10895371727080708
2950,-1.8722450622452576
2951,0.09546046755882846
2952,0.33555585463959803
2953,-2.191985298524414
2954,1.9440482938018984
2955,0.3112075941727721
2956,0.6719877401364955
2957,-1.1655293895763117
2958,0.6906175221456182
2959,1.0895044595630556
2960,0.25356822813784585
2961,-0.009371558520764512
2962,-0.8935881248984164
2963,-0.21620691778332585
2964,-0.5120295142592802
2965,0.5719956373926842
2966,-0.8498759251174026
2967,0.5646507215035573
2968,-0.8389855627296565
2969,-0.2623525541600184
2970,0.6160443970128167
2971,-0.7037967199860439
2972,0.6505364889776019
2973,0.5529941576713682
2974,-0.27095067337694356
2975,1.1617832013557894
2976,0.07778434197711431
2977,1.10227652658535
2978,1.7934649248771786
2979,-0.2413010217013114
2980,0.6449549840273966
2981,-0.6375679253228755
2982,-1.0328144095081981
2983,-0.19545965738642843
2984,-1.362600279749463
2985,-0.9376077796473099
2986,0.5914325993210678
2987,-0.5136490154488385
2988,0.7105140871218615
2989,0.29941193801748717
2990,1.8511540620191151
2991,0.5243372855760459
2992,1.1142180702793143
2993,0.4018846631275464
2994,0.3113935010780726
2995,1.164733042113315
2996,0.6687974658652647
2997,0.21006361295742812
2998,0.20565466592971773
2999,0.538229311830416
