,0
0,0.1877403030791152
1,-0.052258993728155886
2,0.244803256977345
3,0.5756511770545782
4,-0.08850165688063778
5,-0.08849545154528114
6,0.5968863395826691
7,0.2900630629732582
8,-0.1774446388712347
9,0.20506842094983246
10,-0.17515542404701423
11,-0.1760293008728994
12,0.0914531424605716
13,-0.7231519593910498
14,-0.6519576595500068
15,-0.21252470966922468
16,-0.38281418064454564
17,0.11877432745892803
18,-0.3432008411840653
19,-0.5338006242041745
20,0.5539631645620577
21,-0.08533542043136638
22,0.02552326229813036
23,-0.5385041973730215
24,-0.20575732959048795
25,0.04192479816450826
26,-0.4350346809274258
27,0.14200050351463286
28,-0.22702008590411374
29,-0.11024987442070124
30,-0.22742372259745142
31,0.7000953478744087
32,-0.0051014714351602965
33,-0.3997771538589169
34,0.31089275422950297
35,-0.46143552678795885
36,0.07894301861678503
37,-0.7406856856441464
38,-0.5020071400301029
39,0.07440655327121845
40,0.2791141317428916
41,0.06477112209046426
42,-0.04371094210729362
43,-0.1138064996245363
44,-0.5588287849217783
45,-0.27207553687465036
46,-0.17410509031343419
47,0.39955464513917355
48,0.12987550573307555
49,-0.6663665432157818
50,0.1224922267030422
51,-0.14554742118274452
52,-0.2558524671139936
53,0.23119190616397847
54,0.389681191192947
55,0.3519907994457243
56,-0.3171944089049535
57,-0.11687129268653541
58,0.12520580827767633
59,0.36872139986952207
60,-0.1811108382867931
61,-0.07017249727417205
62,-0.4181553154218655
63,-0.4521236062807975
64,0.307105894267612
65,0.5126105476727904
66,-0.02721726765444126
67,0.37929978289918154
68,0.13668556962828074
69,-0.24383234807716778
70,0.13659469958383824
71,0.5813231803132313
72,-0.013540969992200794
73,0.5913797148169715
74,-0.9901705776857833
75,0.3106499469311455
76,0.032900699273638666
77,-0.11301415564471705
78,0.03468231354615859
79,-0.7512304373766482
80,-0.08302816932144726
81,0.1349758648964072
82,0.5585914437842023
83,-0.19588772992617628
84,-0.30558185854885506
85,-0.1896463365570972
86,0.345989479008795
87,0.1242562399137213
88,-0.20023053623806963
89,0.1939968548694884
90,0.03669186478035933
91,0.3661133933797913
92,-0.265351127651851
93,-0.12384465056389761
94,-0.1482029514612173
95,-0.5531566561118827
96,0.11192294446805884
97,0.09866961837575224
98,0.0019327049451232665
99,-0.0886656022408829
100,-0.5349598566317637
101,-0.1589889877428052
102,-0.1295339116316525
103,-0.3032323052686311
104,-0.06096026901376131
105,0.1527168691648337
106,0.7129112601484723
107,0.0659842110260895
108,0.09734489770285004
109,-0.028137911320248666
110,-0.7252273512157766
111,-0.010021302961595544
112,0.022764879559595174
113,0.9310180069396368
114,-0.07270561068104349
115,0.11397418233245686
116,-0.013119815743859946
117,-0.44171877860632425
118,0.4319464228310915
119,0.2842039724376866
120,0.29898197299758816
121,-0.3437161501126959
122,0.5302064124733047
123,-0.5298498981857095
124,0.22181113218994578
125,0.8279144062593655
126,-0.37438754012451714
127,-0.21404042293563352
128,0.03766467569000041
129,-0.19029591028100518
130,-0.5860956865375909
131,0.02591436864050504
132,-0.4015130633342322
133,0.17900111346618539
134,-0.3475096961640918
135,0.5858201405913246
136,-0.296041917870608
137,-0.12172781124923085
138,0.30748060634706015
139,-0.46522298270682255
140,0.08597177431336306
141,0.4940535222701877
142,-0.6075715536221024
143,0.06978503903982257
144,0.0982264633722708
145,0.2955012697178716
146,-0.4675234235754232
147,-0.49908568789594754
148,0.19727536879000168
149,0.11224965551039871
150,0.09467739817355848
151,0.13094511492751482
152,-0.25702518552466075
153,0.08778364625190335
154,0.11077098292384686
155,-0.2699994572577303
156,0.7051964798588765
157,0.1790920102468466
158,-0.45027039851424844
159,0.24815393868959185
160,-0.3683950438392229
161,0.2974900174671923
162,0.43790796745035393
163,-0.3101887599637951
164,0.36412195099949923
165,0.1560165255178139
166,0.3107095351541984
167,0.7169203600963995
168,-0.09274798994775206
169,-0.2848854921493748
170,-0.3362048526275142
171,-0.3083473044324693
172,-0.029141706966812436
173,0.1289433263776298
174,0.10457929215527248
175,0.31264588080396105
176,0.004914253211756078
177,0.5493842414737187
178,-0.100030880503075
179,1.028127305545994
180,0.23648002937708146
181,-0.32397510409675717
182,-0.4047593186792032
183,0.18235743216887956
184,-0.08446099389285928
185,0.2698668204778453
186,0.17886700938007838
187,-0.027526741592189954
188,-0.3200579413972488
189,-0.5725584329678832
190,-0.16876678854875196
191,0.3236883189822088
192,0.08091982917474487
193,-0.47084500100303484
194,0.06545623737459205
195,0.14563628037050608
196,-0.33406671008904787
197,0.05810262865698907
198,0.022000827591984833
199,-0.4320021662847509
200,0.13523091110340135
201,0.21195662798049877
202,0.40935489236873196
203,0.39829973725341433
204,-0.520710076640857
205,-0.35446454698637686
206,0.1946650333516876
207,0.19419283617607766
208,0.1946697273292871
209,1.4561956275113659
210,0.21577633102011146
211,0.4292034687582458
212,0.3605787737885816
213,0.24620275102261702
214,-0.11916057390650533
215,0.2868634014539617
216,-0.29210047494093627
217,-0.08950901989526687
218,-0.18345017757311594
219,0.030945515946235416
220,0.8748587053490459
221,-0.7057599044864132
222,0.259381971202115
223,-0.6095493043678135
224,-0.1783734789493646
225,0.411584638515854
226,0.024295563542439648
227,-0.4073492370284968
228,-0.27035938951198935
229,0.25686380503435186
230,-0.2760526390604919
231,0.08181365673967173
232,0.017224536453305843
233,-0.24628178199546183
234,0.8103346978830942
235,0.23959886920095164
236,-0.7654319505345857
237,0.07047310682212328
238,-0.25013177240082324
239,0.3221895161617529
240,-0.2995446832505993
241,-0.04336629863399053
242,0.19086725077621208
243,0.3272247057195111
244,-0.4536693989477053
245,-0.12642958332555929
246,-0.17951245424115422
247,-0.24693523909124585
248,0.6672789815497503
249,0.15306869896173272
250,-0.47656933932603585
251,0.34691920711378166
252,0.8020996486471457
253,0.39023518810454866
254,-0.5742678684878562
255,-0.1830232761640044
256,0.4788474048518363
257,-0.2674739166373239
258,0.1677479762705458
259,0.2927841517794208
260,-0.35034678720620455
261,-0.022498469834584874
262,-1.2250839020712265
263,-0.3871821350140801
264,-0.09546178824023055
265,-0.47161771280112097
266,0.616993478224826
267,-0.5405426322495805
268,-0.16632118251504135
269,0.04941529339485965
270,0.54475009916415
271,-0.5427048812844322
272,0.43963457460668465
273,0.0038677335155394843
274,-0.37097540004733626
275,0.1746586961256501
276,0.07523749293480379
277,-0.22686065566656788
278,0.026382708268197767
279,-0.14563485058114492
280,0.042905523575294445
281,0.2502618714585914
282,0.5994580100981504
283,-0.46785028269674367
284,0.8062108353630493
285,-0.7378198364142644
286,-0.057369373455779686
287,0.22236300291120353
288,0.10620494320835011
289,-0.2353582958520896
290,-0.07866281667778202
291,-0.1863368384613823
292,-0.22275893976863026
293,0.32111940886808604
294,0.13493917000891226
295,-0.2618952100157301
296,0.340016792837295
297,0.11614830146411566
298,0.3072330023761314
299,0.23797733342906813
300,-0.31333066243043967
301,-0.21172853164780836
302,0.2824504336435792
303,0.23069827571506166
304,-0.007900059947712092
305,0.044345582601855386
306,0.4829119390190612
307,-0.22359296822867109
308,0.2067833733586616
309,-0.07642163932351458
310,-0.08227576126179083
311,0.415298613816076
312,0.31197805535846107
313,0.3074777408589096
314,0.4934246093708005
315,0.00793870593389504
316,0.25775399541257765
317,-0.11726981114812778
318,0.12252336458561741
319,-0.049189450959893105
320,0.03666102879249418
321,0.22494821147700228
322,-0.30925834934358926
323,0.7908480539856676
324,-0.38023882943665754
325,-0.4589201591661198
326,0.4377247659887089
327,0.29922037292476616
328,0.2358951177467331
329,0.23749227927678804
330,-0.004628845045147798
331,-0.33913027567386766
332,0.02865142988938907
333,-0.25594306943370165
334,0.3685606161621384
335,-0.055582465701572714
336,-0.31200861295627597
337,-0.1214724302730006
338,0.1560734195042202
339,-0.21306785352291666
340,-0.3107700985077046
341,0.09210510847062872
342,0.09258866095398578
343,-0.1916065101247733
344,-0.17803574495018867
345,0.08770663228520319
346,-0.5473244350069499
347,-0.5319713037618126
348,-0.2715463914722016
349,-0.08067544021208892
350,0.11751201418583154
351,0.5576322350402245
352,0.32416486750484363
353,-0.060451082191497224
354,-0.007187450998573685
355,-0.3789204829816048
356,-0.006997307689111806
357,-0.10910271033901071
358,0.12197615058848248
359,-0.3126639076366795
360,0.1962945315643438
361,0.579320855513755
362,-0.041107472195901495
363,0.15183275934475554
364,0.2608499101275751
365,-0.15164708421684356
366,0.084698996792804
367,0.004759480125412075
368,0.036918095113606525
369,-0.292170235585908
370,0.009263975097145601
371,0.18822566171008195
372,0.5484807289809616
373,0.3625702922544212
374,0.8138264728460681
375,-0.2900301172218965
376,0.32970620975320464
377,0.06929676457935083
378,0.8276677116476775
379,-0.3055080354585218
380,-0.31738502355419446
381,-0.2265491253608564
382,-0.8027571281653071
383,-0.19871671970152366
384,-0.2869251763682355
385,0.056843508249342055
386,0.12917161728236828
387,0.709125922519512
388,0.35922644513539753
389,-0.21804908618953686
390,-0.3395688277999402
391,0.1859279704215921
392,-0.499001248340839
393,0.6922263472742705
394,0.44578646367436053
395,-0.17733172809651526
396,-0.6475039894817443
397,0.5117156584231817
398,-0.04329199224946415
399,0.46785059003727464
400,-0.6026370098075489
401,-0.22654246468561623
402,0.0019819322006017336
403,0.017756995363951315
404,-0.1701087587473017
405,0.23541514644355518
406,-0.40352259296547716
407,-0.05381438702339835
408,0.04546747504529993
409,0.19443960281049635
410,0.2689651423823926
411,-0.42507475556549507
412,-0.5798406540780771
413,0.48291644666497424
414,0.12560289041144837
415,-0.28290131934409946
416,0.5862803389855921
417,0.04372090219103541
418,0.44573243869594975
419,0.025519587244555133
420,0.7788895034328788
421,0.6634564764656187
422,-0.09409960317808401
423,0.3672193024685367
424,0.24392918067777988
425,0.517294105386512
426,-0.364706787272399
427,0.25930307853552104
428,0.40004685339216617
429,-0.6647410431464312
430,-0.44722968017340164
431,-0.7707573154105551
432,-0.10182621220592135
433,0.2712054805737729
434,0.5678375914671714
435,0.028005194634094736
436,0.6155588164164884
437,-0.5216293203534574
438,-0.6438180460240429
439,-0.02099505674033575
440,0.14516309500939753
441,-0.012357453233553337
442,-0.7814196638186619
443,-0.033684208769012576
444,-0.49304312731492667
445,0.25311243200729144
446,0.13856111289210224
447,-0.3552411681312439
448,-0.19422343860803948
449,-0.4003450806050051
450,-0.023690471969548498
451,0.3610098638170609
452,-0.37256942563468287
453,0.1905116756098393
454,-0.2004185412872675
455,-0.2996777622093703
456,-0.040453673596212346
457,-0.3912848188300872
458,-0.20925976792747236
459,-0.4527552864017478
460,0.7425962994707269
461,0.0133283698374279
462,-0.2644713828795313
463,0.08087680419522168
464,-0.04245601210554871
465,-0.08351865823863446
466,0.23213319312172934
467,0.28631100242845614
468,-0.20051058668740326
469,-0.21763883787436686
470,-0.10395976976421469
471,-0.8700444199380718
472,-0.5726883913321669
473,0.5166299121645431
474,0.6217393549507061
475,-0.09412677545123159
476,0.21791804870117323
477,0.11764150063608815
478,1.1637075622260074
479,0.423159541394722
480,-0.048348305052637534
481,-0.3611603390705447
482,-0.6071796368537656
483,0.07690202590709627
484,-0.28587371085151797
485,-0.5375613738335033
486,-0.24438157945478264
487,-0.40878672122029663
488,0.6376795989921279
489,0.3332285061193822
490,-0.0030133751737268775
491,0.5593663065386634
492,0.029242471627647815
493,-0.3255348292662103
494,0.5756867891928914
495,0.20368885066065162
496,-0.3920421961008466
497,-0.0719412581551439
498,-0.3309525916978298
499,-0.5226491715912365
500,0.3500622086657753
501,0.7216916542703419
502,-0.5286088560063452
503,0.2127823708661585
504,-0.24591977575550109
505,-0.18411608896404097
506,-0.22390385738881224
507,-0.3265578159468683
508,0.018339451535716325
509,-0.3140696228462539
510,0.10222307162762514
511,-0.018988220562922927
512,-0.09031387261044668
513,-0.3430268212458769
514,-0.21799907200509067
515,0.285511046585026
516,0.18932890084171325
517,-0.36948115293769046
518,0.037544082474348955
519,0.28399763811113743
520,-0.63097588731786
521,0.20537084876707445
522,-0.2504482398533601
523,0.21566602507458013
524,-0.2884848448720596
525,-0.6821813120214519
526,-0.6151532198346624
527,0.018174401524546045
528,0.098165878491798
529,-0.34179955664107065
530,0.24136526214945678
531,-0.6279955547297458
532,-0.024975816272288853
533,-0.4577210997488539
534,-0.2463708909738289
535,0.017915013825445997
536,-0.3252056841796448
537,-0.1453483336176025
538,0.3803429313277108
539,-0.21804463144762476
540,0.3158619287346694
541,-0.42698905597557824
542,0.2002471569038367
543,0.5448617240136019
544,-0.9341938109567657
545,-0.3011980952774522
546,0.21811276243810654
547,-0.07674394233269483
548,0.1402799544383361
549,-0.2282849428024248
550,0.032727863390175596
551,-0.05884046423450073
552,0.44138013152487793
553,0.09616203996090619
554,0.127601812257766
555,-0.15567486044511772
556,-0.18429782951757917
557,-0.16349162750506935
558,0.14908889612137363
559,-0.15911717743829382
560,0.10952460107817691
561,0.7844277691429523
562,0.32925418945787893
563,-0.12322531252442491
564,0.4540161870620423
565,-0.15423799331213447
566,-0.7703386658656737
567,-0.38102081125371257
568,-0.7070928825404573
569,-0.13285960875131061
570,0.006961492984063025
571,0.6336337452671325
572,0.12356693253706239
573,-0.08281221590728538
574,0.3134858434029293
575,-0.8357305918212601
576,0.08905393228880606
577,0.29135965676864317
578,-0.5588530711848695
579,0.4322983941928798
580,0.12793961627414285
581,-0.15696407752461766
582,0.23916906455265732
583,0.8582412293658546
584,0.06873898325134582
585,0.09381856309104793
586,-0.17362210031577294
587,-0.321210979244619
588,0.31383743932083213
589,-0.323569272111368
590,0.027049495135881015
591,-0.18053754514551032
592,0.18103735742028654
593,0.12611242178793075
594,0.3921532382574599
595,-0.19276807941919832
596,-0.10200313769655836
597,-0.36993791203621285
598,-0.16792706790621895
599,0.14260618201981906
600,0.2861148035643443
601,-0.34854573078017936
602,0.32868014331844
603,0.5123829488945704
604,0.15626370532056694
605,0.7093621402394338
606,-0.29246482685941394
607,-0.4704352590155558
608,-0.6722930615079471
609,0.5654515997904612
610,0.2473269704591985
611,-0.02100903084806147
612,0.10581819430608813
613,-0.42539487463978803
614,0.9244073580871479
615,0.04884101594689631
616,0.04134734589279101
617,0.2743139995295552
618,0.18180440078594007
619,0.08462020725184692
620,-0.2987712609796432
621,0.17819828914543273
622,0.7113383970006423
623,0.5085209787210163
624,0.6021679437431082
625,-0.19322136373636856
626,-0.37403546437642554
627,-0.04754298696691728
628,0.021062037106681863
629,0.41356552065003815
630,-0.6396915018569186
631,0.578115680436026
632,-0.059721372117703155
633,-0.16134587864029168
634,-0.3825394968255424
635,-0.6254770298875493
636,0.3111292359638628
637,0.027711586830472885
638,-0.487559391673136
639,-0.48949376558846175
640,-0.12691468691175514
641,0.630830841247062
642,-0.09811630831589802
643,-0.5681346341328185
644,-0.0928821477129166
645,-0.10307982031687339
646,-1.019327338765035
647,-0.020521530610511225
648,-0.08728504800995643
649,0.26314127178237345
650,0.698839716043216
651,0.4258015577036426
652,-0.10163037222369768
653,-0.41822748196860154
654,0.9726385818984621
655,0.022382464204717747
656,0.005264777477268402
657,-0.009118425835834089
658,0.07486900221478128
659,-0.05456310701622798
660,-0.21682385811590418
661,-0.20669325153630877
662,-0.012379572516518647
663,-0.20539525724173338
664,-0.26943038058642454
665,0.04022684492181985
666,-0.09637232961183269
667,0.5684559173392285
668,-1.0019724065926368
669,0.41255081207283384
670,0.4709759331069678
671,-0.7836678465346253
672,-0.12952373590337898
673,-0.1403914511701903
674,-0.5319894159483456
675,-0.2939870744230679
676,-0.4197582141682689
677,0.6622959747182544
678,0.35365319077210067
679,0.480602651381665
680,0.27276640137158253
681,-0.4267414577082545
682,-0.19825002602709418
683,0.18496619813863183
684,-0.4619208932377657
685,0.2694880759165129
686,-0.09083446246557214
687,-0.14166894899837648
688,0.26871760971268965
689,0.16791574840315523
690,-0.13643238663796986
691,0.438185478172459
692,-0.40860353090589674
693,0.23280177708630714
694,0.22417120440912988
695,-0.11699755680719506
696,0.1232666958826487
697,-0.47287648357316064
698,0.3492493853608234
699,-0.06988643855895457
700,-0.19757073098027023
701,0.39648821922525723
702,-0.2662168918133682
703,-0.5323483316339458
704,-0.5883505252417511
705,0.2290502318987021
706,-0.48395680544180364
707,0.6632498582333783
708,-0.7868953514931835
709,0.6412002372238917
710,0.07975710578697955
711,-0.036554120361175294
712,-0.20596005547841392
713,0.15085927112003106
714,-0.014224580468866902
715,0.41700891440646326
716,0.04317399302963097
717,0.05680872606329714
718,-0.1374324981691293
719,-0.02152342265991501
720,0.11633813337059509
721,-0.6463828952874985
722,-0.5095661925849083
723,0.28092742160397616
724,0.06458106527751827
725,-0.06953916476701977
726,0.006967371796548693
727,0.13137353609467248
728,-0.20400998311975677
729,-0.29417153537727636
730,0.07402254863435287
731,-0.36979015129783943
732,0.15430503766818512
733,-0.643516114729906
734,0.38898426810626224
735,0.1786250583857333
736,0.09677014360463647
737,0.3714222798778851
738,0.6294901707116332
739,0.3833958470609132
740,-0.6957850587215315
741,-0.4836346339070049
742,-0.23615922444512213
743,0.009861490043195078
744,0.19565671887008484
745,-0.27430537787825665
746,0.07059120171121737
747,-0.2855079119470883
748,-0.23113200414361212
749,-0.5316679201728198
750,-0.3489493673309061
751,-0.5108887596364626
752,-0.3688454197853778
753,0.39823916639537743
754,-0.3588390506929112
755,0.9949468998952058
756,0.18645664043246346
757,0.06986148808540135
758,-0.3244287460395624
759,0.26469225451397477
760,-0.21757064763813733
761,0.04611537529438753
762,0.9676210033658357
763,-0.0363072293767465
764,0.43438448711312705
765,-0.26577570695521835
766,-0.013224406372072482
767,0.6692997290523801
768,-0.2369712735908992
769,0.6850411640796429
770,0.26750508730568934
771,-0.21259245853607597
772,0.2390276578190768
773,0.3675910300259459
774,0.23502207468131012
775,-0.5934891587594577
776,-0.2748320194660642
777,-0.09355325064618746
778,-0.02813319180406867
779,0.23459200226227367
780,0.06716466517094948
781,-0.5047127268257079
782,0.14370128039470956
783,0.23077971944314646
784,0.2115809016478547
785,0.4084967173727828
786,0.31519294767479583
787,0.17355375666191125
788,-0.02652014615478501
789,-0.6277842239252855
790,0.1623804237896105
791,0.07849856722911054
792,0.10264715208100805
793,-0.4825656026252047
794,-0.4086009655885872
795,0.3980543632081348
796,-0.014950442882229523
797,0.2575830519378648
798,0.010703340110626132
799,0.011246763583297643
800,0.35463794425880996
801,-0.1950465737498696
802,0.03633023880173628
803,-0.17472363588058984
804,-0.16422413762595248
805,-0.11685607871596801
806,0.08395867393308826
807,-0.18094997049093
808,0.4746312022305047
809,-0.33812977753360124
810,-0.0706308425058159
811,-0.1662027177063883
812,0.5469062335157652
813,0.07429072252164373
814,0.3900005775877113
815,-0.5614890435183101
816,0.10093551300624844
817,0.33624883484059187
818,0.031100424643582605
819,0.4027137284632492
820,-0.1955166564359471
821,0.5326832625166461
822,0.8689018177956511
823,-0.13714008528400237
824,-0.16838412572552466
825,0.549327697973583
826,0.597022153641163
827,-0.19762251462057528
828,-0.15881568888906034
829,-0.10650457119007288
830,-0.5081545288900567
831,-0.34721779883180076
832,-0.3795295357325267
833,-0.2902002020723497
834,-0.013109655182529111
835,0.08852484795416296
836,0.5860341016670196
837,-0.37734235888446965
838,0.3720388966113805
839,-0.0808801807375481
840,-0.01869552495186324
841,0.2550577937331046
842,-0.42434903721564843
843,0.14453729819004701
844,0.06291302115846986
845,0.18612908248356777
846,0.10929547410541135
847,0.928016223460903
848,-0.2410430570644615
849,-0.20069798426676633
850,-0.23552498068082847
851,-0.20995061661208936
852,-0.24090968967527318
853,0.4494060065793252
854,0.5369001394988541
855,-0.21572182213899038
856,-0.3146008355446331
857,0.17817833233793884
858,-0.20872069191520856
859,0.23922574094873397
860,0.07669769263750191
861,-0.5728974256417663
862,0.5849019878997548
863,0.6787779583005861
864,-0.23161235446494538
865,-0.14653741578605953
866,0.1080469617569156
867,0.12641278437180373
868,0.24890633897403117
869,0.7597858991355799
870,-0.06687976559023222
871,-0.30172799733669486
872,-0.5213336651280048
873,-0.27626558735326084
874,-0.012520818844635684
875,0.6782791171690653
876,-0.19563868186382805
877,0.08458389520701069
878,-0.006207271259423045
879,0.4491704373265155
880,0.9550906826752514
881,-0.2006495359938841
882,-0.18499072096132976
883,0.3946557156382643
884,0.2577307575260857
885,0.6979897611740992
886,0.22070410884196232
887,-0.13579964575071438
888,0.223246541812973
889,0.41905056455846196
890,0.31011311522972307
891,0.19173156183873616
892,0.40316513692284556
893,0.44195219163481186
894,0.5224069946624641
895,0.2451892907986943
896,-0.06316469715727356
897,0.05545256117601187
898,0.4560175257072384
899,-0.3087726603671301
900,0.13934541290071414
901,-0.14866809691538618
902,0.010864521852301839
903,0.4832093845180326
904,0.07222865853669723
905,0.017551365452206386
906,-0.5139773096938366
907,0.282057335814735
908,0.24397008836077913
909,0.8176334314788699
910,-0.11632923837772097
911,0.08283103810530008
912,0.09425817259083541
913,0.5962212975824787
914,-0.036018325678768094
915,0.10546022394601677
916,0.2297632839391603
917,0.07053161889250686
918,-0.16873604585719487
919,0.07335912188217347
920,0.4057946585417232
921,-0.38798631417781043
922,0.05025781281513265
923,-0.26462079486127527
924,0.4516851693230316
925,-0.5757105357611554
926,-0.21125260145734964
927,0.1425726875715841
928,0.5917124646928394
929,-0.02485126277667094
930,-0.20984569652156707
931,0.7110105403986948
932,-0.5472978107808613
933,-0.8310705346434589
934,0.1663098297308527
935,-0.18975866032949099
936,-0.38598972354653854
937,0.2677335713061885
938,0.0921480082998046
939,-0.213201682402174
940,-0.48390957733504014
941,0.3297578743064432
942,0.24575294557712404
943,-0.037484953088609364
944,0.6979631790504984
945,-0.4044540247796663
946,-0.5765943172908802
947,-0.26151666900349607
948,-0.01722989464839574
949,0.09197366672560676
950,-0.09117865947849116
951,0.1330644324135807
952,-0.4730374389144129
953,0.5456917277279252
954,-0.03105022684823429
955,0.422298130181613
956,0.12953800493055379
957,0.172636489772728
958,0.21535178981086553
959,0.16921792994866436
960,0.2429263692243723
961,0.5023724356003854
962,0.07427802034137307
963,0.2679782315985039
964,-0.03391690440138877
965,0.5443131444088757
966,-0.25565225999532987
967,0.6806915016461459
968,-0.015178278652419813
969,-0.5407821574667713
970,0.04841891767191186
971,-0.25741333080955403
972,0.31773339598212963
973,-0.24666867841021306
974,-0.16864148620047192
975,-0.7141792666012976
976,-0.17095571959372055
977,-0.9161402723272741
978,-0.5986589959766084
979,0.2874097247780721
980,0.2970045428550289
981,0.1608078431278449
982,-0.365482628350328
983,-0.01803319758075897
984,-0.001361631788861827
985,-0.43782069930315654
986,0.5682311468503882
987,0.3316117757956021
988,-0.0835166075154482
989,0.010161891966978757
990,0.07876129819007968
991,-0.7717032435685508
992,-0.09342426912419759
993,-0.25776581689508204
994,-0.37857677919542865
995,-0.10624592406337936
996,0.6794616407564678
997,0.24221583434051067
998,-0.21588536586719756
999,0.21641594920943805
1000,0.5289066401418253
1001,0.3494786826887055
1002,0.022538161342223886
1003,-0.2445191182557748
1004,0.2639036067727169
1005,0.14872349633776427
1006,0.338351233649215
1007,0.24007237529304698
1008,0.39669363894107595
1009,-0.2022998946734723
1010,0.4979281537629612
1011,0.07468563045439446
1012,0.7843748820784774
1013,-0.26048851046860266
1014,0.6561326440264473
1015,0.07480324497430295
1016,-0.24621286244485782
1017,-0.182891654264972
1018,-0.12107990152159072
1019,0.16031965840026044
1020,0.19761323970585973
1021,-0.21683821965403657
1022,-0.009205170629276983
1023,0.8097020871360212
1024,0.6529499438878051
1025,0.16491484586979765
1026,0.014363964598361492
1027,0.045367577147666004
1028,0.23188799724474135
1029,-0.386579252902971
1030,-0.0972791873321543
1031,-0.6306655001547327
1032,0.15089215714860246
1033,0.24461707228345808
1034,-0.1826273165881757
1035,0.5949110775104164
1036,-0.4632958728494858
1037,-0.5534816798864548
1038,0.0848348133179825
1039,0.3957659581356593
1040,0.6364648424875179
1041,-0.1734419485874866
1042,0.4077030327530136
1043,-0.0145548333812267
1044,-0.06524698644913769
1045,0.33399206259151676
1046,0.24655487297139034
1047,-0.5958202308704308
1048,0.5580797951610083
1049,0.5216255013749322
1050,-0.23644047681027777
1051,0.14959967393086035
1052,0.1867258590090057
1053,0.09852542252696375
1054,-0.2079957974674459
1055,-0.25384977232338796
1056,-0.009658530975521995
1057,0.44324990574699363
1058,0.20546154595901905
1059,-0.14007905071659177
1060,0.2916746964921017
1061,-1.0766479104507696
1062,0.43419262255221786
1063,-0.6575500015827557
1064,-0.13698979941440304
1065,-0.4231954416666674
1066,-0.48934360168566066
1067,0.4387512849465162
1068,-0.1767744380796315
1069,0.13096615705400158
1070,-0.017734311869358685
1071,0.1803044848652729
1072,0.02903594557016168
1073,-0.484925479890369
1074,0.37655346338891715
1075,-0.18662244674940215
1076,-0.5883326570226352
1077,-0.1618123212017416
1078,0.5672338833805355
1079,0.3213536126989134
1080,-0.13177812024500876
1081,-0.13200700415712743
1082,-0.12156662263467381
1083,0.7849369571795485
1084,0.14435803192623992
1085,0.16254046455259263
1086,0.3894105427532716
1087,0.09025381865177273
1088,-0.09790872813230143
1089,-0.0742132672348451
1090,-0.02706273228123365
1091,-0.014068683006667094
1092,0.2750181170066956
1093,0.019633699354153426
1094,0.2769119206902259
1095,-0.030507999663847388
1096,0.029721308267801467
1097,-0.7552488686958551
1098,0.34633930667269397
1099,0.13096033419655512
1100,0.3772123652309844
1101,-1.0946816377191178
1102,0.7893314447382481
1103,-0.052759920243224234
1104,0.4188537343260764
1105,-0.3930474957251731
1106,0.23160676610078038
1107,-0.3981536581946492
1108,-0.23576250650890335
1109,0.7234358519873975
1110,-0.07207117311665255
1111,0.0821819013262561
1112,0.3288546913121091
1113,0.18735014356778426
1114,0.05685300221321674
1115,0.13794229296606603
1116,0.908405705096748
1117,-0.021777858256224726
1118,0.07600829521428065
1119,0.39711003510184495
1120,0.4178495266484986
1121,0.448655283887111
1122,0.24141733176432745
1123,-0.43201524948713493
1124,0.6173790883028382
1125,-0.43327783235886386
1126,0.11438545413297349
1127,-0.2850894741561535
1128,-0.02424201636970362
1129,0.12426051115559843
1130,0.12146161058537515
1131,0.15947105552619506
1132,0.6099255293988027
1133,0.17141985326333933
1134,-0.09228253398933614
1135,0.36439069849706723
1136,0.4495775865064296
1137,-0.46399214091026214
1138,0.2257960025764771
1139,0.26501838603597333
1140,-0.11246843273423877
1141,0.5199683007085296
1142,-0.05671568087483936
1143,0.04746343805873934
1144,-0.06541500085819835
1145,0.005888326509115052
1146,-0.4143530354914897
1147,-0.5442880729462249
1148,0.6026662659323712
1149,-0.3201212996763213
1150,-0.3747110869076328
1151,-0.813904959471508
1152,-0.24150484023851754
1153,-0.5000809365091525
1154,0.6206233946741045
1155,0.38167498400910044
1156,-0.26009638256621614
1157,0.8513407121540759
1158,0.37107247490942524
1159,-0.12277472268469466
1160,-0.9446865638584406
1161,0.8658949021436627
1162,-0.5252090251084345
1163,-0.6219022702836043
1164,0.3864952944493415
1165,0.9221397325350171
1166,0.5232059463493256
1167,0.21313761338568712
1168,0.22479601131746965
1169,0.3225607619322742
1170,0.28684804449039064
1171,0.1062803683752993
1172,0.03938431534215054
1173,-0.023657978600542143
1174,-0.28497182849861197
1175,-0.1060852075147746
1176,-0.639877530104739
1177,-0.03716888521740172
1178,-0.373652316835905
1179,-0.4171175547000718
1180,0.06799359803816675
1181,0.5261274105858759
1182,0.34709105204328644
1183,-0.5935934330091075
1184,-0.37404427711391114
1185,0.35557808629023063
1186,-0.3713453299369164
1187,-0.08490335015902808
1188,0.207900151735434
1189,-0.3659998015739413
1190,0.039828197648538316
1191,-0.5042142431676326
1192,-0.2272956046308211
1193,0.12086621021605541
1194,-0.6020950370012986
1195,0.16648380220707965
1196,-0.007422390322384237
1197,0.2088215744641693
1198,0.08463158768106721
1199,0.5155966187256447
1200,0.047330413151158844
1201,-0.1623000390586483
1202,0.04622411128394153
1203,0.2053473532316903
1204,0.018467370731848617
1205,0.015342217174428689
1206,-0.2653279183387383
1207,-0.2505529959594774
1208,-0.530134962395735
1209,0.6612778517278516
1210,-0.4701361122602194
1211,-0.26189354793028446
1212,-0.27153242353686163
1213,0.33824962051491675
1214,-0.11148049971988738
1215,0.4716021749495687
1216,-0.25455552886898924
1217,0.10544988149757015
1218,-0.315731508765135
1219,0.8107901596050721
1220,-0.4488700105950812
1221,0.11710122146830294
1222,0.23954514480693234
1223,0.15640135779994938
1224,-0.07003215234282648
1225,-0.04906761236043354
1226,0.016559179918342683
1227,-0.05556153407681326
1228,0.3643120624239874
1229,0.8354991613712501
1230,-0.21071208872745925
1231,-0.5177368613030754
1232,-0.033367477881257136
1233,0.9750384803234969
1234,-0.30376043455359764
1235,0.6195279195702349
1236,0.6341113040595534
1237,-0.20923668804126686
1238,0.21505538967542998
1239,0.615476071510783
1240,-0.14329681682551434
1241,-0.07694614352111787
1242,-0.21985472010012477
1243,-0.38354199294889574
1244,-0.24540384515759814
1245,-0.46260593792156923
1246,0.012882340118925101
1247,-0.29102252650829136
1248,0.08836276894697163
1249,-0.588073277974705
1250,0.12506097259810797
1251,0.3150443347124456
1252,-0.7535612414642331
1253,0.1413800942980768
1254,0.4640152637699368
1255,-0.4572013301599662
1256,0.6321729407608978
1257,0.1583742990558857
1258,-0.2664694345269843
1259,-0.021078730047105518
1260,0.2110277372581417
1261,0.028727337711052153
1262,0.20363062476555513
1263,-0.34798190942175433
1264,0.06401237460520467
1265,-0.5343338548081956
1266,-0.04203949966255349
1267,-0.34164497535525273
1268,-0.27800418713344827
1269,0.4671993055587153
1270,0.41247645462004906
1271,0.23023256885851207
1272,-0.4128554184607233
1273,-0.11959115294456238
1274,0.4585078328813377
1275,0.05356395858040076
1276,0.8766241673139143
1277,0.14866016989182163
1278,0.07258774310604248
1279,-0.11683504149077407
1280,0.05047371770121058
1281,-0.05762818135737521
1282,0.26763992281786436
1283,0.3615994869939717
1284,-0.2970760922316939
1285,-0.5031587617439826
1286,-0.6940203961816989
1287,0.1920026741697576
1288,-0.41703337783848765
1289,-0.8137161584118079
1290,0.14686890748420675
1291,0.9422652488187424
1292,-0.002294588880861416
1293,0.31691972368871363
1294,0.030928590380113512
1295,-0.03737677565445548
1296,0.3473782585476459
1297,-0.10971346512225724
1298,0.10106479507490457
1299,0.12159034178710079
1300,-0.25251445623369045
1301,0.37495676384540744
1302,-0.06612857223720274
1303,-0.2856448209369874
1304,0.2027816602893505
1305,-0.33958897725331333
1306,0.010651476293812658
1307,-0.0034466567609993037
1308,0.41042994528258897
1309,0.17941906742888275
1310,-0.00945930127313199
1311,0.3090866083219425
1312,0.5254490636377782
1313,0.21083247847939718
1314,0.00391292250336822
1315,-0.4958274902346382
1316,-0.4025751243592108
1317,-0.11536409453080913
1318,-0.230373958281827
1319,-0.07066851000074265
1320,0.021411659009747407
1321,0.2002050427572478
1322,-0.02664603349689888
1323,0.18388033742689316
1324,0.024369038216285412
1325,-0.7466561796992885
1326,-0.35503540710362036
1327,-0.05445997706550805
1328,-0.45722163597997184
1329,0.2267517462761104
1330,0.5785694316552215
1331,0.4606486810005262
1332,-0.08067382222871257
1333,0.5634415187155732
1334,0.05619101711501799
1335,-0.12740652143243344
1336,-0.2318444144677076
1337,-0.11432279565475159
1338,-0.14671704665433394
1339,0.06441127768237448
1340,0.060691260126505706
1341,0.0011512874020607852
1342,0.16514710506579539
1343,0.450021991790019
1344,0.35889772839581224
1345,-0.5612386781176398
1346,-0.9652914558603448
1347,0.35313973287358
1348,-0.516631586914123
1349,-0.08495333667707529
1350,-0.44226115325575793
1351,-0.6810845864628687
1352,0.20465367472006113
1353,0.2869336800960253
1354,-0.2179004497950129
1355,-0.9793219344951709
1356,-0.20646099501796572
1357,0.14808799442487788
1358,-0.5589760317189629
1359,0.06930353545034272
1360,-0.005786579074522019
1361,0.21895160636545033
1362,0.045197130929904676
1363,-0.367785489441944
1364,0.4522615170444791
1365,-0.05991854652551652
1366,-0.010320145886631018
1367,-0.35274213232749757
1368,-0.16754494246594306
1369,-0.33442399152431157
1370,-0.06536746639797882
1371,0.6469649936424262
1372,-0.5185298925088065
1373,-0.6098688834165145
1374,0.556050117537934
1375,-0.07911691332305869
1376,-0.25288572507243573
1377,0.3930470271514832
1378,-0.22890115832284252
1379,0.6901667990904976
1380,0.256231894700068
1381,-0.18441317825498046
1382,0.8153858619453735
1383,-0.22893872166678142
1384,0.2804856862040841
1385,0.11312196242891148
1386,0.4920119604419686
1387,0.5901957565688726
1388,0.012096431335751234
1389,-0.2847651883211295
1390,0.17385312860490806
1391,-0.25615233257860837
1392,0.7609888499748986
1393,0.051605504459827214
1394,-0.1380785676205945
1395,0.069802594481413
1396,-0.5091658780989673
1397,-0.3672355880340454
1398,0.45371381010916173
1399,-0.24828269997419986
1400,-0.3956951578569515
1401,0.20283567479792694
1402,0.4481540459620509
1403,0.27173880918376114
1404,0.3764706386576557
1405,-0.2860416568271277
1406,-0.537393919373979
1407,0.567450782572374
1408,-0.1219615152386702
1409,-0.09480596887774678
1410,0.502010198877922
1411,0.2102351823750379
1412,0.1723093815261755
1413,0.8182939703542793
1414,-0.2432270288174612
1415,0.3506906050470387
1416,0.02154893570633583
1417,0.10151833913489847
1418,0.5777067633002553
1419,0.19194387400125
1420,0.20345679384092782
1421,0.40536967054482886
1422,-0.13793916609495568
1423,-0.31719143966003643
1424,-0.39490075641335537
1425,-0.7432129320517219
1426,0.7771732442657094
1427,-0.41697356856936674
1428,-0.08362600923997823
1429,-0.10462559301446107
1430,0.1161888105369235
1431,0.3083196856514312
1432,0.32522840856630253
1433,-0.22038255679227886
1434,-0.06316607047967993
1435,0.10680518206928369
1436,-0.0939964104500356
1437,0.6075195235841092
1438,0.18557108885668247
1439,0.27775769513050685
1440,0.25054556937956657
1441,0.4435314281345458
1442,0.06841971803875549
1443,-0.4901564037906611
1444,0.15106784605232462
1445,-0.24618976510295584
1446,-0.1997983255414332
1447,0.22162476734034142
1448,0.46802700853066137
1449,0.008039900291120878
1450,0.11672790685481937
1451,0.6433767744974885
1452,0.09099614861069259
1453,0.983343787188198
1454,0.21374255519276142
1455,-0.6655057683586014
1456,0.28473636881669157
1457,0.14406432807526728
1458,0.48748072000908443
1459,0.2544386346723893
1460,-0.052331443021401074
1461,-0.46274123768523645
1462,-0.07900336528678462
1463,-0.32146651525878656
1464,-0.21941723977494057
1465,0.22246172645144752
1466,0.631164575962914
1467,0.14917181678128855
1468,-0.4520013113227894
1469,0.16804401319232176
1470,0.4522841892362716
1471,-0.2304762740811113
1472,-0.0506537277757191
1473,0.005551615780277888
1474,-0.29666367726996024
1475,0.24502697253998734
1476,-0.045714103249981854
1477,0.15856835907159292
1478,-0.3354405132827821
1479,-0.16534369594525006
1480,0.27303448922306356
1481,-0.14091768585073375
1482,0.6527309819374194
1483,-0.15104828029124087
1484,0.0849228439620343
1485,0.3524862023021492
1486,-0.5360918567823796
1487,-0.6655231746903174
1488,-0.5766438849296857
1489,0.4772119352816825
1490,-0.20858277328808786
1491,0.9669084448601825
1492,-0.2132655462732618
1493,0.06975383605603419
1494,0.5828627755446014
1495,0.7582318412806215
1496,0.7791751129500131
1497,0.4567195055482834
1498,0.3870592528968275
1499,0.2239541360985903
1500,0.2941928339642182
1501,-0.20832861880232753
1502,-0.30925010978945044
1503,-0.0012754250170225734
1504,-0.06432374116690884
1505,-0.17130410081698358
1506,0.26320971458821835
1507,0.361071429720323
1508,0.033414662187684754
1509,0.5584538784413327
1510,-0.4315179243638417
1511,-0.07319639546991055
1512,-0.27093337064789047
1513,-0.7054845288244448
1514,-0.03125036185257729
1515,-0.04601623284627423
1516,0.5720302346304622
1517,0.23842440592080935
1518,-0.3871062333205819
1519,0.700781119744827
1520,0.4615073572557492
1521,0.22001225173139677
1522,-0.08560294306674641
1523,-0.3626339454925651
1524,-0.14068093796815895
1525,0.4115082982860161
1526,0.7123066699629805
1527,0.5832912268882983
1528,-0.1847677140863145
1529,-0.4231756131450247
1530,0.05324999606804106
1531,-0.6684072528537353
1532,0.12214591478544748
1533,-0.055788533745175284
1534,-0.17614524083169392
1535,-0.6027411044256925
1536,0.19412259361710585
1537,-0.20134199213438717
1538,-0.44218700027386165
1539,-1.085613073787315
1540,-0.010399656587362655
1541,0.6698481407750413
1542,0.6278969635583084
1543,-0.17276614573512072
1544,-0.2276147640344413
1545,0.17718001465768887
1546,-0.37735422638288846
1547,0.11406661637371794
1548,0.28955112870243155
1549,0.46373716938294446
1550,-0.03785468273647119
1551,-0.0769814416514499
1552,-0.3318462257147217
1553,-0.3125313972563589
1554,-0.08560097502527429
1555,0.1388511101855444
1556,0.34530253180358195
1557,-0.30357310882600064
1558,0.5641832483336832
1559,-0.10247508898841846
1560,-0.008076078148039711
1561,-0.2824194685354468
1562,-0.9162766924218142
1563,0.3341377523518375
1564,0.2785008152546068
1565,-0.1063318218691588
1566,0.025320111132408875
1567,0.1950066945243229
1568,-0.5905868213508735
1569,-0.199963116387313
1570,0.30020383106310655
1571,-0.4740768408292129
1572,0.1109544691290385
1573,-0.5127397268783918
1574,0.1762939625061909
1575,-0.013471214073836077
1576,-0.6104624456391621
1577,0.44023009630051224
1578,-0.2776495182014918
1579,-0.3062466353605825
1580,0.07580803093327707
1581,0.4341441104555399
1582,-0.3839445584814444
1583,0.02331279194307687
1584,0.1620774025651061
1585,0.26196929558895465
1586,0.06668863945728484
1587,-0.13872348377884336
1588,-0.3127997016150834
1589,0.03255932735859154
1590,-0.40523045665777346
1591,-1.1041666959692904
1592,0.16500409631546434
1593,0.34165525584582335
1594,-0.8931045127559807
1595,-0.3816423336869271
1596,0.2340183139722471
1597,0.7776601909284546
1598,0.007859282763443465
1599,-0.27515924803083713
1600,-0.06912835697745406
1601,0.519654441216157
1602,-0.24415151054564302
1603,-0.3020661856267499
1604,-0.18245990096015008
1605,-0.3603243450251242
1606,0.04636502133884827
1607,0.614070737364891
1608,0.12211248720350411
1609,-0.09538065844319518
1610,-0.1102942924738175
1611,-0.5908305902218997
1612,0.333784121528722
1613,-0.029419695149459114
1614,-0.06821499542903169
1615,1.206881219142258
1616,0.11291798557041055
1617,-0.28415030806227987
1618,-0.16114802416330906
1619,0.4340716772562596
1620,0.04281219102644496
1621,-0.5436179781155002
1622,0.34743587983155017
1623,-0.2525347271849779
1624,0.7080400067774218
1625,0.4082197979824723
1626,-0.16907178455814836
1627,0.4841786740794094
1628,0.02564697227726206
1629,0.32231815271371167
1630,0.18321178383898418
1631,-0.31989274708147786
1632,-0.24323897322704602
1633,0.3892885976372164
1634,-0.12653318197613775
1635,-0.1525647786902457
1636,-0.36100240236299197
1637,0.16010539759423356
1638,0.7795611441701342
1639,-0.40348951535612076
1640,0.009154094177888815
1641,0.5337691980003908
1642,-0.030101616471908427
1643,0.1709804675737683
1644,-0.401547009994449
1645,0.16188486628220075
1646,-0.07073388349914345
1647,0.3725709183465272
1648,0.44878974323817816
1649,0.9787630572794203
1650,0.21908074685233522
1651,0.1231394331053259
1652,0.07347036010694451
1653,-0.13348431174681424
1654,0.12793486751613584
1655,-0.11165123830938084
1656,0.0636722641183647
1657,0.49800505818431895
1658,-0.3804373302472752
1659,0.4308335996516558
1660,0.497822702319625
1661,-0.04462570858315879
1662,-0.8019857687058305
1663,-0.22973511703556845
1664,0.49021786028681125
1665,-0.008643315115539158
1666,-0.3777007416062903
1667,-0.19078698709029737
1668,0.317724505318796
1669,0.20664586498168871
1670,-0.090307844947662
1671,-0.13864659549845823
1672,-0.14807066235041844
1673,-0.34863827928232055
1674,0.6105546211822346
1675,-0.12182568628555092
1676,0.4600426788924993
1677,0.5750034198453474
1678,0.3773260525178621
1679,-0.16313714403655502
1680,0.15259563083204428
1681,-0.009145079618681318
1682,-0.34156719754832093
1683,0.12259628498155714
1684,-0.44563515332262404
1685,0.4489006141637962
1686,-0.17560883192435858
1687,0.0760312033226952
1688,0.10707275107884327
1689,-0.09785688194552941
1690,0.22174941349238236
1691,-0.17949671030548744
1692,0.3293194238677912
1693,-0.5087325005255904
1694,0.04776699118238725
1695,0.732846277331373
1696,-0.37808970193916824
1697,-0.2561635206190797
1698,0.19423890957163698
1699,0.0678755335728581
1700,0.1325257206931038
1701,0.18489535584915787
1702,0.23990216537259212
1703,0.4194271159634066
1704,0.15489689269533452
1705,-0.09118682228733954
1706,0.2542089645349557
1707,0.7180878743024208
1708,-0.05013084405472891
1709,-0.36833745507188764
1710,0.4184371617457532
1711,-0.04549980319395914
1712,-0.8211918999823921
1713,0.32029528762075454
1714,-0.20233503569105998
1715,-0.03421836433588772
1716,0.12547677069294674
1717,0.07200211107612144
1718,0.2681475821903957
1719,-0.16459837655513188
1720,0.193935762605602
1721,-0.09809942321430107
1722,0.2792441140623388
1723,0.23258704680200779
1724,-0.35356259605072093
1725,0.41046265823754136
1726,-0.20257514108474103
1727,0.3054171398883294
1728,0.13882155585271255
1729,0.694768124694032
1730,-0.08446220226266635
1731,-0.13202933875808617
1732,-0.007339921105403732
1733,-0.11459118684600872
1734,0.30234961940552585
1735,-0.6109079873369583
1736,-0.39825452027173947
1737,-0.40359156853239286
1738,0.35918250819696024
1739,0.6465510818904642
1740,-0.03947809384074102
1741,-0.063808613638022
1742,0.02647722891423002
1743,0.43914872034616004
1744,-0.35050653865779546
1745,0.09009500694109863
1746,0.3685900582205634
1747,0.18939579386930966
1748,0.0716551158099814
1749,0.3783598588350856
1750,-1.0217257690449815
1751,0.256212787912461
1752,-0.24721737088140702
1753,-0.6919141981337057
1754,0.19321642113040635
1755,0.519194128117139
1756,-0.0519506553971566
1757,0.3601527260774646
1758,0.6093839021249132
1759,0.4969909485011104
1760,0.6198483290976838
1761,0.2804978260686477
1762,0.028511235574608863
1763,-0.6054861638725121
1764,-0.0930028786533752
1765,-0.31871725501550935
1766,0.8205392201522808
1767,-0.0664785884057879
1768,0.0465670398685018
1769,0.20844187952743085
1770,0.016480175665077562
1771,0.6406690732201519
1772,-0.2353393378774938
1773,0.07355470426241122
1774,-0.2806275036482151
1775,-0.4989216128138508
1776,-0.2312269820473502
1777,-0.01399859347835275
1778,-0.1622609890513551
1779,-0.26171053075855466
1780,-0.5315380390403976
1781,-0.031410953962734675
1782,-0.568730843196875
1783,0.287274151773461
1784,0.031159297772900427
1785,-0.5509026843790714
1786,-0.11687004585682116
1787,-0.2842883994595593
1788,0.12063662562856363
1789,0.5066426464261213
1790,-0.708748574291065
1791,0.043475771387271184
1792,-0.06052450768783953
1793,0.25374269820557444
1794,0.0805807512392023
1795,-0.2842176921897635
1796,-0.1205910526557532
1797,-0.30086949346844927
1798,0.4066924710945857
1799,0.008055046059248437
1800,0.7185825356306867
1801,-0.02292763252575399
1802,-0.2677525903314835
1803,-0.5721302626903897
1804,-0.6815227374981068
1805,-0.5987471068730451
1806,0.10096438387627507
1807,0.1922799853117088
1808,-0.5976339104206653
1809,0.3382926847028462
1810,-0.18257991583081426
1811,0.05548254341655534
1812,0.6093621201331666
1813,0.3389733993950716
1814,-0.10149504482255425
1815,-0.3368389998290095
1816,-0.8133097741765695
1817,-0.2718144053202978
1818,-0.07979972945482179
1819,-0.37311878974519525
1820,-0.04961047039583243
1821,0.029047281442277636
1822,-0.08498757266706279
1823,-0.24567788291557657
1824,0.06374547421044831
1825,0.16703786471585724
1826,-0.4121321126754328
1827,0.5332823133624538
1828,-0.03726281146378496
1829,0.007124487802771984
1830,0.2676798912636985
1831,0.0881474121502602
1832,0.3602517855428084
1833,0.10852273378872178
1834,-0.23147956955712776
1835,0.13663548939550207
1836,-0.43228787321679607
1837,0.041031711983860325
1838,-0.012559755902035176
1839,-0.07866077828335202
1840,-0.04858261277293297
1841,-0.7112720827644323
1842,-0.20739852058134933
1843,0.03509207413139522
1844,0.060420036958453875
1845,-0.38842469306476307
1846,0.4783925970560733
1847,-0.3273833200392411
1848,0.36642037990208876
1849,0.16146429185734446
1850,-0.24425096460928356
1851,0.6710044459526948
1852,-0.45115231607924156
1853,0.34740762284273596
1854,0.37818456854146526
1855,-0.25347061391299186
1856,0.5263024133224494
1857,-0.09450869911818723
1858,0.10911593545188236
1859,0.09839240660395746
1860,-0.05076393269044814
1861,0.30645672167635857
1862,0.2999105461022831
1863,-0.6608829658047531
1864,0.49299427252416833
1865,-0.6283629081399661
1866,0.39026578198167233
1867,0.42585451327782675
1868,-0.4123465518670452
1869,-0.15527320585141555
1870,-0.41791708232812896
1871,-0.081232513951682
1872,-0.11642601589103822
1873,0.2946839822052746
1874,0.4952501547064792
1875,0.5275188960327358
1876,-0.21247954190830518
1877,-0.07907843525185351
1878,-0.6362798291663975
1879,-0.3045902549971428
1880,0.3646796390357728
1881,0.6106329105051667
1882,-0.4665400208696288
1883,-0.2239304414875259
1884,-0.009980438013390575
1885,0.10589096475090692
1886,-0.3060013677536004
1887,0.16028000919461213
1888,-0.17909443910669512
1889,-0.005462444946295363
1890,0.20647603790996027
1891,0.002427389824614181
1892,-0.16493836314153681
1893,-0.041428611777471376
1894,-0.03339805930958043
1895,-0.13985102391699994
1896,-0.09781571744283428
1897,0.6042318353275075
1898,0.21200762354173694
1899,-0.11168106268849044
1900,0.26342400421235995
1901,-0.12617190752583943
1902,0.44339943541957555
1903,0.13971161637612803
1904,-0.040556398311318555
1905,0.16922109192119275
1906,-0.593735376979333
1907,-0.42587807259043536
1908,-0.4512612358561572
1909,0.05402741148267245
1910,0.6548291187609643
1911,0.8433521838811099
1912,0.24116064830901274
1913,0.18930141803196476
1914,-0.6807358373482328
1915,-0.20511141673238442
1916,-0.2977542706352293
1917,-0.23465833529202748
1918,-0.06355238978115908
1919,-0.17843346641191632
1920,-0.748105009755948
1921,0.2826835058116598
1922,-0.40545875239806983
1923,0.09042681491288082
1924,0.7839295632496197
1925,-0.34749471265176607
1926,-0.9563587900966395
1927,-0.10809943500133018
1928,0.41612362824666604
1929,0.7401857635034484
1930,-0.46472606450591675
1931,0.18773466015468443
1932,-0.17587082158255565
1933,-0.04004471390075752
1934,0.9994678396107496
1935,-0.5680693881203792
1936,0.09590457743833615
1937,0.17677140319633594
1938,0.41038865610632586
1939,0.03703415096540923
1940,0.1164321598238761
1941,-0.14802924439039597
1942,0.10172042252029224
1943,-0.12971448754921627
1944,0.23493209178679167
1945,-0.13969957588149548
1946,0.1425305516528119
1947,-0.011060303953210046
1948,0.42560698961501064
1949,-0.01942500165210409
1950,-0.6701432824740633
1951,0.47696149499637697
1952,-0.3423346317829746
1953,-0.24710044965857314
1954,-0.2251388070951428
1955,0.519488769569115
1956,-0.8072089788058533
1957,1.1859574709602752
1958,0.39915195530645636
1959,0.08437637853397996
1960,-0.020747982014302876
1961,0.10792929541921172
1962,0.19696576401568544
1963,0.24386856892095313
1964,0.2099987491945665
1965,0.03385831498244768
1966,-0.07458691203593189
1967,-0.05717592693647489
1968,-0.07366840546863579
1969,0.4285248171759805
1970,0.22434335373797018
1971,-1.1113624407432057
1972,0.247907191347414
1973,0.07360336321270398
1974,-0.007071245270731599
1975,-0.1468461723761009
1976,0.42487467181248256
1977,0.35813133991856344
1978,-0.29212030041955095
1979,0.15385130319022555
1980,-0.36725172561676367
1981,-0.5214466526084052
1982,-0.23687684551795166
1983,0.32595409431574696
1984,0.36024740548746836
1985,0.19392806041579128
1986,0.27406044695721415
1987,0.1950970542682108
1988,-0.24245725308356153
1989,0.16325137697849038
1990,0.30252636439424674
1991,0.2850953249684169
1992,0.449367015903037
1993,0.26771369033775827
1994,0.13283493655349188
1995,0.4044787708659674
1996,-0.010024093775612083
1997,-0.3333172878114805
1998,-0.06163351909221937
1999,-0.2815467355874491
2000,-0.2551934008879712
2001,-0.05462292321698473
2002,-0.2995065778427638
2003,-0.11639851725713536
2004,-0.7157190696777309
2005,0.08061744370339705
2006,0.00045562686000869093
2007,-0.3088304738435195
2008,0.24917144165266972
2009,0.3543682029772108
2010,-0.607600516967004
2011,-0.2882828689818587
2012,-0.2907084829064348
2013,-0.3552499802903504
2014,0.31351202150514534
2015,-0.07325939439667602
2016,-0.09997721259908436
2017,-0.7573887825460226
2018,0.24016544092859146
2019,-0.46839564613305357
2020,0.022652405014669648
2021,0.10483862818028117
2022,0.5142806091216308
2023,-0.4946876124167816
2024,-1.1412683207197738
2025,0.06948859629581661
2026,0.6805292598669708
2027,0.46827770537545843
2028,0.07924381040569665
2029,-0.18582101181468338
2030,0.30506366689186004
2031,-0.36796587632143535
2032,0.18004631325857434
2033,0.19104976233130427
2034,0.40072167896697564
2035,1.0430534522916488
2036,0.14831929423512888
2037,-0.19237016857140032
2038,-0.009666181430220631
2039,-0.6686478421047373
2040,-0.26257688248466604
2041,-0.154694221033351
2042,-0.1980867951355984
2043,0.057584728918613985
2044,-0.3108455163351227
2045,0.4237097654024761
2046,7.826318268516373e-05
2047,-0.003515190977977484
2048,-0.12393255372931494
2049,0.05865656504070063
2050,0.3118578307859304
2051,-0.3277444150115479
2052,-0.2487446519720122
2053,-0.11479764840575743
2054,-0.5086913943289956
2055,-0.3096503652083033
2056,-0.17999457150530082
2057,0.33048804589305586
2058,0.09923885434881502
2059,0.07317010882993699
2060,0.32160919985544295
2061,-0.05192165560871302
2062,0.14758184123199974
2063,-0.03901415545021959
2064,0.10029754054732098
2065,-0.22026206891572628
2066,-0.9217862419938115
2067,-0.05075275277186699
2068,0.5377482494858741
2069,0.3500765164012728
2070,0.36488595150793535
2071,0.4672134968380028
2072,0.033509419646007406
2073,0.07457832736599898
2074,-0.23345047316099446
2075,-0.1194643104607852
2076,0.23273961811753544
2077,0.4550255468585217
2078,-0.052705738100868406
2079,-0.1701555482439752
2080,0.00019954969100434997
2081,0.22723479202858374
2082,-0.5457258246817488
2083,-0.8678748238863412
2084,-0.2080833701902466
2085,-0.4613859287564603
2086,-0.1920589420185704
2087,-0.05585571032298121
2088,-0.1713117960586539
2089,0.5489811262292468
2090,0.12349791276143988
2091,0.11356863298309176
2092,0.23517219530094072
2093,-0.43043845920746354
2094,0.39274733912997795
2095,-0.028636208633295183
2096,0.25341785315847626
2097,-0.4051239542271508
2098,-0.5872656131807289
2099,0.30913323357512695
2100,0.1422694281671008
2101,-0.34094344036989066
2102,-0.3287017482095706
2103,0.42537436519758154
2104,-0.44955543927850694
2105,0.6208720171039012
2106,-0.34040264135236475
2107,0.24128946773591825
2108,-0.12420610900756048
2109,0.22798341951482734
2110,-0.20565576206603234
2111,-0.0615299349532553
2112,0.015465994564415874
2113,-0.37879125358090254
2114,0.2800052833091235
2115,-0.19397649519261867
2116,-0.08640264653144408
2117,-0.37582873736096095
2118,-0.9684710910203745
2119,-0.07220170762130464
2120,0.9118829164038602
2121,0.29655254619615656
2122,-0.0072797392762680695
2123,-0.09936339372066165
2124,0.008491309337386895
2125,0.2067915880404729
2126,-0.4463052934607495
2127,0.4211740120882692
2128,0.27038872189139757
2129,0.27144868933994887
2130,0.16572825154655013
2131,0.007414399687511296
2132,0.2543176424605363
2133,0.2236847171789722
2134,-0.1338148107346362
2135,-0.2168010918101356
2136,0.03849806096136905
2137,0.5854745852405517
2138,-0.46833845285153125
2139,-0.554672413697847
2140,0.062273744530517
2141,0.01923374341466054
2142,0.06551699082430368
2143,0.09220564188640201
2144,-0.08436252254751546
2145,0.5631154494269511
2146,-0.6050848285632514
2147,-0.31314244136077835
2148,-0.039026631005428844
2149,-0.6210669930625433
2150,-0.06646671729751928
2151,0.6279766956099437
2152,0.007894350541796588
2153,0.08719674625271362
2154,-0.4762975113732508
2155,-0.23296271477286637
2156,-0.1418109021641064
2157,-0.12008501911254563
2158,0.4844158215641454
2159,0.2107874078689286
2160,-0.42009162096561764
2161,0.09317004867430904
2162,0.18831012061232313
2163,0.43093583049666756
2164,0.5973882276684574
2165,-0.38366954126894776
2166,-0.306475331910189
2167,-0.4753197527127352
2168,-0.08845119272106376
2169,0.17626689723104855
2170,0.37317737024642
2171,-0.02870678862555747
2172,-0.12089100057032363
2173,0.05735912956523354
2174,-0.3156543467019885
2175,0.7897714017777393
2176,-0.60763875289215
2177,0.06982537554574206
2178,0.7648512582293253
2179,0.002570099665664217
2180,-0.07182800371552193
2181,-0.1351016708621035
2182,-0.0681816469325767
2183,0.5188879502526361
2184,-0.836005221684839
2185,0.5795834608050544
2186,-0.5382052147135389
2187,-0.10078510709576853
2188,-0.16223914111033494
2189,0.22245222644674761
2190,-0.6040342284629534
2191,0.17468484817493107
2192,0.7651171199731225
2193,-0.5152313442657994
2194,0.07170219166746332
2195,-0.2502057449723959
2196,0.16097023345012285
2197,0.0072371796002427095
2198,-0.24245926151925054
2199,0.18439839104710304
2200,0.6819794824407416
2201,-0.07215485103567171
2202,0.2720429312982434
2203,-0.4888112319788589
2204,-0.3614989711308733
2205,0.17855278986530737
2206,0.5609431326101432
2207,0.13440921196881847
2208,-0.1183248135279906
2209,-0.00026782357573917057
2210,-0.4726097002165262
2211,0.2284853167519072
2212,0.33349055091968494
2213,-0.17087408440182134
2214,-0.17765923267004527
2215,0.10049252495506279
2216,-0.16506454488531247
2217,-0.024995778835771296
2218,0.7936202395083136
2219,-0.0933669388021957
2220,-0.13543984671674766
2221,-0.24474779731833646
2222,0.28127812632567145
2223,-0.0684962991269132
2224,-0.24543993821555848
2225,0.49940598224303595
2226,0.5365595014833124
2227,-0.22693877660675077
2228,-0.7054857890666839
2229,0.38080438082879425
2230,-0.25876575129977897
2231,0.29882838793516037
2232,-0.7446292512349206
2233,0.33737008257973733
2234,-0.4577799599741795
2235,0.27620287515703107
2236,0.0053947125630227685
2237,-0.3605552099349811
2238,-0.15384526551098948
2239,0.2594039939001454
2240,0.04002434116629984
2241,0.22088734418403433
2242,0.7470243239604445
2243,-0.5912277564294717
2244,0.6112488986419112
2245,0.03944283693134501
2246,-0.3397084391735509
2247,-0.5028112884894316
2248,-0.07148078883534058
2249,0.34835099885242354
2250,-0.0482090360662852
2251,0.5711628768462341
2252,-0.5484928549341391
2253,-0.004569192801870044
2254,-0.4733602282178154
2255,0.13743993288569914
2256,0.33521192501665503
2257,-0.15903300961107647
2258,-0.9843003179234019
2259,0.07519533146009942
2260,0.16507165654876896
2261,0.1528090539994926
2262,0.4670817648862482
2263,-0.4048202395931464
2264,0.25709752182896806
2265,0.45072547351328224
2266,-0.6722429188897777
2267,0.12081703392990346
2268,-0.19056206412869578
2269,-0.03081267417716709
2270,0.13140935887826855
2271,-0.18415508747022127
2272,-0.25539364804839576
2273,0.012908400477852331
2274,-0.4109403383137016
2275,-0.4104033226192653
2276,0.2567789648692034
2277,-0.43420333209488504
2278,0.2518424532656105
2279,0.17484307422220075
2280,-0.6522936307631162
2281,-0.2560953667497261
2282,0.451330931238163
2283,-0.3708457129120283
2284,-0.1755283122670066
2285,0.17464260201612583
2286,0.2960937810014263
2287,-0.09507276250513587
2288,-0.22583762585426706
2289,0.5376052752010838
2290,0.6572422950431742
2291,0.36997356731458064
2292,0.03224722679271543
2293,-0.30549572753143545
2294,-0.31387848248761263
2295,0.1974917684366599
2296,0.15813966306618957
2297,0.5297544735534715
2298,0.24584702644422496
2299,-0.5681109541451999
2300,0.3975988269659549
2301,-0.3772314590341508
2302,-0.14512749945415324
2303,0.09456678910272166
2304,0.7542914110778434
2305,1.175438728122183
2306,0.22931976130895348
2307,-0.06924181345172373
2308,0.2020241457484064
2309,0.3355022152541856
2310,-0.12120097010484415
2311,0.678526114077581
2312,0.0869585732526111
2313,0.18812920436241365
2314,0.25169570899182825
2315,0.15934476110863902
2316,0.3170897041460944
2317,-0.23329977536647412
2318,-0.21101822821033867
2319,-0.41581921489401724
2320,0.1661158510182807
2321,0.2944103250576062
2322,0.173021880113021
2323,0.6328986501281404
2324,-0.0021150963076702937
2325,0.25276058743534213
2326,-0.41262414633370753
2327,-0.14630993504776563
2328,0.26288856199636873
2329,0.3209304318180549
2330,-0.11110906245602371
2331,-0.02706197349638916
2332,-0.5737023507587533
2333,-0.13494435373177566
2334,0.33653320317604457
2335,0.21740706078498237
2336,0.1892338555356335
2337,0.018812685445077703
2338,0.002669623028679289
2339,-0.24957793149793384
2340,0.2641323155657218
2341,0.15911281707727842
2342,0.18596564459220544
2343,-0.19882248209334377
2344,-0.8138871219172854
2345,0.41468474650863013
2346,-0.1809835467172955
2347,-0.3260985869816914
2348,0.2621103914845849
2349,-0.14816685085998976
2350,0.4006182968194873
2351,0.2332063285753143
2352,0.2583649190087426
2353,-0.5162827305378541
2354,0.4580717697532734
2355,0.09874341936118505
2356,-0.1395736393295462
2357,0.05419574649461471
2358,-0.6713538137428354
2359,0.15445624453503082
2360,-0.3890658596207501
2361,-0.5112613117440922
2362,-0.5753976875496012
2363,0.4205566752765605
2364,-0.23783920698109276
2365,0.5796945856182385
2366,-0.20251391762013465
2367,-0.6453206506797285
2368,-0.42200657154711746
2369,0.4670928876946019
2370,-0.05892397266693127
2371,-0.2072331190757239
2372,0.06048120440632039
2373,0.18965604744069423
2374,0.422337054593708
2375,0.5474812480807512
2376,-0.13597976661091513
2377,-0.5011989148551028
2378,-0.15627514173163423
2379,0.09837678450517526
2380,-0.36426663465313225
2381,-0.36176904113860453
2382,0.12993960547696107
2383,-0.018388860421985214
2384,0.012396099087026338
2385,-0.2866842894598692
2386,-0.08708328452573241
2387,-0.34932729331103074
2388,0.33646337333443144
2389,0.3912874692320162
2390,-0.6977934224268528
2391,-0.3513220824289777
2392,-0.565634891243013
2393,-0.24568595381148775
2394,-0.03153658828077356
2395,-0.5479143915137004
2396,-0.34843025845629355
2397,-0.3794602190625121
2398,0.07833968692830176
2399,0.026209695804080627
2400,-0.27279115399808396
2401,0.0668320077551995
2402,-0.2066256500756655
2403,-0.1026759806146502
2404,0.6325054374158763
2405,0.5066466550293333
2406,-0.4911955373480191
2407,0.3136093760623741
2408,0.3066790711199173
2409,-0.43400272880922547
2410,0.3094688606335427
2411,0.5812836270668703
2412,-0.42428205612141495
2413,-0.34678347022913547
2414,0.38463988001730154
2415,0.10261558208069238
2416,0.20843843974799794
2417,0.1287306236894394
2418,0.14766917786046072
2419,-0.5013593389385265
2420,0.39584888505640814
2421,0.44206346512482947
2422,-0.08670155169486662
2423,-0.016432742424445132
2424,-0.5787042403239476
2425,0.1943700278507697
2426,0.21621738948849317
2427,-0.023505994966052473
2428,0.4249656251396085
2429,-0.12626932455171508
2430,0.2134009812382614
2431,-0.38539689442006764
2432,-0.00890187629341522
2433,-0.06589971520516023
2434,0.08515839001900846
2435,-0.13966805091921847
2436,-0.049691970338197125
2437,0.31221648383465167
2438,-0.16508136475701995
2439,-0.6072290672293871
2440,0.661280558338428
2441,0.5221405628386973
2442,-0.4884293885450788
2443,0.2606850471398506
2444,-0.19010659408837535
2445,0.0995888064872727
2446,0.11120626786918403
2447,-0.08859782071581081
2448,-0.2962355767560885
2449,-0.2609999849299522
2450,-0.3462879945101822
2451,-0.3143992425711917
2452,-0.02539100699616557
2453,-0.2705318470853355
2454,0.2577914495819252
2455,0.562126209336543
2456,-0.21923951769172237
2457,0.09048639588089104
2458,0.188863219386206
2459,0.17840008958716208
2460,0.028708392810178635
2461,0.2807075688685508
2462,0.18227297125919634
2463,-0.4677924252182607
2464,0.32851011383966555
2465,0.3353644137134401
2466,-0.28849503012112365
2467,0.014339153982063679
2468,0.25827408265976187
2469,-0.07911318751086185
2470,0.40554758237435007
2471,0.893459821689814
2472,-0.29707479661749436
2473,-0.5219857956332539
2474,0.11483263537820036
2475,0.27272499199322064
2476,-0.08725928732578934
2477,0.5492809007571747
2478,-0.5059454356594929
2479,0.26189862219242227
2480,-0.22899386583507297
2481,0.6498637642233493
2482,0.7531000154229821
2483,-0.28976895318058543
2484,-0.20771307326214675
2485,0.32489368270743596
2486,-0.14632163203341358
2487,-0.017163827054465588
2488,0.009595920990848703
2489,-0.725568252832207
2490,-0.005230176410143876
2491,-0.26069259464399286
2492,-0.18638290769715257
2493,0.5456416094103452
2494,-0.47491496612871986
2495,0.30736266985756944
2496,-0.10543807695197177
2497,-0.10573940465450066
2498,0.2987324971724888
2499,0.12852730834783616
2500,0.21567144078629563
2501,0.36593940499392036
2502,-0.12522279845342368
2503,-0.23140373471511197
2504,-0.4101483469061036
2505,-0.3119758559797627
2506,1.114652920316262
2507,0.47044466179852545
2508,-0.5106581108200904
2509,-0.4998421246974429
2510,0.18212825207846137
2511,0.20684665073746475
2512,0.2074585895590111
2513,-0.09636423215117274
2514,-0.04741725326875875
2515,0.1239268115594077
2516,0.03246450485883686
2517,-0.8388166958347036
2518,-0.08685609626806823
2519,-0.32180138424186466
2520,0.0662236916129547
2521,1.128321845715049
2522,0.13889501403154858
2523,-0.11850308260689876
2524,0.34840821891394624
2525,0.18243887291696737
2526,0.15878079269771
2527,0.229367964660098
2528,0.7773004047013152
2529,-0.4274356514901893
2530,0.17901609831230722
2531,-0.3501391555991646
2532,0.20996404462470908
2533,-0.347230863174527
2534,-0.15774982775578608
2535,-0.11153350392526831
2536,0.3688240520807159
2537,0.34714314988767725
2538,-0.4708369117069948
2539,0.020763142314288215
2540,-0.268195975858235
2541,-0.47567014534292734
2542,-0.08202473509766404
2543,-0.11659553457112082
2544,0.9172126179043889
2545,0.16364343222662256
2546,-0.520690472680864
2547,-0.21346450885578128
2548,0.3860465989974004
2549,0.7893571720577104
2550,-0.5994453468114486
2551,-0.7105446295262746
2552,0.707158366528012
2553,0.14726031722691726
2554,-0.32818380482139303
2555,0.202070800791671
2556,-0.9962190051627763
2557,0.0012758215721351267
2558,0.12390475683490348
2559,0.3493412762085807
2560,-0.38321664929443755
2561,0.03238670280347719
2562,-0.34977763109837307
2563,0.09652598662856049
2564,-0.33840910089269005
2565,-0.15424761860781616
2566,-0.3763828409063645
2567,0.24610636649808726
2568,0.3244640239113191
2569,-0.08867824008107843
2570,0.014452603613996596
2571,-0.5475160906376584
2572,-0.11326712633705695
2573,-0.018975561622813133
2574,0.9905666795173681
2575,-0.42028403090036953
2576,0.5534069784371705
2577,0.37677720097762873
2578,0.10607059073031871
2579,0.6646960645320455
2580,0.14064264885770236
2581,0.14708835030732342
2582,-0.02007771962368254
2583,0.4624655678338456
2584,0.4144264161281618
2585,-0.23648378624234867
2586,-0.4986285706754245
2587,-0.07671946964432656
2588,-0.3023861543796151
2589,-0.024010032367628022
2590,0.4677076524574118
2591,-0.17284377907112597
2592,-0.016185716749902587
2593,0.021930532384409243
2594,0.3206767312774741
2595,-0.8492443430295448
2596,-0.22931115718550807
2597,0.07985772940785459
2598,0.45358721033534194
2599,-0.18592164934363187
2600,-0.7092702546131562
2601,0.23422891009237687
2602,-0.2401444104623627
2603,-0.44965173185973634
2604,-0.23598037619869933
2605,-0.06974402956323233
2606,-0.22857199843732748
2607,-0.8336256124584888
2608,0.33905915236083656
2609,0.481857473129529
2610,0.24625216611055856
2611,-0.43000476487226513
2612,-0.07615664144429445
2613,-0.002464825474029164
2614,0.2263230058916493
2615,0.2526089606090588
2616,-0.2774916129524966
2617,0.030991407268949722
2618,0.1728357471478458
2619,0.550249116785272
2620,0.2662784430564056
2621,0.2982353950182945
2622,0.031683487249461476
2623,0.5331034475178874
2624,0.15487577923361892
2625,-0.32546063818337034
2626,0.5304239911953427
2627,0.26378264261662865
2628,-0.16745489996571572
2629,-0.18123130673468557
2630,0.11209501962655224
2631,0.17506739704919935
2632,0.0745694672080955
2633,0.1176636187010417
2634,0.6425234932199111
2635,0.4050052428411047
2636,0.07205348078928737
2637,0.35578195759779147
2638,-0.3902573530662166
2639,0.15040228772926206
2640,0.6838535209891234
2641,-0.08241360194380366
2642,-0.3203755111352533
2643,-0.24646643313224884
2644,-0.4118425767325594
2645,-0.296612121043203
2646,-0.1400388982292311
2647,-0.5312543976830058
2648,0.005903175360543838
2649,0.341028716498525
2650,-0.3430995862500999
2651,0.5742353475506521
2652,0.19306126255761485
2653,0.38952284793893754
2654,-0.24863809047398308
2655,0.3229801771213236
2656,-0.41271222122382445
2657,0.33648192750145256
2658,0.06494916550731558
2659,0.2091093058032609
2660,-0.44433299558748734
2661,-0.338304601242529
2662,0.2257310487783803
2663,-0.3584418536459524
2664,0.17507552208780322
2665,-0.5167295205497376
2666,0.32057971931057344
2667,-0.4658500251380654
2668,0.2087497548880701
2669,0.23646626613378158
2670,-0.2633549931604152
2671,0.21998536470554841
2672,0.09843792281019785
2673,-0.2036630782112021
2674,-0.3811978396678516
2675,-0.7418027852673964
2676,0.13215529586528008
2677,-0.5914398548412374
2678,0.03603672009632071
2679,-0.0995740661567483
2680,0.2566918412165215
2681,-0.11416246803949533
2682,-0.12451955895073483
2683,0.27662112505721753
2684,0.1266400313902888
2685,0.11949571974531659
2686,0.17736647728228983
2687,-0.5803917083156338
2688,0.2860392346106283
2689,0.23149144496394813
2690,-0.38427010290978814
2691,-0.09225374760411205
2692,-0.014856758253599738
2693,-0.05083500623783655
2694,0.1261872063229544
2695,0.5410057913777367
2696,0.4088693911437769
2697,-0.49597223591789463
2698,0.23512035606088078
2699,0.5022895817826041
2700,0.14619987867777323
2701,0.4123518414687966
2702,0.7605667385613325
2703,0.3869258391088404
2704,0.09422979196839656
2705,0.39500631435546124
2706,0.054762453481915344
2707,0.009034501158514941
2708,-0.13282209640948128
2709,0.5909147062665637
2710,-0.3093369594184134
2711,0.5791805595143127
2712,0.18893088010574854
2713,-0.5288880209375733
2714,0.13895837127771762
2715,-0.7937354122699539
2716,0.23641980794458925
2717,0.33458605095911065
2718,-0.22388950661190557
2719,0.04669663979335591
2720,0.7386020846244907
2721,-0.19115428655251637
2722,-0.40022944810732036
2723,0.5600161270888346
2724,0.7417882332036316
2725,0.0013968326623866514
2726,0.3822970931464327
2727,0.5070302374682001
2728,-0.28063266166903084
2729,-0.18342836431311912
2730,0.46522683670501846
2731,0.6368755338650849
2732,0.2127489676827805
2733,-0.33253856846735785
2734,0.7510385059206084
2735,-0.2006881355747354
2736,-0.12667017484594947
2737,0.12939153920398982
2738,0.5874174243872584
2739,0.3227725799401014
2740,0.15680442021399887
2741,0.17510660513730955
2742,0.016446998801998798
2743,0.21095690747061316
2744,-0.9560838417109071
2745,-0.11210708195792227
2746,0.09121111795638816
2747,-0.43504243154144556
2748,0.14601648922782245
2749,-0.07728285728557266
2750,0.6635074471943194
2751,0.5945455714739527
2752,-0.17605795645650957
2753,-0.05701129616222381
2754,-0.02794955266549136
2755,-0.17071123588629541
2756,0.07371251531182388
2757,-0.2866036825594445
2758,-0.42733242924581305
2759,0.23536271957839588
2760,0.23793981754411464
2761,-0.3040027822329053
2762,0.3384125435441356
2763,-0.23871394356833892
2764,0.09568746577928113
2765,0.3100608924133418
2766,-0.012704355304727447
2767,0.17187590921315923
2768,-0.19519205819830893
2769,-0.07425738866932412
2770,-0.07780755130666728
2771,-0.2821800913101816
2772,-0.06681435340370374
2773,-0.5853226992224819
2774,-0.18563866720507283
2775,-0.10767281572471123
2776,-0.0968268451475507
2777,-0.09127745486162338
2778,-0.023344673250970213
2779,0.18121186072214301
2780,0.33053638506207017
2781,-0.24558817154542623
2782,-0.45476717723140936
2783,-0.3938557671256743
2784,-0.18414539535799668
2785,-0.1330137554292296
2786,-0.29103115737949997
2787,-0.48988605196168883
2788,-0.1723974681848142
2789,0.06857281686122245
2790,0.22489999847950118
2791,-0.21068611051128108
2792,-0.15609850420040158
2793,-0.35025903794201585
2794,-0.011882889462549678
2795,-0.32067588160786964
2796,0.21662195189864097
2797,-0.6749940874887136
2798,-0.13592723962697587
2799,0.11380787677681733
2800,0.06948291608274154
2801,1.0178710496024965
2802,0.13221198194442385
2803,-0.3794969665678823
2804,-0.036082093842244145
2805,-0.6713580093632195
2806,-0.030463841767626055
2807,-0.3148655935714365
2808,0.3459850030998678
2809,-0.20770670028484736
2810,-0.04413336782899019
2811,-0.24021828459329733
2812,0.6572240348446267
2813,-0.12141835280378292
2814,0.692641457197964
2815,0.30772044171856433
2816,0.18220409655260203
2817,0.13936802970690007
2818,0.148841388292763
2819,-0.7285917505867012
2820,-0.10540801510121528
2821,0.31943968718822974
2822,-0.018481398183425795
2823,-0.53111183992503
2824,-0.019807020545851334
2825,0.6440913434036238
2826,0.4712807701616515
2827,-0.023435312724491376
2828,0.3596140245982699
2829,-0.1385266328075928
2830,-0.6440029263903565
2831,-0.34941530001834153
2832,0.5907164297612411
2833,-0.10355965078178703
2834,-0.09199049750336732
2835,-0.11332818584307246
2836,0.7196959826155487
2837,0.6145547045794769
2838,0.8386201016585141
2839,-0.060113439133497044
2840,0.11173555409791801
2841,-0.5732370019352001
2842,0.558228742036979
2843,-0.44137918268593684
2844,0.08193346171882024
2845,-0.4147413715884409
2846,-0.22257073984090717
2847,-0.3164554535221244
2848,-0.2297552525566821
2849,-0.20376922838301373
2850,-0.20722612614126082
2851,0.31497061280676164
2852,-0.41759888332737827
2853,0.08335682423799913
2854,0.4603452891479355
2855,-0.19396999346355698
2856,-0.2713478352047863
2857,-0.08713011847190313
2858,0.44589421667375656
2859,0.0733657884403554
2860,-0.2007801309163293
2861,0.18288818346775704
2862,-0.41662727151513185
2863,0.2575296882943939
2864,0.15443904572321768
2865,-0.1163406665817842
2866,-0.3169556393831297
2867,-0.3351338875182025
2868,0.20214195268818055
2869,0.4645109679618935
2870,-0.2408796867504364
2871,0.17325388884227366
2872,-0.7888220672419495
2873,-0.22096473247969878
2874,-0.01173917319477942
2875,-0.3438280133047718
2876,-0.35396613841713137
2877,-0.25239694814709795
2878,0.11043847057900592
2879,-0.07080371372130123
2880,-0.8459718885764658
2881,-0.8015493156013005
2882,-0.22937347713643816
2883,0.17298926930112304
2884,-1.038459219970943
2885,-0.18888025267595934
2886,-0.19890299376084247
2887,0.5247423566993573
2888,-0.1455245661611104
2889,0.144756229785944
2890,0.053390180511948625
2891,-0.8052784367514528
2892,0.29035503579609984
2893,0.081412226672815
2894,0.19210748854172305
2895,1.483978365622163
2896,-0.7877206488692954
2897,0.6518740603277371
2898,-0.10864495018796501
2899,0.10860011793300203
2900,-0.017202011810750675
2901,-0.16034626218415832
2902,-0.21537660242506715
2903,0.12454259559278916
2904,-0.5734377567259723
2905,0.28369225950406857
2906,-0.15730669891184393
2907,-0.4271260621942745
2908,-0.17008887271976392
2909,0.47515774124542504
2910,-0.20233764404743565
2911,0.1354827329048499
2912,-0.2762755035435862
2913,0.28646753258855945
2914,0.25909757123558647
2915,0.6987084634770805
2916,-0.06635693414003167
2917,0.2527277609054099
2918,0.03706604590114873
2919,0.4897934951193824
2920,-0.2716931045644983
2921,0.281585540470736
2922,-0.07358866092306304
2923,-0.024260850534236295
2924,0.034679179431816566
2925,0.09533790850704768
2926,-0.04393044903195758
2927,0.0811539551251815
2928,0.5964725599728363
2929,0.3724649711006646
2930,0.32850955751663913
2931,-0.17217775688848544
2932,-0.33610144101960737
2933,0.3610696720597529
2934,0.33111456426994745
2935,0.5566171958763624
2936,-0.228283219002243
2937,-0.0867612365532503
2938,-0.6196667674958999
2939,-0.14834013477364635
2940,0.37666824784769726
2941,-0.17631868017122543
2942,0.2420786082661371
2943,-0.07200340606508371
2944,0.12248204389669842
2945,-0.43378657132890625
2946,0.032206144726283706
2947,-1.130543130940435
2948,-0.07064010792714379
2949,-0.6162609603164382
2950,0.455823081898635
2951,0.29383236040113686
2952,0.17638505176750838
2953,0.574886317092048
2954,-0.35865673272330895
2955,0.6604412102558719
2956,0.35233529332932345
2957,-0.08940949447125532
2958,0.4292240704686625
2959,-0.41813964441219026
2960,-0.311637060550452
2961,-0.2300252940231248
2962,-0.19993478066204434
2963,-0.3993412526497503
2964,0.4622819469011938
2965,-0.09783776702190293
2966,0.13323435459814228
2967,-0.2155725536366394
2968,-0.68812336705068
2969,0.10207208714667784
2970,-0.7227644440438087
2971,-0.025941231059185155
2972,-0.5171744725630435
2973,0.7511197257731578
2974,0.3444627310070234
2975,0.03997117598665291
2976,0.47763622845798814
2977,-0.3198773724221258
2978,0.20541589695042392
2979,0.07552124528223866
2980,0.09979021090513389
2981,0.4809044201493002
2982,0.27685599161058866
2983,0.10912728706495373
2984,-0.6254886577236191
2985,-0.3628633920597634
2986,-0.04637961742003213
2987,0.03529144023709481
2988,-0.4271768551894453
2989,0.9115281037536429
2990,0.5731430799682417
2991,0.22757933365634608
2992,0.02722737431234945
2993,-0.08020745147651993
2994,-0.3597913590900594
2995,0.029284883350463545
2996,0.09742130300184444
2997,-0.46934138151554683
2998,0.12630681343607927
2999,-0.05868240456896004
3000,-0.7210834782161488
3001,-0.3251949671843127
3002,-0.15632819747341206
3003,0.7134788706126075
3004,0.21035730841604067
3005,-0.5047645874783762
3006,0.1837044499930974
3007,-0.5848259367641644
3008,0.4092187536142325
3009,-0.17806838074600015
3010,-0.035391152731393254
3011,0.5011040312056841
3012,-0.4865020998766223
3013,-0.5280610385678397
3014,-0.22057981183090772
3015,0.3924703152094428
3016,-0.5742588387362424
3017,-1.0704541981199942
3018,-0.17052202016200177
3019,0.2085384206760205
3020,0.45365629971316956
3021,-0.1750585401388437
3022,-0.15550464074057424
3023,0.4361334829279339
3024,-0.7066959361887564
3025,-0.14684705004518253
3026,0.07197346520389154
3027,0.1697887172563769
3028,-0.1926888181284687
3029,0.01301747883930295
3030,-0.9404993368071856
3031,-0.24879451427692348
3032,0.17141018154574236
3033,-0.3712722469971777
3034,0.02229394022897164
3035,0.1689019292682071
3036,-0.12947142818193705
3037,0.0644292493718845
3038,-0.36387870668661987
3039,-0.07809172344807831
3040,0.2306400329604997
3041,0.05933020246913223
3042,-0.22168798220416588
3043,0.0847458350877934
3044,0.2700971129252035
3045,-0.7748049750573979
3046,0.43808881813971867
3047,-0.12709234510244677
3048,0.1608200783878749
3049,0.45251680255748705
3050,-0.5184439261143313
3051,-0.26814349461366555
3052,-0.10906115577416053
3053,-0.2962309865809208
3054,0.6557443885905925
3055,-0.32382941293225587
3056,-0.2099769457407269
3057,0.07725179261868541
3058,-0.4543698121016411
3059,-0.14955325169887218
3060,0.11998605459348287
3061,-0.12580940732807402
3062,-0.03529691491010603
3063,-0.20006873292840957
3064,-0.57241597229763
3065,0.12155080864718033
3066,0.663302353591614
3067,0.006955162681572565
3068,0.08514183336335884
3069,0.26182459107924383
3070,-0.47976183220181384
3071,0.6434900555504409
3072,0.07647309691453558
3073,0.6167839328906867
3074,-0.27706042985159984
3075,0.6871628164577106
3076,0.2929812378030639
3077,0.2090295046021644
3078,0.08845292956085951
3079,-0.09393498815822075
3080,0.45375831562597074
3081,0.05305104423876079
3082,-0.743482463888735
3083,-0.4222567922521304
3084,-0.07024309178853509
3085,0.11716860230556521
3086,-0.021388438385437632
3087,0.4607276521780034
3088,-0.7374471878286797
3089,0.05427113875165525
3090,-0.687131559865179
3091,0.287144257401304
3092,-0.03570203822520065
3093,0.1585976619455124
3094,-0.3265170679409619
3095,0.4835922886278088
3096,0.393734913671718
3097,0.2205590149654249
3098,-0.048952917956346376
3099,0.21916545325713574
3100,-0.2671802769334776
3101,0.32336964379182553
3102,0.6234451769619296
3103,0.4046527561006467
3104,-0.27576381300698816
3105,0.136602905859537
3106,-0.4887615621130758
3107,0.21634320231910184
3108,0.17031208147874874
3109,-0.7067241473953166
3110,-0.43911301831497085
3111,-0.10701644389617194
3112,-0.11371429577777174
3113,-0.4571393125123839
3114,0.14702014045139705
3115,0.0950480900789292
3116,-0.07342683009022105
3117,-0.2856623360622089
3118,0.3963740363770574
3119,0.6256850771141437
3120,-0.18276906140961632
3121,-0.23137734623610506
3122,0.18565904639553804
3123,-0.13532238583789016
3124,-0.0526871894876408
3125,0.27956261370122937
3126,-0.7216687674016539
3127,0.4982714434797782
3128,0.027470656076173817
3129,-0.15552978953135418
3130,-0.03372734007473405
3131,-0.014200369030286404
3132,-0.6543325883294484
3133,0.5650335393207105
3134,0.015619620822937422
3135,0.16743906677650708
3136,0.3596520075770693
3137,-0.38596313012858635
3138,0.17895555680352815
3139,-0.10115882387717719
3140,0.3200492698143168
3141,-0.8040163909039307
3142,-0.037454124968909375
3143,-0.22784479148246178
3144,0.16338003833785222
3145,0.17766000356967301
3146,-0.26745744842408997
3147,-0.2691764192642433
3148,-0.041827577707142925
3149,-0.33889890692501234
3150,0.3182399237339248
3151,-0.1395472049483311
3152,-1.098738270359936
3153,-0.14166942110329567
3154,-0.39253266794228125
3155,-0.6165643039233936
3156,-0.4677033072033742
3157,0.041352515399093404
3158,0.5021790304673859
3159,0.11837260461904925
3160,-0.22923673350527288
3161,0.17231558887039058
3162,-0.17351982716556386
3163,-0.2625342624827626
3164,-0.43630807756020534
3165,-0.6621290517462969
3166,-0.14737730826354528
3167,0.059738604024931835
3168,-0.036520314517395264
3169,-0.15722072071089058
3170,-0.3574584114318115
3171,0.22989545130007852
3172,-0.4978290720062426
3173,0.29331098149629914
3174,-0.3788024273995182
3175,-0.2843937879597127
3176,-0.5543926915887932
3177,-0.1895121982133248
3178,0.36863345938796305
3179,0.1948890987174752
3180,0.36980879795325133
3181,0.19735133220961626
3182,-0.4171479851166651
3183,-0.12502657485009624
3184,-0.2948875526791398
3185,0.5029100424044188
3186,-0.4523435900499472
3187,0.33778597619951933
3188,0.3375048389372109
3189,0.6915314353486569
3190,-0.15484697708215392
3191,0.2692324696585106
3192,0.8623833339879391
3193,-0.23344661093078
3194,-0.580190678206522
3195,-0.7105770017180072
3196,0.26937982639591024
3197,-0.7117638759860792
3198,-0.14072337463497656
3199,0.1652888482791664
3200,0.06998977419211921
3201,0.1608030438858529
3202,0.08401766820306691
3203,0.4833658431785134
3204,-0.35994175898399394
3205,-0.2558801107372876
3206,-0.2920378200473888
3207,0.3137830106672269
3208,0.3403186779609923
3209,0.17054714002464022
3210,0.44731856011580945
3211,-0.4452575956212466
3212,0.6301514827107023
3213,0.575730082922775
3214,0.27803898052298387
3215,0.6734566855620697
3216,-0.6261447176647853
3217,-0.1982227634431846
3218,-0.27791858501851513
3219,0.27269355239099785
3220,-0.39691589122924503
3221,0.28630625492638856
3222,0.5180139714058161
3223,0.26276199776473524
3224,0.10724780612404802
3225,-0.37338102669341633
3226,-0.3200795791289283
3227,0.472311551002822
3228,0.2945662355513451
3229,-0.014747992078606791
3230,-0.15795496123093034
3231,-0.765683405178485
3232,-0.4047441700987202
3233,0.7224485079705437
3234,-0.48396671510567646
3235,0.07161664077370833
3236,0.3807780304150452
3237,-0.4743161848788199
3238,0.0698139972599163
3239,0.3544987518623808
3240,0.004724299617646561
3241,1.084154449313147
3242,-0.6306712395454841
3243,0.40016177085739413
3244,-0.06531291761013353
3245,0.291758394528045
3246,0.16679842502720854
3247,-0.27710699567412894
3248,0.08655250079690871
3249,-0.7022207429808319
3250,0.2280061236476003
3251,0.11269330747134862
3252,0.24139085407317437
3253,0.39993113512297085
3254,0.13894723917259968
3255,0.05597253951229768
3256,-0.3330125295513017
3257,-0.2691941455988429
3258,0.4485435253171303
3259,0.5428837546821547
3260,-0.08999728557868267
3261,0.017387404122560426
3262,-0.34191209552109025
3263,0.4432604229894736
3264,0.25150391909813696
3265,0.733711225369344
3266,-0.3319749189980828
3267,-0.14287355634574564
3268,0.08747833613751232
3269,0.24435007743249973
3270,-0.08151470497083588
3271,-0.3299482785108932
3272,0.33314073217596274
3273,0.27256354727285875
3274,-0.34631905755157194
3275,0.5123092240139895
3276,0.44229353843757224
3277,0.05075930480924717
3278,0.030085164105619587
3279,0.20941415347649087
3280,-0.3256931468398397
3281,0.011350832195939905
3282,-0.8135245121519413
3283,0.3312690961684791
3284,-0.5901889629277174
3285,0.5682392831637894
3286,-0.12477366734578596
3287,-0.08000259927907089
3288,-0.2372611150032539
3289,-0.10886846118812883
3290,0.5361544523159478
3291,-0.9403032878150748
3292,0.4826475492038462
3293,0.1277608668993516
3294,-0.4562113010430815
3295,-0.4064298819591462
3296,0.6336170070850915
3297,-0.35736800960415305
3298,-0.435925517932325
3299,0.42986449165061547
3300,0.12796095947116368
3301,-0.3545025462574556
3302,0.08187654466944362
3303,-0.38769807250989796
3304,0.41607137973208047
3305,0.4011605174055689
3306,0.20107944257537788
3307,0.13669503242218647
3308,0.665666541485606
3309,-0.00011855710340685697
3310,-0.4467064309779144
3311,0.1698851705950582
3312,0.7884516737507484
3313,-0.38354303707310106
3314,-0.13662008412594953
3315,0.15740180732779604
3316,-0.02037411784709617
3317,-0.37127585509238886
3318,0.4240224134214113
3319,0.8768929688572005
3320,0.074130723550502
3321,-0.3417056946944208
3322,-0.5854520485639325
3323,0.09750575579130193
3324,0.4172264183333551
3325,0.179596526895109
3326,-0.0009085664660926097
3327,-0.22272374932782193
3328,-0.41279905188013594
3329,0.3155063451481375
3330,0.34537320932779
3331,-0.5842309442412281
3332,0.6009026515575905
3333,0.21697852647496485
3334,0.5289970524790661
3335,-0.5072766071672371
3336,-0.5162330071248692
3337,-0.0563051066607447
3338,0.1900346509486884
3339,0.6789605717720115
3340,0.26687274456306376
3341,-0.09172490089946657
3342,-0.387931096688337
3343,0.4648965182688412
3344,-0.36462437785301116
3345,0.6155032591166185
3346,-0.10748729422043805
3347,0.6011835148549303
3348,0.2566119072567299
3349,-0.051779427971759884
3350,-0.19631337596016657
3351,-0.1288510662058053
3352,0.16188849291466192
3353,0.02916241443216774
3354,-0.2244396159175553
3355,-0.06260278871447894
3356,0.02969932562842884
3357,-0.804585860172269
3358,0.17317127005574162
3359,-0.37029981639604254
3360,-0.43591867398212497
3361,-0.6377562169407982
3362,-0.6780276325918434
3363,-0.5123110012055092
3364,-0.2679847326033059
3365,0.738262560565687
3366,-0.19876383456599395
3367,0.06718322524293059
3368,0.15136773620086916
3369,0.04953798403792949
3370,-0.029270876821310972
3371,-0.4517785774500043
3372,0.5483990661599224
3373,0.6830561270366374
3374,-0.6359852065784753
3375,-0.38704642670075196
3376,-0.10575836859905656
3377,-0.36456101935071256
3378,0.1912370037727681
3379,-0.27526101918988477
3380,0.8183142757039521
3381,0.4499850720529535
3382,0.08034543146335242
3383,0.388164321803358
3384,0.417991071092891
3385,-0.21315211512881135
3386,-0.3085011206943472
3387,0.029535301614649654
3388,0.3256678437215783
3389,0.05255989029349205
3390,-0.5960486443287254
3391,-0.30343911787680594
3392,-0.027959114405432542
3393,-0.028598910263937138
3394,0.7455508643388337
3395,-0.5238542022459804
3396,0.19109477134963107
3397,0.5628318512404342
3398,0.8585273059956704
3399,-0.15284785894001535
3400,0.18574287411860319
3401,0.2153491731501356
3402,0.07388514964947078
3403,-0.03735997439590533
3404,0.16478320833737742
3405,-0.957099057129737
3406,0.25779803536719476
3407,0.04769076486300446
3408,-0.0840876071185793
3409,0.7736411911276524
3410,-0.25510108072817095
3411,-0.15234840378963738
3412,0.7527363943375985
3413,-0.314489612598946
3414,-0.20792403300943083
3415,-0.0555703866859997
3416,0.3177677654787806
3417,0.07854196518179116
3418,-0.4885664581347743
3419,-0.20114081051444585
3420,-0.22955839827887134
3421,-0.029186811662950122
3422,0.1609537740183446
3423,0.1580669181336229
3424,-0.6712693466770976
3425,0.40213189467635574
3426,0.09546205077566246
3427,0.523303925733217
3428,0.16789118668599903
3429,0.4162609513335607
3430,0.176337552777173
3431,0.50882550849462
3432,0.19739218642119338
3433,-0.03700848452136084
3434,0.8588995915615762
3435,0.3360244474081593
3436,0.2168550077269172
3437,-0.4823977261962613
3438,-0.4869345097083791
3439,0.11063605294938747
3440,0.05500184282614466
3441,-0.2321165116464431
3442,0.05328645176229043
3443,0.6004445396662651
3444,0.2628374298227162
3445,-0.4312606800877374
3446,-0.042146375086959724
3447,-0.30424873172553035
3448,-0.14653679459108326
3449,-0.15633202708806865
3450,-0.18053306091410812
3451,-0.47439657942316454
3452,-0.048248934427183435
3453,-0.21188977002594162
3454,-1.1072275303242782
3455,0.7759504893434573
3456,0.41151624858444297
3457,-0.1422283051892663
3458,0.007112932217739717
3459,-0.4428437179328523
3460,0.6409230038814738
3461,0.7171077216662837
3462,0.05922466242054873
3463,0.38685822053830865
3464,0.06625217502524544
3465,-0.5052347260627691
3466,-0.15565460262323325
3467,0.049864084436141584
3468,-0.1718028889724123
3469,-0.08264317077747373
3470,-0.03454578558720926
3471,-0.030569198823497228
3472,0.01975185282113895
3473,-0.40087103499150767
3474,-0.2710066309442459
3475,-0.48552721502123397
3476,0.3695795389373725
3477,-0.7958597367161692
3478,0.43601616618031536
3479,0.5239908193431105
3480,-0.11421352631250543
3481,-0.9838933375714193
3482,-0.13656255614663468
3483,-0.024259332697067818
3484,-0.38197022361949495
3485,-0.194734248700393
3486,0.5783594219396362
3487,0.2513188444888984
3488,-0.3494523882541613
3489,-0.6038357282161164
3490,-0.1236009281152681
3491,-0.08067907911743522
3492,0.18754566435938264
3493,-0.2023306991586672
3494,0.1933286674460894
3495,0.7314194769430413
3496,0.30823041418663166
3497,-0.01817574733107582
3498,-0.06922437127305024
3499,-0.13480977319684442
3500,0.4462403202881079
3501,-0.23710219601058644
3502,0.017092577375228044
3503,0.019350988003662542
3504,-0.18965659800037118
3505,-0.5187432175293345
3506,0.12207288805526884
3507,-0.0230573340737898
3508,0.18907312540848156
3509,-0.20168195862084184
3510,0.4614270788443139
3511,-0.33138934016404237
3512,0.6470904037193904
3513,-0.660544512448924
3514,0.16432763833043304
3515,0.17969590737359245
3516,-0.3006923079330415
3517,0.16040583107194833
3518,0.48361259972136583
3519,-0.8378787643733856
3520,0.19001967622139113
3521,-0.9423677916753413
3522,-0.36498698856720824
3523,0.6157670065541441
3524,-0.21989293965726434
3525,-0.4436849221239277
3526,-0.07481342942433852
3527,0.7815951293364277
3528,-0.6923108152855827
3529,-0.39735779672214205
3530,0.5659759770003076
3531,0.7021454872832454
3532,-0.03909332818157634
3533,-0.4683179017411412
3534,0.7921543846711121
3535,0.602642578341057
3536,0.2566178404307546
3537,-0.30705922568759025
3538,-0.018531348971838262
3539,-0.060610413523826186
3540,0.12505003899344214
3541,0.5484269938989411
3542,0.33238839850883245
3543,-0.4072098811702927
3544,0.5202667553307067
3545,0.1183528242823238
3546,0.25968646145448054
3547,0.5543003430237363
3548,-0.42013784321485464
3549,-0.013540795976038853
3550,-0.20087093943284098
3551,-0.5925951614608043
3552,0.1310440539724845
3553,0.9492791484524786
3554,-0.6954840149981243
3555,-0.012200924143728888
3556,0.2421024728953204
3557,0.0465191876279019
3558,-0.042758384751672
3559,-0.49105762813476556
3560,0.0879851186189134
3561,-0.2860298977651915
3562,-0.8277126031536872
3563,0.45151341908739473
3564,0.3622357913361137
3565,0.019526013890660263
3566,0.08658209380742142
3567,0.40605404152035757
3568,0.0847924201491989
3569,0.3416865186764504
3570,-0.11243770328290983
3571,0.49588324234677744
3572,0.12124560785102925
3573,0.07334474060141045
3574,-0.48003797008456855
3575,0.10845911824805791
3576,-0.31444940195822535
3577,-0.24124819436323497
3578,-0.3081830196610703
3579,-0.4029989241393199
3580,0.8030881036063822
3581,0.5031988669610457
3582,0.7258306909320017
3583,-0.4622108716119273
3584,0.02693138603500175
3585,-0.48889992789368303
3586,-0.26294794763500734
3587,-0.3470193814425972
3588,0.4685187157453513
3589,-0.1497607414743474
3590,0.4038094318336082
3591,0.22833623366718972
3592,0.8706936069429203
3593,-0.5591773561455513
3594,0.4759454278717193
3595,0.4333139194172507
3596,-0.36790261955322207
3597,0.3806606207701025
3598,0.12705085380491474
3599,-0.08597794471539974
3600,-0.3114183421269729
3601,-0.27179782485294607
3602,0.7747561485516671
3603,0.0002580813074256314
3604,0.29561735385354404
3605,-0.29893186799530036
3606,-0.2947567078433549
3607,0.4089518182321436
3608,-0.5100918615848642
3609,-0.15693605297249152
3610,0.012861152493784528
3611,0.042094886762141896
3612,-0.06769089909062288
3613,0.14960581496854836
3614,0.26187486061908893
3615,0.27766689272232786
3616,-0.37259881703362413
3617,-0.10740053184154318
3618,0.45157791546031284
3619,0.3381448527805459
3620,-0.5188920990947771
3621,0.1328469153099556
3622,-0.7476988638734973
3623,0.017739725522987297
3624,0.7172885103786865
3625,-0.3582697713518568
3626,-0.31534447020867934
3627,0.2887761137555408
3628,-0.583124161654051
3629,-0.2391589214144366
3630,0.22543356024711111
3631,-0.2397375161591362
3632,-0.08918827186218897
3633,0.28127575982021946
3634,0.15932944331300003
3635,0.10084787454495871
3636,-0.12817617356998826
3637,0.13986995441383768
3638,-0.04676655722792383
3639,0.17303425609626719
3640,-0.18782265099512468
3641,-0.06900458618919836
3642,-0.3741688753632998
3643,-0.013231632867319501
3644,-0.3065295140315044
3645,-0.421069979443278
3646,0.09776472443712357
3647,0.0804080772701417
3648,0.2958984586626026
3649,-0.16295014870525523
3650,0.15422947921456934
3651,0.2081819141391769
3652,0.168108697885376
3653,-0.31206775910843926
3654,0.05645408986345296
3655,0.13763209509972404
3656,0.0027132054618744525
3657,-0.7886144285917533
3658,0.06065937614858543
3659,0.8362581283223365
3660,-0.1360820524783605
3661,-0.27518727660097403
3662,0.1411124916200726
3663,0.11806786569856324
3664,0.4508115182361886
3665,-0.4754294746631913
3666,0.2764357517338625
3667,0.22315856323393105
3668,-0.0537263409248201
3669,0.12801177363318
3670,0.3890983545177293
3671,0.329704222910297
3672,-0.43202069192731624
3673,0.30999065684124005
3674,-0.024449994510817603
3675,0.02754382005245672
3676,0.027665862129816494
3677,-0.056786512084465335
3678,0.4504230961252169
3679,-0.03164241457581506
3680,-0.42314866242386495
3681,-0.14874030462499563
3682,0.0675402544688045
3683,0.4645995181619856
3684,0.22794836477135177
3685,-0.3214721184073826
3686,0.9393134971853825
3687,0.10007566087964632
3688,0.482052388168647
3689,-0.057342665934910816
3690,0.2015908458496946
3691,0.3172892709181429
3692,0.4604343222508248
3693,0.39964765431894045
3694,0.329659479492812
3695,-0.11909159030798129
3696,-0.21609969144303431
3697,0.1257138223585965
3698,0.3526892601125083
3699,-0.08418051229727606
3700,0.4025971606854407
3701,0.5490375226920625
3702,-0.3463367532849158
3703,-0.3163262927608725
3704,-0.05305678516279466
3705,0.11626666002309179
3706,-0.19826769491648744
3707,0.5110845729196856
3708,0.16028220783449834
3709,0.014909582800080664
3710,-0.5427227864778983
3711,-0.4973316316332287
3712,0.10621151319348095
3713,-0.8060453819813955
3714,0.38274096488555054
3715,-0.05977653444256738
3716,1.2257739251728026
3717,0.8723103494135496
3718,-0.06858130183615244
3719,-0.04019160912312932
3720,0.37629444227750575
3721,0.6437387379514212
3722,-0.6191167894676053
3723,-0.6751864613593971
3724,-0.23510705747475888
3725,0.22025410352698035
3726,0.18780056478840648
3727,0.4043356042232851
3728,-0.4534430440790661
3729,-0.8754200945805872
3730,0.32429888316181155
3731,-0.31302876785951095
3732,-0.7629167019391719
3733,0.05482894229428208
3734,0.2997922310013035
3735,-0.04613325961923618
3736,-0.17305042400158968
3737,-0.060233262090601696
3738,-0.14006711849711556
3739,-0.509513916256076
3740,-0.2701239054485663
3741,0.1970252845888464
3742,0.12158306036974574
3743,0.06352063599628219
3744,-0.3761307715096451
3745,-0.06860174702611575
3746,-0.8228532429855823
3747,0.06745783820988631
3748,0.5400574505389273
3749,-0.557169574433263
3750,-0.22145984426706802
3751,0.12439067017893847
3752,0.47353000608487583
3753,-0.16941298088964907
3754,-0.2616460308914485
3755,-0.7441829979189665
3756,0.039095938032998725
3757,0.7718321943576997
3758,0.10483164491112851
3759,-0.008420662626355746
3760,0.1217356708546378
3761,-0.004192383427049645
3762,-0.30729054876022766
3763,0.3111705594682049
3764,0.08532983510869471
3765,0.006657183485083539
3766,-0.3686537064913273
3767,0.49267968855706884
3768,0.2512340228476154
3769,-0.20898443291135294
3770,0.3786542028694395
3771,-0.1880640997150242
3772,-0.29556953793830926
3773,-0.2871407884419037
3774,-0.6694009923311549
3775,0.17822626731628366
3776,-0.6921077089447
3777,-0.4643081253058
3778,-0.7844985280356389
3779,-0.03253128607777598
3780,-0.0568157935491626
3781,-0.12347956205109423
3782,-0.39405732893733936
3783,-0.44306271286130805
3784,0.17551531075674764
3785,-0.2080890707324106
3786,0.1195722062814926
3787,-0.33459255313305253
3788,0.0684352841530774
3789,0.49259279655866595
3790,0.2215498478414902
3791,-0.15587777146391524
3792,0.09721207328909394
3793,-0.09096288586298565
3794,0.002978429855358307
3795,-0.12306940973128931
3796,-0.06211286948933482
3797,0.08016375242344072
3798,-0.3754542973966232
3799,-0.38396610548449905
3800,-0.5248197546097002
3801,-0.6048456246856386
3802,-0.4600896112683668
3803,0.060271162348952995
3804,-0.3374419628021072
3805,0.19412802030302287
3806,0.013120563753436763
3807,-0.7440246576485573
3808,0.24755750152426167
3809,0.3064530827976658
3810,-0.3756447821374963
3811,0.1588174750732396
3812,-0.32372590493569986
3813,0.036915932476297264
3814,-0.4779354740057409
3815,-0.6777305353816762
3816,-0.1446912973309391
3817,-0.04676514597475543
3818,-0.15030879582351475
3819,-0.44752148596541075
3820,-0.15114763827527944
3821,0.10178384924332735
3822,-0.016967970472052053
3823,0.06897890585407254
3824,-0.25327973859515684
3825,0.442867744151164
3826,-0.44455173531843206
3827,0.18428047074860385
3828,0.4467128441049114
3829,0.18176617384170882
3830,-0.07654696275415952
3831,-0.19967751483430393
3832,0.3916043230190662
3833,-0.5378339677318728
3834,-0.3666725048278583
3835,-0.1502627113248044
3836,0.4677891502259122
3837,0.14353867442215726
3838,-0.3658869049641425
3839,-0.11728528833650764
3840,-0.23219232341572746
3841,-0.26827502239729856
3842,0.36998547613414806
3843,-0.5184701689561091
3844,0.608062008324976
3845,0.31304139838122647
3846,0.4123069564556919
3847,-0.17497468869777555
3848,-0.05667226486936016
3849,-0.5416804703190505
3850,-0.19830375019475685
3851,0.18658399433789385
3852,0.48986579213293086
3853,-0.41846594280131216
3854,-0.1381482588543798
3855,-0.057185730041892306
3856,-0.5275587302386523
3857,0.22350900452561986
3858,-0.2736426242008708
3859,-0.0738506111137117
3860,-0.17082080618152407
3861,-0.29834191234022756
3862,-0.002662754224515514
3863,-0.08149276073920414
3864,-0.14054906850978308
3865,-0.2753326129458578
3866,0.12076897380592656
3867,0.6250085794446443
3868,0.05287240424075984
3869,0.376497296153777
3870,-0.5254544973065018
3871,0.059628219263846774
3872,-0.4147662383769207
3873,-0.5582251519087862
3874,-0.2794561243783452
3875,0.45049560381167464
3876,0.3590722320335469
3877,0.09184715171004491
3878,-0.5793063593997452
3879,-0.07418711296374937
3880,0.11403188487142363
3881,0.06634645850670148
3882,-0.6968884701180946
3883,-0.3365085162375401
3884,-0.024219118358079234
3885,0.20269891099530385
3886,-0.8300582945629437
3887,-0.06127710295440557
3888,0.05406735292191644
3889,0.32112314750185206
3890,0.26187555169674903
3891,0.22019126150386054
3892,-0.30234909205433075
3893,-0.7211570222582901
3894,-0.14855997818753622
3895,0.3785812449642238
3896,0.5266763061580934
3897,0.2685623169971619
3898,0.1622755778316055
3899,0.14349029963560975
3900,-0.2101931290499903
3901,-0.04915817031241938
3902,0.6308489837447101
3903,-0.3562534399397547
3904,0.6103290146571262
3905,-0.12171520170672485
3906,0.5009662486236298
3907,-0.531726093686208
3908,0.22145097262708885
3909,-0.2784729361623796
3910,-0.5349207183628744
3911,0.08259810417442918
3912,0.3815444725943573
3913,-0.31935784556164915
3914,-0.5665747775270802
3915,-0.03471405795051798
3916,-0.03304744796365578
3917,0.20724533906925197
3918,0.3589130117382018
3919,-0.022456827678405934
3920,0.7013143325430878
3921,0.08475276704864024
3922,-0.1309369117793257
3923,-0.6091152076021723
3924,-0.09927596717715674
3925,-0.12714231454950378
3926,0.36296109625475925
3927,0.17480237924582603
3928,-0.44575962854122736
3929,0.06510603838337557
3930,0.25381492543184053
3931,0.5775415674925952
3932,0.33544496933725326
3933,0.2875730047376714
3934,0.022710371289955577
3935,0.1467681424930303
3936,0.47226846131785005
3937,-0.5037425066770052
3938,-0.13207565116025566
3939,-0.29200353998705064
3940,0.14330640870912445
3941,0.46498027630411487
3942,-0.22563507168059
3943,-0.9034501305822403
3944,-0.15580479665664487
3945,0.3452606177297311
3946,0.20320500294245322
3947,0.16183918950352277
3948,-0.1058275207891012
3949,-0.48342817817791545
3950,0.19476294671743904
3951,-0.31532888467092113
3952,0.8255109708333187
3953,0.21563145635368
3954,-0.2194644296785063
3955,-0.23108190283485874
3956,-0.03512960807196562
3957,-0.09052321774164768
3958,0.42212348940708466
3959,0.0704586893577071
3960,-0.2765308046333863
3961,0.7145194173201078
3962,0.01863679753800522
3963,0.29059408295616923
3964,-0.22988801135660122
3965,0.1372448068818735
3966,0.11758852385034314
3967,-0.7142202988593818
3968,0.761702395093868
3969,0.48781775351486867
3970,-0.1501257183488516
3971,-0.41661880156541503
3972,0.1313659421994961
3973,0.03276865027027479
3974,0.13443022670944693
3975,0.07240944959297901
3976,0.19134110873868418
3977,0.5470301359538752
3978,0.21472282854130162
3979,-0.39673248748673334
3980,0.5150003505674111
3981,0.6200940189001137
3982,1.1913654625550458
3983,-0.42464083020241583
3984,0.09180077210376389
3985,-0.786959339104021
3986,0.2090707293863664
3987,-0.20720023680010544
3988,0.7269941762028276
3989,-0.29277693892813167
3990,-0.6384511767614215
3991,-0.17812095140298492
3992,-0.7466641943842581
3993,0.2838889095003735
3994,-0.7805280252985598
3995,0.010755954675009945
3996,-0.7853390495042908
3997,-0.12106119089770433
3998,0.6211385586135363
3999,0.13631209022841922
4000,-0.32636990534740906
4001,-0.011793810252910125
4002,0.006809737547553932
4003,0.1786374795948716
4004,-0.5166239009556924
4005,0.22396937738222075
4006,-1.022163957849307
4007,-0.23807398289084056
4008,-0.1845501655463885
4009,0.23937504005862215
4010,0.008553658305762303
4011,-0.5312528989320314
4012,-0.37229240771713956
4013,0.07509398510605388
4014,-0.02988464620007744
4015,-0.21888833890541295
4016,-0.18173808985792494
4017,0.2631267701721998
4018,-0.19566940048530368
4019,-0.03329536062617591
4020,0.8201589389773029
4021,-0.538101457582219
4022,-0.6999307621355836
4023,0.29616905471108235
4024,-0.2565029670233945
4025,-0.12028247946499883
4026,-0.2952493587981232
4027,-0.09819522329291591
4028,0.6041906151236586
4029,0.30317606014730114
4030,0.3258898552865264
4031,-0.5352835128040767
4032,-0.43509521538880797
