,0
0,-0.03812053624136326
1,0.025037657339946895
2,-0.018889237935082397
3,0.00022385154134017956
4,-0.0877719764469592
5,-0.07823840099937748
6,0.0072913538262870965
7,-0.017974078662212352
8,-0.10842129474442659
9,0.03842151027353534
10,-0.050773178194833554
11,0.004597408566043415
12,0.004148145186358548
13,0.008468564852311634
14,-0.04499447638508933
15,0.006712296683063524
16,0.0017766581475632246
17,8.15017544927073e-05
18,-0.05937595248983997
19,0.07525401007049473
20,-0.04700802255430118
21,0.0227217162718151
22,0.007995141452415162
23,0.03194045796847214
24,-0.0064872207823234865
25,-0.020699188765229675
26,-0.05315314886619595
27,-0.004576510911296067
28,-0.03563262862968212
29,0.01838442311613023
30,0.00855922127982639
31,-0.001943762701438965
32,0.16193367679462445
33,0.010842471977666813
34,0.007833636397362186
35,-0.054117143746061205
36,0.02981209408404393
37,0.0007532547404078374
38,0.018255685061621504
39,0.06559824237197763
40,0.018003971550328304
41,-0.003785637480365458
42,0.010461973693187368
43,0.004545521748472649
44,-0.018044085824953822
45,0.004306364391621579
46,0.11539277420034129
47,-0.01836631903341821
48,-0.026879959118813742
49,-0.011748702455899242
50,0.04636730388637175
51,0.03757221866509594
52,0.01995291652292474
53,0.10906514730701872
54,0.007927673408746875
55,0.011599429640140579
56,0.05676424714285467
57,0.0048447798223019214
58,0.0027133007277915654
59,0.05737951111895024
60,0.020187705112456905
61,-0.05435456302021351
62,-0.16226897808679083
63,0.023128354065234523
64,0.024162505668138438
65,-0.01607418290206417
66,0.006799092878899081
67,0.09099373362887851
68,-0.060659122331901606
69,-0.03547661462241045
70,0.005263552744336193
71,0.003285887530824458
72,0.04126896162368659
73,0.0007070864662392897
74,-0.0012508210432801885
75,0.003946018396459096
76,-0.02373022265125211
77,-0.026930580768470058
78,-0.003848677347375013
79,-0.005115958145804448
80,0.034222533952721554
81,-0.003228057205350525
82,0.003809947419364409
83,0.037999408605892175
84,0.008103012965111836
85,0.009306643240153296
86,-0.004430092372462752
87,0.0034903928359131075
88,0.017869852445221664
89,0.0012343536044375335
90,0.03650253103489005
91,-0.028528950979294185
92,-0.06193812164353375
93,0.06018381394004378
94,0.07261624737370533
95,-0.006785854129313359
96,-0.0304682394436856
97,0.05155307821612746
98,-0.04481652078407848
99,0.028312828015757765
100,-0.0039201620430320185
101,0.05398942343301968
102,-0.008951607054103188
103,-0.0068803483150187
104,-0.0018018538775935822
105,-0.0043731370273151745
106,-0.003851618095128094
107,0.019266525730065667
108,-0.14118953858981687
109,0.05382217407700583
110,-0.0006994830547177922
111,-0.0904512755356407
112,-0.06621090189895491
113,0.002363984329458952
114,0.04111007704462042
115,0.04530489268081893
116,0.016200536160402852
117,-0.062178781109561806
118,-0.014857890043319784
119,0.0006466451433711413
120,-0.009035479389682978
121,0.053808801906016904
122,-0.06214966439532736
123,0.03802336654693311
124,-0.01769891796952027
125,-0.004752341220344409
126,0.0076685363677019575
127,0.014661843529984814
128,-0.000270987304184385
129,0.016293814503449626
130,-0.005994976533836788
131,-0.040632013324622095
132,0.002214301826629969
133,-0.039738724418490856
134,-0.03760702335819882
135,-0.007674410984074595
136,0.08846975298475222
137,0.004967390279798379
138,0.011269115221767257
139,-0.0042121457640704706
140,0.019221685085564624
141,0.006750594726882898
142,-0.006826747625927779
143,-0.03582679592416004
144,0.0058136561016480385
145,0.06777485211518015
146,0.00540292926207511
147,0.012228709688339388
148,-0.01392186232412098
149,-0.09247319808150614
150,0.009412831856143528
151,0.07425058534206694
152,0.0010315974052542217
153,-0.030187661369559693
154,0.06771158333086662
155,-0.014855127048861777
156,-0.013307435929266335
157,0.026364594046231496
158,0.011183183348554941
159,0.07222768823861817
160,0.006837876480596832
161,-0.016821311839229327
162,0.00014098230170533067
163,0.0017739081899514637
164,-0.0037298382568591816
165,-0.01706616682722749
166,0.007650460266376929
167,-0.018956552259068855
168,-0.015455901386962354
169,-0.006617861745626347
170,0.002848856712744869
171,-0.016555003460531723
172,0.016192535109130834
173,0.0006258936982718698
174,0.006226964478243575
175,-0.17396865604270875
176,0.0049477318204325564
177,0.006148618217992649
178,0.018918804385821997
179,-0.0022948087729689898
180,0.07986814904527866
181,-0.01420913774220877
182,0.017008339693055062
183,0.020388304793886886
184,0.006901704429347499
185,-2.456204915276457e-05
186,-0.009279967900224208
187,-0.03982592750529069
188,0.04804073865024495
189,0.008945955873414534
190,0.06482949406971321
191,-0.006916588385867497
192,0.015115518936232076
193,-0.03814787863755869
194,0.01819416474917081
195,-0.023825512047820435
196,-0.0053432509123643385
197,-0.044868608843578066
198,0.0007939365694529916
199,-0.018615403790363548
200,0.0551725697813812
201,0.030181424128988887
202,0.0014299096018102855
203,0.059260226839611733
204,-0.02781192624242599
205,-0.0059752740663076235
206,-0.04488679844565767
207,-0.08613638204635309
208,-0.00014498374079273863
209,0.0005962820356567376
210,0.001111654840970478
211,-0.0018685759930214972
212,5.7467055361299973e-05
213,0.0019730800132042666
214,-0.0033678371733311366
215,0.0020085924439208497
216,0.012632004200222698
217,0.03747026422938908
218,-0.03927724388502922
219,-0.050816332350488394
220,0.00645323263312639
221,0.023135446585820483
222,0.009254684345670413
223,-0.004641180355074813
224,-0.0571501479572779
225,0.009120035373269764
226,0.008226012175103407
227,-0.03860812792491257
228,0.035299674445679566
229,-0.048812481153608915
230,-0.03995251727768989
231,0.028624113302237655
232,0.0018791851621229399
233,0.0014458610582412717
234,0.0017248056575228914
235,0.01200174975833294
236,-0.00047325843102621824
237,-0.02547511818829192
238,0.058436799404884915
239,4.2953725983888654e-05
240,0.023708389682473945
241,0.0025335302922277324
242,0.03733804114290377
243,-0.03379239311408604
244,-0.04529939303535425
245,0.0052495351560636755
246,0.000219339025507384
247,-0.08705801797126908
248,-0.009090778700560723
249,-0.0039250463879543975
250,-0.010193720983774095
251,-0.02135378656119226
252,0.0005912530629331651
253,0.0527338940691056
254,-0.006351620604709308
255,0.006996746497620027
256,-0.005849123546775962
257,-0.006030435593740745
258,-0.00016694849209337867
259,0.014246320313418798
260,-0.0003538239787375153
261,0.0262458485760865
262,7.724777978520398e-05
263,0.012936777772044428
264,-0.06519410488637137
265,-0.010221447270502492
266,0.010927912991132471
267,-2.3749251295141565e-05
268,-0.0019238573259895682
269,-0.0821588800179991
270,0.0059975653779765345
271,-0.0018124003468263628
272,-0.02430628112600316
273,0.008660062125987904
274,-0.028780907479807247
275,0.0010506752070167616
276,-0.054365490673735875
277,0.013311672717196419
278,-0.0246576765680442
279,-0.009041520203448346
280,0.001600163133664439
281,-0.04912533383198603
282,-0.005420194182513575
283,-0.0009775503508475721
284,0.005729011911368972
285,-0.00033197012142391303
286,0.05669465075168322
287,-0.03704316635407345
288,-0.00460938193063529
289,0.018175651120510623
290,-0.09989129405963316
291,0.00032943300913636995
292,0.0069583589705193676
293,-0.0037301297471892246
294,0.0015927605442552437
295,0.0068309530099569925
296,0.05350951027525077
297,-0.1070070786951136
298,0.0021341121562455817
299,0.06955255974606864
300,0.017179594012022854
301,-0.004484947555430548
302,-0.0012151165578386473
303,0.017381731662069157
304,-0.01055842426412919
305,-0.04733631499263573
306,-0.07869956542399152
307,0.002010390419104408
308,0.002300588073115811
309,-0.020435862324912027
310,-0.013660480635548632
311,-0.12604332446648117
312,-0.0006497186245442078
313,-0.027699979888255958
314,-0.0655919743085152
315,-0.005965625040820221
316,0.0023992670274099095
317,0.003854587065071888
318,-0.04704468000893108
319,-0.004677977686379395
320,-0.045478629825422896
321,-0.1055006025206335
322,0.002638861567072916
323,0.002628575627589352
324,-0.0012585409916714466
325,0.08629176414548922
326,-0.12100277326488375
327,-0.001563183941497429
328,-0.0027232740878390255
329,0.17994780494429186
330,-0.019280018753723465
331,0.00960632639679944
332,0.01145090781129158
333,-0.03212690054068909
334,0.0021247353927473377
335,0.037409390170222295
336,0.002998017744923554
337,0.004810899509810611
338,0.007918090389915278
339,0.05855265958598614
340,-0.004253366551909967
341,-0.021930079408204597
342,-0.02641137547101756
343,0.011335852037729379
344,0.007487190040817197
345,-0.033424383189164596
346,-0.03320079410076516
347,0.004517274596270522
348,0.02288489627919564
349,0.044498175954370875
350,0.012989700640390695
351,0.003802884423238543
352,-0.008171069712248681
353,0.07245328785348737
354,0.012097917609347674
355,0.05631037389972699
356,0.02646933411692586
357,0.01989248554988829
358,0.07450114968902502
359,-0.0015219995758107225
360,0.004652316806264765
361,-0.0022916275596663272
362,-0.014120382422602116
363,0.0028573375943700277
364,0.0005345984340693081
365,0.001168311670919736
366,-0.02823489963823926
367,0.028960158289593137
368,-0.20472705693963017
369,-0.08552867484648612
370,0.0204085206338279
371,0.026618370179255526
372,-0.07294217966618283
373,-0.0003382475375677972
374,-0.0057401981576494085
375,0.0027527060638617012
376,-0.002369471715077293
377,0.004069785790400313
378,0.0011868630697374285
379,-0.0009930425068534544
380,0.01189962111681209
381,-0.0026072350306578377
382,0.0061900993317580075
383,-0.013551287947389308
384,0.026386834965434005
385,0.0005650944364345252
386,0.014232383353543957
387,-0.005558007798924463
388,-0.06348217259952292
389,0.06991856110433738
390,-0.012678228831416385
391,0.004544570629805946
392,-0.0008974383359858631
393,0.039362854539774346
394,-0.016560787861283503
395,-0.0018382841959136095
396,-1.785980603542701e-05
397,0.03329571514397481
398,-0.0022175625172186743
399,-0.02871199090310282
400,0.008971575812124242
401,0.07045887498446322
402,-0.015221676707811665
403,0.04150455033116002
404,-0.0072833336789603536
405,0.00026820136497657715
406,0.009389458039661269
407,0.1335459351814653
408,0.05693452778963266
409,-0.001118961145409579
410,0.025235877266651482
411,0.04735507427860091
412,-0.004360766542349346
413,0.027742919694670853
414,0.029548099847161807
415,-0.06545317837498771
416,-0.0036078255499134566
417,-0.021708285137457154
418,6.615557388914727e-05
419,0.005968796156275285
420,-0.00769416623752198
421,0.005701521820451818
422,-0.0039738858081213605
423,-0.0031452789653272253
424,0.11753873757559777
425,0.0272760247000098
426,-0.012249483705302945
427,0.017255944208962693
428,-0.010825769357402168
429,-0.00036053229263967096
430,-0.004038284333542772
431,0.00015621047844748557
432,-0.0005038708013672638
433,-0.058748047203529496
434,0.002675493656743884
435,0.05734251076203565
436,-0.04348942655441476
437,0.028562575415107743
438,0.04023418415926509
439,0.0011674751649540242
440,-0.005483758200210722
441,-0.015289079428052325
442,0.009022771474381077
443,0.028212248133426307
444,-0.000793910321399483
445,0.003665422427566614
446,0.027799813248324336
447,-0.002955611011255255
448,-0.006581255341746305
449,0.028765772658846032
450,0.038626365196953664
451,-0.02005147961343306
452,0.08221176341640993
453,0.011538465776630787
454,-0.006282746423435612
455,0.0016840713832493488
456,-0.015503423210767989
457,0.18459610895086984
458,-0.00632634177270169
459,-0.047199589219991865
460,-0.002046874358387288
461,0.0015262805672480147
462,0.01408889466587031
463,-0.09332226801613046
464,0.043948844951804504
465,0.004103591038054061
466,-0.041643388881980395
467,-0.08796176228869212
468,-0.10858399402197791
469,-0.14301159807828237
470,-0.018069756435067634
471,-0.003559930546027612
472,5.615340880615983e-05
473,-0.010586351325594111
474,0.004625342425982315
475,-0.01751051546584039
476,-0.05109355127021295
477,-0.0013692269012463285
478,-0.00015626959058276052
479,0.0044031548945474615
480,-0.1031006270385487
481,-0.00111731199040122
482,-0.0137847069359644
483,0.052630865826159515
484,0.04521831165707168
485,0.015518333574713068
486,0.002516094955776692
487,-0.0004730891847304652
488,0.07084962283896537
489,0.006576341782349749
490,-0.03770213365291842
491,0.15449966494769188
492,-0.02943832131400132
493,0.00039078487707386626
494,0.005802045441329135
495,-0.006145739755819231
496,-0.003595071416720879
497,-0.011301910914862478
498,0.0038178536963400143
499,0.029665111001802094
500,-0.06632886164684614
501,0.008922031140119219
502,-0.0016899100523408827
503,-0.003154000221443047
504,-0.02313564490145063
505,0.005843635839791136
506,0.029237755186953682
507,0.09385677854289234
508,-0.028266059076991656
509,-0.0029526744202853588
510,0.0038346110925076035
511,0.03140872227015383
512,0.0319175069009598
513,-0.01646718251521437
514,0.032617595705985956
515,0.008858761948586275
516,0.011885236867822434
517,-0.019805574488690476
518,0.0006106865331299605
519,-0.0005530350380419718
520,0.10602743148686952
521,0.0012162078252028667
522,0.00550032384291663
523,0.0013316196580430097
524,-0.09665397982278391
525,-0.022258983499840908
526,-0.01751907934252554
527,0.040627261902621226
528,-0.007017750677347155
529,-0.0021259745222919116
530,-0.06457773483262526
531,-0.0036167558039287254
532,-0.037710383913753066
533,0.009220682301507946
534,-0.0007758556252270363
535,0.004644707771005892
536,-0.021932368883834766
537,0.013893418024152162
538,0.1050428002300376
539,0.028733182986276657
540,0.07290073742592616
541,0.00045312274925374014
542,0.045807002502923924
543,0.024774722475644467
544,-0.004724229592181465
545,-0.018223718913966236
546,0.11404641535794896
547,0.03637880748555084
548,-0.01646575995413505
549,-0.01018976902154102
550,0.027731555138801302
551,0.01899481357295939
552,0.0072093214646972185
553,-0.009183966284060907
554,0.0019439950671273699
555,0.004034157844071894
556,0.10074358756590035
557,-0.06153483821366063
558,0.0002274434856807516
559,0.07184810633542477
560,0.01164946689967333
561,-0.00037719874307962504
562,0.00909845977688029
563,-0.00019702429515993923
564,-0.007465784360888347
565,0.08856363382599369
566,0.008321252442502999
567,0.0005366228697570963
568,0.00015842176281570216
569,0.03702285460295615
570,0.021416551664722117
571,-0.0016342277754954118
572,-0.027662845180928795
573,0.002458172908487427
574,0.02578899126942423
575,0.007665372232862687
576,0.0023175871184606188
577,-0.1396625759452229
578,-0.010876323124532255
579,-0.026424119780361976
580,0.00775672679254001
581,0.010103079967650117
582,0.0034306752206694183
583,-0.00014322399357229033
584,-0.002764808421657871
585,0.014552075739819613
586,0.011650670819758195
587,-0.028134418322296142
588,0.0006293887075656498
589,-0.06240610779481747
590,-0.004837751505141868
591,-0.03844391208279663
592,0.013286734704454121
593,0.0003752082449376283
594,0.016133031654229742
595,0.009927910094248205
596,0.005683294436465157
597,-0.0038642773705827144
598,0.038254644815240484
599,0.030289516540083068
600,-0.009708848734177855
601,0.15552493066501785
602,-0.0007833643493434922
603,-0.041756898568864546
604,-0.009706665689978263
605,-0.002170508125623278
606,-0.0009283951443407349
607,-0.022102353377053588
608,0.0009027417103316916
609,0.00015003408796995462
610,-0.12360174820219232
611,-0.004380932445928613
612,0.009110159722049179
613,0.002972683898398243
614,-0.008847067121321533
615,0.1270013843060167
616,-0.034753634715439165
617,0.00020131644597840855
618,0.0010867950624040487
619,0.046371510483035894
620,-0.0005410694147009029
621,-0.07072178108692222
622,0.002493618882519749
623,0.0272664322384411
624,0.0022126042573616896
625,0.00025758922780767595
626,0.013372678458768552
627,-0.00799308524910194
628,-0.005409673809818138
629,0.00044210184257468876
630,0.0012008549699399442
631,0.026900887591527044
632,0.011959886055808291
633,0.0061870883999690885
634,-0.04244755954160469
635,-7.773689872241131e-05
636,-0.008186448712532253
637,-0.09777536257194248
638,-0.07712155724517114
639,-0.010803478752212586
640,0.0010821167554919359
641,0.029015812742339404
642,0.03289724733348758
643,-0.042462940346127
644,0.04552901807137971
645,0.015787079866021535
646,0.012884651477473644
647,-0.05634509782431927
648,0.002304818536066582
649,-0.032426902922354346
650,-0.0010730863630923437
651,-0.0734542871151711
652,-0.033936345774905605
653,-0.03937618357665135
654,-0.020736867783436138
655,-0.007886663184371662
656,0.009061614641919869
657,-0.0010622997430114324
658,0.01802319374647201
659,-0.0031752534333949135
660,-0.0741746248662163
661,-0.030636891658439296
662,-0.040423440806207946
663,-0.03553624565868461
664,-0.002407545174554285
665,0.011629148741978403
666,-0.039265280373564526
667,0.012102899727794611
668,0.0018962366446483349
669,0.013316827197682242
670,0.12009809392053238
671,-0.018551265013155165
672,0.01264080803058649
673,-0.0036057573122551165
674,-0.008084527671765863
675,-0.06686722929698062
676,-0.024747606788629726
677,-0.013312616253144463
678,-0.0037782835236170073
679,-0.10083310624270628
680,0.023243362905545316
681,-0.0053889760767139765
682,0.1156534376042293
683,-0.005236458602345449
684,-0.014820831280896016
685,-0.032560874483160036
686,9.756273409663402e-05
687,-0.17675560432702994
688,0.04255338100736281
689,-0.033323294919437266
690,0.15829433760932762
691,-0.0243318148831475
692,0.005829869444663763
693,0.10689192050257279
694,-0.08850924734835781
695,0.07112948558873433
696,-0.0463825170031181
697,-0.02451168845069001
698,-0.004942376874417908
699,-0.011450627174987626
700,-0.01728130613917928
701,-0.009327188402736485
702,0.009130194449274298
703,-0.049389240127504674
704,-0.1173942507279419
705,0.009562069667462491
706,0.002724763934891881
707,0.004164412058654356
708,0.0001320972504282701
709,-0.010216011836804591
710,0.021860860061815465
711,-0.017321077190837177
712,-0.05503476763913165
713,0.0014079420466142304
714,0.0037722049273649326
715,0.009476075316674144
716,-0.000249731529770645
717,0.00014374177824777866
718,0.004222946607192037
719,0.01739640947985819
720,0.02625080950739037
721,-0.00634743832289345
722,0.0006581425796710573
723,0.010244377977418347
724,0.16175381344164308
725,0.0002161077603669111
726,-0.06659154950184305
727,0.0012235366666825012
728,-0.020468414468015582
729,-0.002634333020687832
730,0.0007839880277065509
731,-0.0010998176654138949
732,0.007829593822096328
733,-0.002714562787250828
734,0.002753722177860566
735,-0.085360885589057
736,0.07938843974369308
737,-0.024875057861908998
738,-0.00012514566345671628
739,0.002537522064352563
740,0.0004912198524430892
741,0.005776866732744474
742,0.010252914255274028
743,-0.1572209821597922
744,0.0331106882397509
745,-0.010405299691713676
746,0.0013609173821615044
747,-0.010171530403240115
748,0.04933409250653959
749,-0.01126550998494854
750,0.018429382606066927
751,0.015193624191907827
752,0.01641270309993932
753,0.0825207578962375
754,0.010503110183089238
755,0.0012848194533969278
756,-0.03615190252840275
757,0.013232094226016749
758,-0.1111862145111315
759,-0.0518579920216502
760,-0.055671898369920814
761,0.01620579384810434
762,0.00846077015456167
763,0.08527887474054141
764,0.018163158035647258
765,0.03509653337788395
766,0.014126723946223092
767,0.025939163726811026
768,0.04801355377018064
769,0.03851708893778937
770,0.0010724427344987934
771,0.010644403792379516
772,0.004178066488984984
773,-0.03709947326958781
774,-0.01376049779153611
775,0.013616321372440232
776,-0.0012419370418752871
777,-0.06085229482840075
778,-0.00021654431456067153
779,-0.016407841363079382
780,-0.05729276833588781
781,0.010925086649976675
782,-0.04850597536794763
783,-0.005013778940580657
784,0.0022205234960270366
785,-0.007568996505270608
786,-0.017648354186527493
787,-0.001382269138814918
788,0.0005117801910458385
789,-0.0026806007569144395
790,-0.019786926315959578
791,-0.009095864829590145
792,0.005763746673769669
793,-0.004719079298704649
794,-0.007267380385450755
795,0.04015118473014784
796,0.00545001773521589
797,-0.006780805138901947
798,-0.010032719407211661
799,-0.004853356122902852
800,0.0020513785768834923
801,0.02076675721591569
802,-0.004692186658175187
803,0.0014410216042033345
804,0.034954144275668585
805,-0.005131357249417403
806,0.02027656137399225
807,0.0006436375618995187
808,-0.025297286431036202
809,0.13375755466408287
810,0.009356907069037787
811,0.03580846693670274
812,-0.08103783940344719
813,0.058540759672936794
814,-0.004233975300346939
815,0.0003600074585900546
816,-0.017222478281927727
817,0.022728493329852568
818,-0.08153663962652623
819,0.0289001875429472
820,0.016381941430361313
821,0.013062890057078067
822,-5.7309056839981035e-05
823,0.026327560559617963
824,0.019998314747695256
825,-0.0003726577107918762
826,-0.004478180611634021
827,-0.11169064665591331
828,0.001621439815530808
829,0.012643881209782035
830,0.07158912747171771
831,0.01258727163395695
832,0.01306035697770015
833,0.006511389606052959
834,0.03881336038656237
835,0.004097416281229694
836,-0.0010537573300662577
837,0.002868586798422628
838,0.051514214337950046
839,-0.03451312060718306
840,0.04831434918347749
841,-0.01339890504813423
842,-0.02239945657152196
843,-0.0005476109308659202
844,0.0014990546499793183
845,0.10958910459917331
846,-0.02077418395458066
847,-0.005589181936937746
848,0.001170147553457283
849,0.007222701954918652
850,0.006007920562561089
851,0.0005645904367608762
852,-0.03204956480352117
853,0.034252638794083676
854,-0.06062577280242475
855,-0.0011582843439673285
856,0.00636728683893016
857,-0.08344778817983621
858,0.004251936569483979
859,0.014758833195172247
860,0.00336017463893766
861,0.004530163228350454
862,-0.01669363638083564
863,-0.005009791922345177
864,-0.050426691559681235
865,0.11803921852092998
866,0.009142927993153369
867,0.0020449748205246766
868,-0.03241636347211822
869,-0.0021030709917190713
870,-0.001752056012729294
871,0.026577589477587153
872,0.03412522518275101
873,-0.04177215168412927
874,0.0077897721915710354
875,-0.002529100263928986
876,0.00010533926000654197
877,0.0037298869717313356
878,0.01711063725960727
879,0.006129995547835198
880,0.007794184832765707
881,-0.027531875327840186
882,0.012804500546968814
883,0.033475141698840194
884,-0.03021952481071306
885,-0.011657485933767694
886,-0.006323886890036542
887,0.050592730056013384
888,-0.10351847417859969
889,0.004879028301131181
890,-0.000682138904464875
891,-0.0092201770511736
892,0.013868948452980371
893,0.002180966328465331
894,-0.038131464217919686
895,0.0469007250138828
896,0.001746285152093247
897,0.032515770204586236
898,0.0043704536194295015
899,0.0007531119407646346
900,-0.030474929391697596
901,-0.0022692371871346788
902,-0.00861095369417691
903,0.007052387720434558
904,-0.007117313850193316
905,-0.005204018178914775
906,-0.00504105035662977
907,0.002216215963726904
908,-0.11604303055427899
909,0.004810206531699207
910,0.009543746578610242
911,0.0006199206139011782
912,0.044385743178584014
913,-5.379488736360723e-05
914,0.019076156130940197
915,0.045696312256972835
916,0.02799332490818273
917,0.04053542968646415
918,-0.0022772586039552355
919,0.005061454405566137
920,-0.027829587607287244
921,-0.10792937438606626
922,0.019437976251736645
923,-0.0011114771339634543
924,-0.03932517566624955
925,-0.0432759553994194
926,0.009792890959495683
927,-0.1695187978932514
928,0.007754079783890563
929,-0.019990045500184232
930,-0.05150473443190641
931,0.002653733658968213
932,0.049878077119455404
933,0.022436112678402398
934,-0.0843675790828919
935,0.01233913092817024
936,-0.004030453140188797
937,-0.028720381206404976
938,-0.0008622877103015987
939,0.001663692297899762
940,0.0620435677844889
941,-0.00341758868865571
942,-0.02902040001231831
943,7.837752799904031e-05
944,-0.022993513435071496
945,-0.009838060161617328
946,-0.0008459612902416135
947,0.07545484911183456
948,0.0011463902177584462
949,-0.004418252794532882
950,0.002400912734530711
951,-0.06396388869820632
952,-0.0010252210795133891
953,-0.0022814451275462327
954,-0.07952603183285194
955,0.005943673673077061
956,0.007257269027165384
957,0.006410773182980387
958,-0.01300082786291339
959,0.04514105929941683
960,0.008816263482773682
961,-0.00055088659898981
962,-0.0011051768549051784
963,0.013500491554372782
964,0.04085903198594164
965,0.0014414090066374367
966,-0.08042762781294353
967,0.01995452257068001
968,-0.058899253793660164
969,-0.023335998707694865
970,-0.015379438555265803
971,-0.027793141433917052
972,0.012961536323856224
973,-0.003534915296580777
974,-0.005067671804101814
975,0.057950598918388975
976,-0.054547296928719215
977,0.0010835867040915003
978,-0.0069649725956747715
979,0.01647968149793967
980,0.0039872355121184175
981,0.024626969153633667
982,0.0026368199023273416
983,-0.06877135019446375
984,-0.023310777440388883
985,0.001813435949303099
986,0.0017909697003482912
987,0.0019112804122940806
988,-0.026638202040150754
989,-0.00545150527841986
990,0.002204909956438587
991,0.008633384890590972
992,0.005910069799607573
993,-0.0008279522524754888
994,-0.0263008354151194
995,0.09278731937467097
996,0.0023228195696211574
997,-0.17530979267303945
998,0.00230316398187848
999,0.09393859608530472
1000,0.011004462226112883
1001,0.010624319685174619
1002,0.032115822383554905
1003,0.03259871756129495
1004,0.0011071127449970375
1005,-0.0024752353313970106
1006,-0.0006132690912684
1007,0.07470328523515594
1008,-0.011001459562398471
1009,0.17632123869496472
1010,0.012709213118595944
1011,0.03533461755244156
1012,0.00355799936472516
1013,0.018853439083915662
1014,-0.01102051018207816
1015,0.01816477967220942
1016,0.006571447943487446
1017,0.05859533605689293
1018,-0.15973266842667863
1019,-0.05026965891989447
1020,0.0073942287474360715
1021,5.2060142052181805e-05
1022,0.012167790800316314
1023,0.0007615547859209104
1024,0.032445554820717794
1025,-0.04917763831724375
1026,-0.0413601072637376
1027,0.2109706424181675
1028,-0.0011865042090086575
1029,-0.035379056611247184
1030,0.007258983151966678
1031,0.0004866390429804315
1032,0.06041971727262311
1033,-0.00016417570688151333
1034,-9.456619362858746e-05
1035,-0.04121238801539699
1036,0.0015517247793168435
1037,0.02977947332536165
1038,-0.09324380396304917
1039,-0.004048975959488057
1040,0.03657776800017067
1041,0.021836260246390016
1042,-0.012246742737907716
1043,0.02635805547844428
1044,0.04138883075507787
1045,-0.11390604600060508
1046,-0.044076332345085775
1047,0.0042089735839239105
1048,-0.07493559405524748
1049,-0.019841785215134067
1050,-0.0030885901333204614
1051,-0.0829102076179244
1052,0.0399140643470113
1053,0.038373748537722366
1054,-0.20215182059400955
1055,0.027117798239527494
1056,0.002421463744420955
1057,0.019010771837483873
1058,0.003706739939105092
1059,-0.12306838720389092
1060,0.0674547688951103
1061,-0.002796864192387722
1062,0.042379698135283535
1063,-0.006870679314084426
1064,0.023811419242406633
1065,0.021355421913394925
1066,0.010842154259881802
1067,0.17358921030882182
1068,0.0020792988187567844
1069,0.004511294306081731
1070,0.06141517140135888
1071,-0.022926114692084762
1072,-0.015340888623679532
1073,-0.06833675989138605
1074,-0.0300790948973468
1075,-0.09193664708079786
1076,0.006794696202572097
1077,-0.0005268457769182216
1078,0.002861493371454063
1079,0.11441078380049903
1080,-0.011720008399095927
1081,0.09893502549515265
1082,-0.031916662767485844
1083,-0.0019870341305102896
1084,0.14964618738699303
1085,-0.05590064742702284
1086,-0.07363781735268349
1087,-0.039808784529129296
1088,0.0017049063733211118
1089,-0.0021046740790495017
1090,0.001008652862731312
1091,0.0025529549099343996
1092,-0.0157391299407514
1093,-0.004504535527741884
1094,0.026619775523835612
1095,0.02158999646532
1096,0.006439976791848903
1097,-0.0036878441254010563
1098,-0.04634917735426845
1099,0.06342495708369346
1100,0.006679793145552431
1101,-0.002362368480443026
1102,0.0006708512015110322
1103,0.05106547014685204
1104,0.04919626003712398
1105,-0.001741610736369954
1106,0.010509961860036082
1107,6.517034374085135e-05
1108,-0.009119812895680108
1109,0.00040484803747803085
1110,-0.05322025907249379
1111,-0.014766913752928578
1112,0.04699440027222146
1113,0.21201164759507923
1114,0.0007877519530839725
1115,0.0008436786185233692
1116,0.0029157705225074256
1117,0.0026344406678196846
1118,0.013291991442778874
1119,-0.03828237270608103
1120,-0.0006494060248481221
1121,0.0069517165266199865
1122,-0.04030731050603731
1123,0.009281788934642198
1124,0.04010375508566652
1125,-0.003012698777862978
1126,0.004522213578998765
1127,0.0008419912333182928
1128,-0.007903827404961355
1129,-0.012342359154985674
1130,0.0545636854417899
1131,-0.012441327176331144
1132,-0.0033076461780081217
1133,-0.0036150713463356755
1134,0.015122390857327021
1135,-0.07048689668242739
1136,-0.014283191754198083
1137,0.029154104195302177
1138,-0.01828458379937186
1139,-0.008790579050759428
1140,-0.00515936280363093
1141,-0.016851841568753426
1142,0.040708052483347565
1143,0.0020775228598702913
1144,-0.023795169509216764
1145,-0.032283196052294
1146,0.0028676796126929213
1147,0.00583623929254603
1148,-0.006488955486368443
1149,0.026637340967315584
1150,-0.04094706789431467
1151,0.006499235566526063
1152,0.006543155673087653
1153,0.0005431233336142474
1154,0.03310423860735604
1155,0.00819984340227679
1156,0.006958699124309348
1157,0.003389285039369792
1158,-0.016390413004377408
1159,0.02436311142791068
1160,-0.005209798235217573
1161,-0.031069947001885152
1162,-0.05153893128195553
1163,0.0041616866167338866
1164,-0.00043541924037729455
1165,0.0011079108040847273
1166,-0.004705988430893657
1167,-0.018363156228811173
1168,0.035446760205622374
1169,0.0102520277242051
1170,0.01596925944481894
1171,0.030851027517226095
1172,0.027703732400030778
1173,-0.03085177886160658
1174,0.01723054970210961
1175,0.14033876627519615
1176,-0.02488039635956039
1177,0.0013825879505692793
1178,0.00041359643721784896
1179,-0.10032183779789382
1180,-0.08097513434421427
1181,-0.012748856523630938
1182,-0.005291154916192249
1183,0.02241696262935309
1184,-0.15377174829026938
1185,-0.0002778011220761108
1186,0.00020613310296100458
1187,-0.0011873892997287974
1188,0.03743911574397826
1189,-0.002458477796577565
1190,-0.08078269523238812
1191,0.034896417632995974
1192,-0.0074677892906747
1193,-0.014012640297615663
1194,-6.30778425953124e-05
1195,0.05720253990057705
1196,0.10247612277870942
1197,-0.0010907763128826706
1198,0.004226867585177598
1199,0.004726744735745275
1200,0.006112182411015987
1201,0.020816282875863484
1202,-0.1282663602742043
1203,0.011724230306256158
1204,0.13634802223994208
1205,-0.09073286521632841
1206,-0.0004566932993141579
1207,0.0022329127608952393
1208,-0.015515663490503716
1209,-0.00213660880152194
1210,0.0019962812300162555
1211,-0.012635578263353596
1212,-0.00013230854473250572
1213,-0.0074811141538894755
1214,0.00996420326689383
1215,-0.014498731913235646
1216,-0.00036438989003029313
1217,0.00029285461727375126
1218,0.01313216614968351
1219,-0.000721595569813727
1220,-9.679037912405225e-05
1221,0.01765019510525021
1222,-0.029219292044824537
1223,0.03356828550184592
1224,-0.05686252119591531
1225,0.0014352065914583518
1226,-0.010178905170021273
1227,0.05154690219495232
1228,-0.13453639667990142
1229,-0.0198959593533734
1230,0.005809549356199567
1231,0.017196773665219024
1232,0.02160079543587317
1233,0.0006136449809939161
1234,-0.005033450723767757
1235,-0.004079101305237005
1236,-0.0010026887894907998
1237,-0.01781473903202305
1238,-0.00029110972592796786
1239,-0.07956801874291848
1240,-0.001857278074697244
1241,0.013973572989995279
1242,-0.0023660003250172666
1243,-0.002022295972629377
1244,0.06685215449417699
1245,-0.001027765664905548
1246,-0.0026823820750415256
1247,-0.02784114830238369
1248,0.02707704733281654
1249,-0.002515751339608026
1250,-0.04643234262740388
1251,0.0038528084545637023
1252,-0.051634717343310106
1253,0.030814118523671812
1254,0.00919517255306917
1255,0.010248748584472023
1256,0.005558032253764586
1257,-0.001363606644376894
1258,0.015139081029580299
1259,0.01576467492514716
1260,0.0025599345287802507
1261,-0.027213810889381268
1262,0.022925618388346038
1263,-0.1522707216363281
1264,-0.06791867249397768
1265,-0.0030702839484363143
1266,-0.03963999176091649
1267,-0.002299574110134601
1268,0.07045122291766429
1269,-0.05045775367140066
1270,0.02711218110688174
1271,0.06806250572305293
1272,-0.0020976250158118086
1273,0.008331208668128939
1274,-0.008831162774707068
1275,-0.03745755565762333
1276,-0.008119109309466382
1277,0.03044962824830457
1278,0.06440944487663709
1279,-0.05910580097351022
1280,-0.006351086842425162
1281,-0.0011626445539692821
1282,0.054055394245989034
1283,-0.11344143618056646
1284,-0.14006462740660916
1285,-0.024472994091825406
1286,0.024804399188858857
1287,0.04603677919108468
1288,-0.029090105079713668
1289,0.004026320342761343
1290,-0.00047824634294289466
1291,0.0006964314392000911
1292,-0.10891743154397615
1293,-0.0877507795368882
1294,-0.030477582506186977
1295,0.025810252435960548
1296,-0.0016560451551079103
1297,0.03463783678283558
1298,0.0059687904392139906
1299,0.06133638933441091
1300,-0.009002192794432864
1301,0.06456182415345073
1302,-0.02704718236263398
1303,0.06361342739036756
1304,0.014171587065204883
1305,-0.002045408196982971
1306,-0.02644059455000097
1307,0.002943442527528478
1308,-0.00017893765802420953
1309,0.0035244616612785675
1310,-0.007199584065756453
1311,0.00391272935861346
1312,0.005026016828837772
1313,-0.026121761603615092
1314,0.03576222969227203
1315,-0.00400717683179996
1316,0.005561116021853401
1317,-0.030083249529450993
1318,0.06779418280761935
1319,0.0004011434835645894
1320,-0.06657369282026629
1321,0.023591122755227064
1322,0.00020217512284339233
1323,-0.04244683345883302
1324,-0.0759853694987011
1325,0.0014274871493858996
1326,0.01458478474695904
1327,-0.1171313487399121
1328,-0.025410966962643118
1329,-0.02733351477283996
1330,0.002218619966509449
1331,-0.015789536868351956
1332,-0.003289285429672127
1333,0.002831098800610665
1334,0.0273451851077304
1335,-0.007211378055477332
1336,0.02611782899875078
1337,-0.00982729555318694
1338,-0.0007455514583086153
1339,0.13599675687074067
1340,0.0007487301267350087
1341,-0.0036043183830345793
1342,0.0024288572350992946
1343,-0.003766544205013637
1344,-0.019181270159094516
1345,0.003607919036367312
1346,-0.003239587109932197
1347,0.003673880106734066
1348,0.00036531202804971827
1349,-0.015335095493092787
1350,0.0014841128440362399
1351,0.0015478419561949486
1352,-0.005523294233175309
1353,0.001132762382459055
1354,-0.026578556807883753
1355,-0.0009378308811494005
1356,-0.10922731158339194
1357,-0.04143684356287067
1358,0.0009305926524519387
1359,-0.012498197144227891
1360,-0.00787954972221815
1361,0.06226285341631212
1362,-0.042895276411049864
1363,0.0009423699842391101
1364,-0.015591146703449533
1365,-0.005383248372064677
1366,-0.022047044920608782
1367,0.02892093583914384
1368,-0.005741766214745135
1369,-0.02721876055169455
1370,0.09760703890496816
1371,0.023073320535868865
1372,-0.08643077846013603
1373,0.010754147844875562
1374,-0.011007107813843845
1375,-0.11098175814162518
1376,0.0025945680221189068
1377,-0.002318378518633255
1378,-0.06875220814825503
1379,0.0007363225698862061
1380,-0.005044596771595503
1381,0.05937609494215403
1382,0.004801894150866803
1383,-0.05114790881583872
1384,-0.027870807557083377
1385,0.005051548457658155
1386,-0.1563075748800876
1387,-0.011105736386748227
1388,0.014398329096334402
1389,0.04667697517340453
1390,0.000520553649436752
1391,-0.11302550351505396
1392,-0.007123741190016417
1393,0.02682939967190665
1394,-0.016449499755907305
1395,-0.006240286391933841
1396,-0.016505993677818843
1397,0.011154049125847427
1398,0.03895954214405982
1399,-0.01950173384208105
1400,0.03875106572137725
1401,-0.15754539238330564
1402,-0.015678972420996626
1403,-0.020411155812353816
1404,0.00888748440710376
1405,-0.01979894518406075
1406,-0.0009935222949154186
1407,0.026751490538951813
1408,0.001881992649995237
1409,0.031232463117787514
1410,0.00011273893323304824
1411,0.06406285798415019
1412,0.014235596175703857
1413,0.0003508692430336192
1414,-0.06651949273258899
1415,0.023983371976114762
1416,-0.001847876722088791
1417,0.0025779491060509392
1418,-0.0049233456927953965
1419,0.0010807724579277153
1420,0.005638435382700434
1421,-0.0693797863318806
1422,-0.02354191421250779
1423,0.0970610852289319
1424,0.0049858985168580216
1425,0.011313578321375408
1426,-0.05770923282341552
1427,-0.002510763421037583
1428,-0.023875665253731516
1429,0.010744672955610008
1430,0.007904610813426763
1431,0.006088674150102969
1432,0.01588303885807996
1433,-0.06479148076286713
1434,-0.08332686960565018
1435,-0.023701621132188867
1436,0.00014726094186379493
1437,-0.002594205757300939
1438,-0.01242791752958182
1439,0.04196848109434142
1440,-0.0006631356498298761
1441,-0.005234714268986211
1442,-0.008664226487936456
1443,-0.007131725675636817
1444,0.0019793157927705494
1445,-0.004201005612868662
1446,0.14026918538328215
1447,0.07413980770372064
1448,-0.12600460411869605
1449,-0.06932176871568017
1450,0.09071152875407192
1451,-0.0010647333583877472
1452,-0.0324000396450089
1453,-0.001122947591596701
1454,0.06316675564195928
1455,0.10224222006782548
1456,0.0012567091445500182
1457,0.006817246676307889
1458,-0.0015921462374799426
1459,4.126932826599858e-05
1460,-0.07091969427727446
1461,-0.018534971541326186
1462,-0.08806687714223665
1463,-0.0037820020516288145
1464,0.008037641606033083
1465,-0.005529089325816019
1466,-0.02589948477120336
1467,0.015459797259603844
1468,0.05694010847794724
1469,-0.12599300024819265
1470,0.008448369501544173
1471,-0.022556355682404158
1472,1.366402643059866e-05
1473,0.03911777084437956
1474,-0.05914510770191534
1475,0.01619308195926806
1476,0.005536170929943085
1477,0.055999640994500284
1478,-0.0035410043026503336
1479,0.03420154492939106
1480,0.001017770305707374
1481,-0.033997292453253475
1482,-0.0010589838355114086
1483,-0.14251355839506505
1484,0.004195228584818479
1485,0.006568685622006872
1486,0.14471939158370323
1487,-0.0530172589509731
1488,0.02233690903185363
1489,0.013483322972477275
1490,7.697064514646705e-05
1491,-0.0031893357728617062
1492,0.011569580281719376
1493,-0.11988178555151986
1494,0.005445737506476533
1495,0.0020054515913761617
1496,0.007720116306582499
1497,-0.005050903693393069
1498,0.005029389662293982
1499,0.016441883070881905
1500,-0.0014975538960410684
1501,-0.009590050049446172
1502,-0.0010973687709680596
1503,-0.15869978013403702
1504,0.04873883898777132
1505,0.0025648646503616673
1506,0.08038108194967979
1507,-0.013978017549355215
1508,0.1421862184003954
1509,0.003912229100491293
1510,-0.009409106515880566
1511,0.0009696284882466159
1512,-0.02650833748732127
1513,0.003507044647104499
1514,0.04722259725264437
1515,0.02817415813239548
1516,0.005431952982776607
1517,0.12079265635235142
1518,-0.0007050361483021038
1519,-9.239785732234711e-05
1520,0.0093037220123262
1521,-7.460293745913681e-05
1522,-0.05018051360330739
1523,-0.010014904559663942
1524,0.0721917358249792
1525,0.001853725499952186
1526,0.0001386220151430392
1527,-0.0008924215295900084
1528,-0.014430865615568425
1529,0.014036086804663053
1530,0.07142200366038857
1531,0.006689315398822066
1532,0.024464967940573946
1533,0.017819501318489844
1534,-0.0077867555652244725
1535,-0.046127030861533254
1536,-0.08557140424933302
1537,-0.01331688170236712
1538,0.004740762800048899
1539,-0.0008868494600089588
1540,0.00041010328090713847
1541,0.0013163098884695769
1542,0.003225535188622916
1543,-0.00029674214481675875
1544,-0.10934262318955973
1545,-0.08397175846968355
1546,-0.019045945940110925
1547,-0.03893120476375021
1548,-0.0021082019404073246
1549,-0.0037278287268709682
1550,-0.023736295462956743
1551,0.018867719651128316
1552,0.005309158513709683
1553,-0.00972512024282623
1554,0.027434337852719207
1555,-0.02740096341688868
1556,-0.0011564425999542167
1557,-0.03106224547137478
1558,0.006304802419795114
1559,0.07353691051442142
1560,-0.021732705091272453
1561,-0.028060165551647653
1562,0.0010366475355410522
1563,-0.017851466726942065
1564,-0.0014640299505939607
1565,0.028159906831399295
1566,0.07580917152211071
1567,0.010075772514794747
1568,-0.002536869694105789
1569,0.0008327854583458814
1570,-0.10297559062964365
1571,0.007251900308722091
1572,-0.04992962401057786
1573,-0.002021139725444171
1574,0.0024224213682220407
1575,0.05219406543314195
1576,-0.0011600790965082056
1577,0.0056567260247351705
1578,-0.0003953705823067222
1579,-0.002860537364451337
1580,-0.10506389704187725
1581,0.0027326497033869574
1582,0.005139198922118285
1583,0.005935571318549951
1584,0.0039426938070082325
1585,0.0016423803481418332
1586,-0.06568892977501581
1587,-0.02662280022321175
1588,-0.005574504060673073
1589,0.015556970205186102
1590,0.002800028845486881
1591,0.0010242868098954095
1592,0.0075152677108721744
1593,0.008263046553916513
1594,0.005692082341090104
1595,-0.07074574732235209
1596,0.19932965425268354
1597,0.0010996692980994975
1598,0.053370732000672855
1599,-0.00039719310929715163
1600,-0.06954182269085003
1601,-0.00039303518589365536
1602,0.015390766221505378
1603,0.0038348862585972305
1604,0.00595295787575151
1605,-0.07164203484150347
1606,0.036343319413480527
1607,-0.018850440770421778
1608,0.03644055619553102
1609,0.02764639780437404
1610,0.03702176292723645
1611,0.0009971059561218862
1612,0.02252796877660509
1613,-0.13829404289320327
1614,-0.0029756911269166694
1615,-0.0014132531742235735
1616,0.03053455708872573
1617,0.0004085811199606385
1618,0.015222831726450914
1619,0.008614318435021272
1620,0.01373945253325212
1621,0.01024771505592801
1622,-0.04322153777364688
1623,-0.004849654233026051
1624,-0.004034214648156242
1625,0.010110813983134676
1626,0.0025857359410801826
1627,0.04063390070273265
1628,-0.016140201424586664
1629,-0.04149708688500899
1630,0.07072392772688176
1631,0.01612284227380692
1632,-0.03439456006639932
1633,-0.024394750601840594
1634,-0.0028506289525302444
1635,0.0008710652628205734
1636,-0.004066970125668018
1637,-0.01714839992459218
1638,0.0006011808037482678
1639,0.007426741019527442
1640,0.1498525004028584
1641,-0.02550857622639773
1642,0.02408930261065947
1643,-0.024948165641919554
1644,0.006035369314362333
1645,-0.019558788228458312
1646,-0.003355197459342518
1647,0.0005154439175821538
1648,0.01811606478182963
1649,0.008579258397348664
1650,0.08159649027881119
1651,0.010280557306879644
1652,-0.008916905844590687
1653,0.00977902385270119
1654,0.009093814781677782
1655,-0.009078421002215013
1656,0.007366615440805336
1657,0.005878050679449552
1658,0.0014208457805420362
1659,0.007928858857713134
1660,-0.0005216141086692894
1661,0.04902066395571876
1662,0.005480136258972121
1663,-0.0014582736383492625
1664,-0.04368667813313349
1665,0.09013780651867993
1666,0.003575639260164126
1667,-0.018626580201418615
1668,-0.025384151008408986
1669,-0.01835507004700464
1670,0.0028723551928578777
1671,0.03684258861837447
1672,-0.031939627833316574
1673,-0.0020265558052560174
1674,0.0014742410468591282
1675,0.048299906558327575
1676,-0.013230314116993
1677,0.000963442223257094
1678,0.05521838164314158
1679,-0.09038470215581804
1680,-0.048311621752077136
1681,-0.12278663829418397
1682,-0.04368245975191776
1683,-0.00016987737393868026
1684,0.0002288731065694857
1685,-0.007929826456328315
1686,0.05006163126767985
1687,-0.05982466192782389
1688,0.0005213205696819794
1689,-0.08173137664065325
1690,-0.0602595514312715
1691,-0.05169195949671136
1692,0.006472603278433138
1693,0.051949517895311034
1694,-0.031077356719574397
1695,-0.007395626084556614
1696,0.10170544723559821
1697,0.003341281976992407
1698,0.042310782289205054
1699,-0.002649671065913512
1700,-0.011413528231515042
1701,0.0009586145416761213
1702,0.08818930988801936
1703,-0.02814216435890305
1704,0.015313381916516537
1705,-0.11045538605709306
1706,-0.012682277893306433
1707,-0.0017384204964624834
1708,-0.040779779746528064
1709,0.08162261813410167
1710,0.006688080274765363
1711,0.0052680248894088
1712,-0.002444932360957484
1713,0.0027394877358181036
1714,-0.06408787401230691
1715,-0.02160392632962525
1716,-0.0032749896359665024
1717,-0.08714917354228523
1718,-0.013786271608218654
1719,-0.005532697516453369
1720,0.018110834609901823
1721,0.0032747326311657952
1722,-0.0167245700830611
1723,0.005066811921531667
1724,0.00243202770306314
1725,-0.0002089695767600128
1726,-0.007158108883345454
1727,0.12357618635391263
1728,-0.017829660745716295
1729,0.0009642635875752089
1730,0.012991759059359854
1731,0.057607382145844245
1732,-0.037075466100870036
1733,0.005303793992219194
1734,-0.05080743276675216
1735,1.0876246088544464e-05
1736,-0.006437527964956398
1737,-0.000898357037456061
1738,-0.0088583400045869
1739,0.002427842566919938
1740,-0.012595044387633692
1741,0.06555751697279967
1742,0.015621193497733351
1743,0.015366377948045285
1744,-0.013136063974929368
1745,-0.18525645375384067
1746,-0.00304139145190772
1747,0.003596746507706132
1748,-7.030961233711361e-05
1749,-0.15165049676476033
1750,0.0008821503033347925
1751,0.07730864082825101
1752,-0.03427117672512346
1753,-0.006352082389695474
1754,-0.04330068462526101
1755,0.012979320215602804
1756,0.0006442750429348676
1757,-0.006653434619577226
1758,0.009893405223458893
1759,-0.007895634318995553
1760,0.002054616862502356
1761,-0.010020999118480107
1762,0.029299652089897786
1763,-0.0007531606216903077
1764,-0.06124961887985618
1765,-0.031217349119559108
1766,0.0005870218016848153
1767,-0.0010155364348692197
1768,-0.016190889415490878
1769,0.03220484269648018
1770,0.046300475294262906
1771,-0.001190786493526779
1772,0.005346320391866324
1773,0.004902765361918742
1774,0.0022317034088190518
1775,0.034366153738129124
1776,-0.012208908417424736
1777,0.041021729302318184
1778,-0.025917447949436723
1779,-0.006085416646312367
1780,0.0004387346784183258
1781,0.012118157696891287
1782,0.011141945207043672
1783,-0.017967042718156623
1784,0.0101029247643777
1785,-0.01952988737616247
1786,-0.004832798063599956
1787,0.03492634743194636
1788,-0.0012432582650616433
1789,0.07168655823735162
1790,0.006059456259423079
1791,-0.15738486431046636
1792,-0.05858094609280395
1793,0.022997542495537458
1794,-0.04968462782180523
1795,-0.034129476434487126
1796,-0.009522462847463647
1797,0.008047880093040041
1798,-0.0033178237422433646
1799,-0.005216567171366485
1800,-0.003799840844095536
1801,-0.041280713223588617
1802,0.007740496840870471
1803,0.05656170591581984
1804,0.008921399145503665
1805,-0.028885391818775853
1806,0.0333386170676185
1807,0.006420762785383124
1808,0.0028366764689969426
1809,0.005432044962949211
1810,0.01645867087238502
1811,0.0019709169670407193
1812,0.07839503554355867
1813,0.0024417296294222154
1814,0.013737986835367375
1815,-0.04551583034067771
1816,0.009491855275059871
1817,-0.042681812448330456
1818,-0.004850131871813919
1819,-0.010562110989854923
1820,-0.033436946615078275
1821,-0.01627799481118988
1822,0.00045717408349216655
1823,-0.007502455490087647
1824,0.0040579439674950256
1825,0.023749450679333615
1826,-0.026368418211165142
1827,0.047191387693361626
1828,0.004999595932645571
1829,-0.15287018568090002
1830,0.015466012207114499
1831,0.029264606103203097
1832,-0.018428246127859402
1833,-0.048288082843323706
1834,0.0214957718502819
1835,0.00667042770131042
1836,0.1035879623162391
1837,0.06073453324930413
1838,-0.05868964410745077
1839,-0.0007494101672383773
1840,-0.0004373599240038173
1841,0.005269436329540924
1842,-0.01604547874843617
1843,-0.0056357737377244355
1844,-0.037554586286190954
1845,-0.051663732239425664
1846,-0.008845332221083675
1847,0.012112585265819554
1848,-0.05839544175011269
1849,0.02108009116905831
1850,-0.0011244111935474687
1851,0.0006782854097318579
1852,-0.0002948351088396108
1853,0.007913321806887082
1854,-0.021985281560825153
1855,0.022319791651592404
1856,0.05995009770354675
1857,0.03484250414212958
1858,-0.010963094623685965
1859,0.10535844275532018
1860,0.0053322656923212395
1861,-0.010746851234023212
1862,0.07383624660119723
1863,-0.010779984321299866
1864,-0.023407712551423404
1865,-6.330051684304032e-05
1866,-0.007479468777136749
1867,0.009761375084231376
1868,-0.027722986484815686
1869,0.013816244368023315
1870,0.0015153657888301517
1871,-0.06487315700824245
1872,0.0006925768727366532
1873,-0.029295030889810465
1874,0.002460034601411826
1875,0.018676914168693916
1876,-0.003832905260911779
1877,0.1071135216728279
1878,-0.004996313498678324
1879,-0.030000033983965547
1880,0.00605308309846537
1881,0.017595576260667926
1882,0.005489624351531728
1883,-0.0057849291395739525
1884,0.21004279916434895
1885,-0.001865566291322553
1886,0.009553181400173884
1887,-0.013418824736307457
1888,-0.03310080143600043
1889,-0.027047195570175618
1890,0.028292143858151944
1891,-0.011652701156125038
1892,-0.07384969311469987
1893,0.018429068310310468
1894,-0.0007960129296334879
1895,-0.08824872970343724
1896,-0.0030640922870310465
1897,0.012124515310939263
1898,0.02513804499630326
1899,-0.0027132556076453034
1900,0.08286610238783745
1901,-0.010312347361811768
1902,0.004705099220768406
1903,-0.04471459777831111
1904,-0.012213186252685368
1905,-7.635030132023562e-06
1906,-0.008290720969088351
1907,-0.043844650772462225
1908,0.01744891969477687
1909,-0.00229165373377665
1910,0.0023329425943666377
1911,-0.0005229759323696308
1912,0.0025629101440180196
1913,0.019958294577956844
1914,0.010062953354505652
1915,-0.11194074478401941
1916,-0.00155859739817415
1917,0.025399901006128635
1918,0.07235659326407426
1919,0.002410817656728021
1920,-0.0009628489058070249
1921,0.03878161914870491
1922,0.004043099895463998
1923,-0.0007906692417290039
1924,0.004056647939821933
1925,0.09387249778743156
1926,0.0004951657479863496
1927,0.03654345164873165
1928,0.0022211042179038905
1929,0.08148482552252467
1930,0.0026553014084769525
1931,-0.00391446677908609
1932,0.020563054523970427
1933,-0.007130207689752197
1934,0.0020666655280730676
1935,-0.029510617354114376
1936,0.03443660443247627
1937,0.0009880510892910513
1938,0.004125613360744628
1939,0.02190486130230617
1940,-0.004096863493571242
1941,0.030110098210048043
1942,0.005464554985725475
1943,0.14727534303722148
1944,0.012963336584738427
1945,-0.04012128574266548
1946,-0.003406006223146037
1947,0.040560445525478
1948,-0.009074318628765425
1949,0.00783666969733315
1950,-0.0034681214085342145
1951,-0.07939807331335007
1952,-0.0030458722853135734
1953,0.0015779931997487678
1954,-0.008939548746027133
1955,-0.006682049644537634
1956,-0.0007900499321858245
1957,-0.00045281300754577015
1958,-0.00042176676375243094
1959,0.03586236545686693
1960,0.0011509427463587563
1961,-0.023171778590491125
1962,-0.010225310321349145
1963,-0.07049090863785774
1964,-0.06273419531667918
1965,0.04033057998810193
1966,-0.03246420041191135
1967,0.01441976844794078
1968,-0.0162347221633118
1969,0.017314283908351272
1970,0.030494601566595385
1971,0.01108852059375969
1972,0.024364019755745214
1973,-0.02200452880903902
1974,-0.021047920085001445
1975,0.06503632898064485
1976,0.007259266591972357
1977,0.004129088026745414
1978,0.06697223918394056
1979,-0.04867864341269583
1980,0.00030691278301001577
1981,0.03125214517774035
1982,0.0037917806445512004
1983,0.010759326046585922
1984,0.06092654176334148
1985,0.021177754588548557
1986,-0.018889238536890025
1987,0.02744118959032898
1988,0.032858412483825206
1989,-0.006218630444366889
1990,-0.0029130889715107333
1991,-0.034053828600448775
1992,0.005613954523017548
1993,0.03062078210537598
1994,-0.043647416443584115
1995,0.015807269407719014
1996,-0.08502099797520232
1997,-0.00013531836520851704
1998,0.01063650389460795
1999,-0.008076776379417644
2000,0.012175517975137136
2001,-0.05507553937448331
2002,-0.0007974687348730122
2003,0.05943288995330271
2004,0.0008415921347471034
2005,-0.04375074026254547
2006,-0.04864084653003424
2007,0.012474238770257206
2008,-0.018439737166170575
2009,0.0007097071871822473
2010,0.009990341312766849
2011,0.03018483376631506
2012,-0.025443016708437686
2013,0.037401101142049004
2014,0.08969897874290224
2015,0.012091985697405192
2016,-0.004938972824999176
2017,5.850205044571599e-05
2018,-0.019247940501398584
2019,-0.010313113525135142
2020,0.005088103165938206
2021,-0.13079850309799784
2022,0.004378376567488281
2023,-0.009143437108099286
2024,-4.161948956599896e-05
2025,-0.0006181175304913008
2026,0.014494779020796145
2027,-0.008165710838344739
2028,-0.082470973256617
2029,-0.03481674639062606
2030,-0.0213512670290317
2031,0.008828026097837328
2032,0.003622368036706681
2033,0.003452498053379459
2034,-0.1492341372602517
2035,-0.0009498034682603763
2036,-0.002060211552419192
2037,0.13692629154887748
2038,0.021297178603282983
2039,-0.005259000403597397
2040,-0.09063065214477599
2041,-0.07502042547307285
2042,-0.0013817101661647354
2043,0.03771369488415934
2044,0.05373535119840866
2045,-0.07614570163868029
2046,-0.020238862570854076
2047,-0.024192919398338928
2048,-0.023331231387518643
2049,0.005052084526014705
2050,0.002545205652759239
2051,-0.03019950658760141
2052,0.013642065902818683
2053,0.10274345717879609
2054,0.024552393332537833
2055,-0.016290068929003518
2056,-0.034909063313945464
2057,0.1340989311568499
2058,-0.015937044218524012
2059,-0.012411853392833789
2060,0.02315754951110521
2061,-0.09164201701457607
2062,0.010331741890925422
2063,-0.01664393813640288
2064,-0.00087764647171821
2065,-0.0002662335409113385
2066,-0.03561815645754651
2067,-0.0801495515094432
2068,-0.015991054876752894
2069,-0.07287388332822867
2070,0.006874337917747849
2071,-0.029173543171811426
2072,0.00994415566809945
2073,-0.058546467133151536
2074,-0.0007641296071405632
2075,-0.009080646067022514
2076,-0.01927177702674799
2077,0.002360797291662637
2078,-0.030704006006695848
2079,0.012475672485144232
2080,0.01919599025692426
2081,-0.02551888552913454
2082,0.007483430830777557
2083,-0.0014158205612717263
2084,-0.001245676664783769
2085,0.002186521507341446
2086,0.003882728563968569
2087,0.007842358444570647
2088,-0.0025865633616322424
2089,-0.002115816829361932
2090,-0.0005038092739142003
2091,0.05586766562576827
2092,-0.01587312231319415
2093,-0.012848238368755207
2094,0.16111113795670756
2095,-0.0004689470278056951
2096,0.0033964801902694928
2097,-0.008606457685730122
2098,0.011184844983165423
2099,0.13182013916813035
2100,0.002126213479966632
2101,-0.04631301499829422
2102,-0.00039201950344883445
2103,-0.008200757127078127
2104,0.02321259659358574
2105,0.0013933749034194056
2106,-0.011592417490314717
2107,-0.02343398561080738
2108,-0.013064706680038897
2109,-0.005692025204358791
2110,-0.0439597647631047
2111,-0.0003695473457930217
2112,-0.07178491471232787
2113,0.06408360800279078
2114,-0.007774947378069335
2115,0.024668911767438104
2116,0.03933656458914467
2117,0.002565742088734934
2118,0.0018731622802789008
2119,-0.046527141336391485
2120,0.0007756471276756376
2121,0.10531950795547061
2122,0.08516417009499673
2123,0.0024853037389379736
2124,0.0016018578888421368
2125,-0.03088847389678129
2126,0.0002612735971573462
2127,0.08653290074626724
2128,0.025188394431767996
2129,-0.0005379796307061449
2130,0.03524413357306345
2131,0.006226671529719454
2132,-0.09262762953922675
2133,0.006396913614931515
2134,-0.06563533294443903
2135,0.023989082546461402
2136,-0.03153422103348468
2137,0.006845647174205095
2138,0.007331581620580991
2139,0.028945391821505764
2140,0.11245983354483725
2141,0.004485739500326334
2142,0.009428315252279917
2143,-0.0017083271151654893
2144,-0.0075976251909137165
2145,0.009872680300076632
2146,0.0013973980434039948
2147,-0.00221656442827529
2148,-0.006654558021181105
2149,-0.00694423221436724
2150,0.042340579080869134
2151,0.006716088071125587
2152,-0.0036563765629989684
2153,-0.003591692170405492
2154,-0.0005396636250802994
2155,0.09843070972247536
2156,-0.13390109610911616
2157,-0.0072077118657677295
2158,0.0033307561213945774
2159,-0.03737247561658606
2160,0.02840703806868146
2161,-0.002131105982204207
2162,-0.006653938178512651
2163,0.0014098343762033413
2164,-0.001384688652628701
2165,0.028933011819715825
2166,-0.015651991609546504
2167,-0.07859810366117985
2168,-0.032927869753945675
2169,-0.018915436368053002
2170,-0.03595546277036889
2171,-0.010140687832554904
2172,0.026132795532210738
2173,0.0003058913454197619
2174,-0.024232155603840413
2175,0.0004217350581478388
2176,0.001465243063134517
2177,0.0004700027594430796
2178,0.004378110183565991
2179,0.015292207310952953
2180,-9.442003945478663e-05
2181,-0.015488534299472634
2182,0.01183205244861541
2183,-0.053524103692878126
2184,-0.005999020803907368
2185,0.005131759764287743
2186,0.0036008119713926523
2187,0.12586535548577688
2188,-0.00036238184738007426
2189,0.005140078397477083
2190,-0.04156177773645319
2191,-0.07166258033624925
2192,-0.0750227323611946
2193,0.006703908552749466
2194,-0.002632327847882313
2195,0.09253062870589004
2196,-0.01863375651619664
2197,-0.008996821408090622
2198,0.00028898555142354003
2199,-0.008362863013218315
2200,-0.0012881251357205628
2201,0.0257858896048235
2202,0.10441177640548593
2203,0.0077913020057758155
2204,-0.0009961714918258232
2205,-0.03392698785556179
2206,0.0057760877800374835
2207,-0.046885324249526565
2208,-0.0016660926944957206
2209,0.03462531470284718
2210,-0.05005366162731038
2211,0.009398012080930539
2212,0.032468835660147785
2213,0.030060423217916257
2214,0.005908514535485352
2215,-0.00044625123417889426
2216,-0.0671601196499645
2217,0.11902252033996615
2218,0.008256375360961063
2219,-0.00234660092846329
2220,0.0015637381151199353
2221,0.03384350835821815
2222,0.06663809751591895
2223,-0.04782098545281634
2224,-0.0026907575223589645
2225,-0.0007354862490192968
2226,0.002301931091116712
2227,0.09727387308824273
2228,0.07343235238344245
2229,0.03219576208750061
2230,0.005041458504493231
2231,0.009876029682729248
2232,-0.0007686692013940333
2233,0.007508419576042774
2234,0.010569909407009342
2235,0.012104327035280544
2236,-0.0014421531123954734
2237,0.011748455295303563
2238,0.0642826044549205
2239,0.094385585035011
2240,0.18387915856416434
2241,0.07906176149564902
2242,0.004236388251809582
2243,0.021868499423736882
2244,0.010779980708726362
2245,-0.012308345186407398
2246,0.0012649737367091526
2247,-0.01562037699214352
2248,0.014108356146820721
2249,-0.008048369673524545
2250,0.0039046062951261914
2251,0.11584475045232712
2252,-0.03214610770148633
2253,-0.04691668609013487
2254,0.010037437984564494
2255,-0.10473868252450365
2256,-0.0002008221594873279
2257,0.018577036051474417
2258,0.0009387131761065572
2259,0.001159709010426187
2260,0.12105225221978896
2261,-0.053676016176549275
2262,-0.1124886085878368
2263,-0.003164642667064596
2264,0.004952959972597538
2265,0.04635138761005122
2266,-0.004756148536846653
2267,0.0033830857285344035
2268,-0.016825128085598984
2269,-0.02295309197568257
2270,0.004218007367169458
2271,0.016205910256735016
2272,-0.002084803301262132
2273,-0.040327550014297414
2274,0.02094321371334229
2275,0.011933460229538406
2276,-0.0005582533140071158
2277,0.0011682086138727408
2278,-0.013227203563229435
2279,0.04760535309545997
2280,-0.004603366620069919
2281,-0.03898229619262669
2282,0.20027713910156975
2283,-0.005782398210251023
2284,0.0037611562713425295
2285,0.018719957850424428
2286,-0.016808698042451255
2287,-0.008125414713334255
2288,0.10321536627028903
2289,-0.001267981952752272
2290,-0.0004122718719095824
2291,-0.00024499732393330417
2292,-0.03892718593272635
2293,0.014985585190588811
2294,-0.04821528431293819
2295,-0.050929666384856985
2296,-0.0037340844504318445
2297,0.0004148758872012794
2298,0.050098712613909864
2299,-0.00165972170032674
2300,-0.0014364233556743923
2301,-0.05946552214347855
2302,-0.02281877438245665
2303,0.0012113143156470608
2304,-0.019102465149656675
2305,-0.0001167264331697422
2306,0.004159277534627949
2307,0.001969291264524652
2308,-0.02082018358977645
2309,0.13460092203451043
2310,0.17616673655207024
2311,0.0012174701479942185
2312,0.20027415342879137
2313,0.05607880129340563
2314,-0.046649338375063194
2315,0.10923728352613093
2316,-0.003975844923043339
2317,-0.007395795895195983
2318,0.05250153864898305
2319,-0.0018906799537935593
2320,0.042083650002854744
2321,-0.0008928759917807333
2322,0.02781639370711944
2323,-0.0017553582012853782
2324,-0.006859190312592207
2325,-0.0022529558528483324
2326,-0.05243978051223574
2327,-0.009895821172893603
2328,0.001109393316412244
2329,-0.002008195409968888
2330,0.03679183676862917
2331,-0.010209545568766588
2332,-0.017563259881164008
2333,0.007708348417281507
2334,-0.00949030895892752
2335,-0.05029171918166883
2336,-0.22481774715319341
2337,0.01358383265261618
2338,0.0011616010819630138
2339,-0.0034331069590929804
2340,0.0029790362375118054
2341,0.02306274443689986
2342,0.00016019628191916925
2343,0.00851844197299617
2344,-0.004294965804840963
2345,-0.10817064755691042
2346,-0.17102404725448717
2347,-0.002682651311378444
2348,0.005895786319748355
2349,-0.04579178085029833
2350,0.004253078070797209
2351,0.2782907520168408
2352,0.10999766108747842
2353,0.003961007036784255
2354,-0.001441839929166074
2355,-0.0027834609695793883
2356,0.016781574486828394
2357,-0.002996525096925963
2358,0.008801691540644347
2359,-0.017038014863910985
2360,-0.0047081034610073754
2361,0.01318281996221615
2362,-0.0008768992227928644
2363,0.006288344721210446
2364,0.004847119146791066
2365,0.0011829450646233415
2366,0.05456400080855849
2367,0.009732096604414438
2368,-0.008815690778673693
2369,0.0006863745614153126
2370,0.051960404762238205
2371,-0.003635781863040872
2372,0.03433656009003635
2373,-0.0005791418996890912
2374,0.009130459429701414
2375,-0.01325519152917991
2376,0.006754190210247622
2377,-0.0008670817547560025
2378,0.006106642986395795
2379,0.03159762824155611
2380,0.005431618774438095
2381,0.0012262989785631194
2382,-0.0004084070256472203
2383,0.0077264991354842605
2384,-0.005890258614643791
2385,0.17011944226869796
2386,0.06572730616359537
2387,-0.056574815161030925
2388,0.0032927936116722203
2389,-0.0029728263197093727
2390,-0.0038137605274081274
2391,-0.016015262889028714
2392,-0.0134915836010252
2393,0.015419383369918549
2394,-0.0175720004484677
2395,0.023824164528410772
2396,-0.027438015016313187
2397,-0.028666018690793275
2398,0.005574393774179316
2399,0.037792113334556995
2400,0.027714713019468932
2401,-0.13832592388371276
2402,-0.01624758334004595
2403,0.05464258028136787
2404,-0.013344166177857162
2405,-0.006693971523224724
2406,-0.0015750622391678102
2407,-0.0017453310375893914
2408,-7.498479919661648e-05
2409,0.006826194038727974
2410,0.019782775721870042
2411,-0.0009330219210612453
2412,-0.0004727455178042076
2413,0.04192292657247648
2414,-0.011034951407768
2415,0.0013964720399843031
2416,-0.12326432038729164
2417,-0.032484510182372354
2418,0.01890914586274681
2419,-0.014849850174255311
2420,0.04045662042995662
2421,-0.018621902205228216
2422,-0.04728101523306444
2423,-0.04850333569108868
2424,-0.04259840381521371
2425,-0.0018015390241553234
2426,-0.00021156633465124012
2427,-0.018646636935170054
2428,-0.040299082986504225
2429,0.008358843462842144
2430,0.013883061242448777
2431,0.03835343214561679
2432,0.0015173308597846928
2433,0.03386504243866351
2434,0.007583362093752923
2435,0.008892570453435158
2436,0.002681019645992992
2437,-0.004100925045944951
2438,-0.016186736430993914
2439,-0.004363660758121071
2440,-0.006703210324900535
2441,0.002194738660750922
2442,-0.04221816980277068
2443,-0.0046020334238455205
2444,-0.005171469298347297
2445,0.012423386974467406
2446,0.016890711751360525
2447,7.175933006172176e-05
2448,-0.0495606200395968
2449,-0.007487296982683084
2450,-0.06135862894154116
2451,-0.03485290692489934
2452,0.022422029159900134
2453,0.040458200699647666
2454,-0.013201602591069804
2455,-6.355148919406556e-05
2456,0.0021548397680339927
2457,-0.0044164102961829245
2458,0.005687328477762809
2459,-0.08306295071132853
2460,-0.019719303374143154
2461,0.008630557011051703
2462,-0.08068923208198231
2463,0.03269013456023781
2464,8.287961517194561e-05
2465,0.02628762909447281
2466,-0.02791374104111085
2467,-0.06892403323483234
2468,-0.012587377074676314
2469,-0.1278312497147053
2470,0.007553216213237863
2471,-0.009654595580540834
2472,-0.005783934708337716
2473,-0.051035858923668395
2474,0.19742060090879715
2475,-0.004394958710124337
2476,-0.0046782891680221175
2477,-0.015013894222034665
2478,0.0026177411330568453
2479,0.0051842597912902045
2480,-0.013110024991718917
2481,0.023370867156298377
2482,0.010952258350948624
2483,0.013244344354806306
2484,0.0010565980628587158
2485,-0.08510993200436875
2486,-0.024188732035194217
2487,-0.01116912185038669
2488,0.07671693013106122
2489,-0.0025959468747454046
2490,0.00845095032539715
2491,-0.002712287627068114
2492,0.008992287557944106
2493,0.006680136052587443
2494,0.011282682764957882
2495,-0.0017483658846520064
2496,-0.044791748043163465
2497,-0.010805057306515894
2498,0.0025248990368263134
2499,0.004896715740751064
2500,0.00420763222046505
2501,0.1827344424781664
2502,0.012829971136002398
2503,0.027189161025012145
2504,0.006396554570654117
2505,-0.007986638677649502
2506,-0.00046395925246651894
2507,0.0049351028492611755
2508,-0.1096363466414274
2509,-0.00629987219670572
2510,-0.01589011237557703
2511,-0.02301173197084769
2512,-0.032400333818824574
2513,-0.031205493169411146
2514,0.017957839983179957
2515,-0.02622612783898274
2516,0.09397755469190405
2517,0.007731626883247358
2518,0.027890779315689986
2519,0.012894692838862302
2520,0.038603685670755394
2521,-0.000682166212097842
2522,0.025360082065231996
2523,-0.012563667985509263
2524,0.0004290238374946564
2525,0.024965598866085025
2526,-0.03726011231150431
2527,-0.0032819087748764564
2528,0.002045025046185986
2529,-0.0032412374985963566
2530,0.043456119045494804
2531,0.06081875446454225
2532,0.08444186002063978
2533,-0.020963878726102163
2534,0.014860909138285453
2535,0.0044716526999125
2536,0.02776539166490672
2537,-0.004740028404034056
2538,-0.004037425028958249
2539,-0.022832198628862817
2540,0.025330223300328886
2541,0.003685597929205006
2542,0.057380332102412564
2543,-0.00956811278325396
2544,0.0016771290517578312
2545,0.0003492406271523393
2546,0.022007307148850262
2547,0.06884538482572085
2548,-0.0018719982971291257
2549,-0.0011608957577398434
2550,-0.019297997238765754
2551,0.05923323132266634
2552,-0.010622836641714371
2553,0.13459381597639242
2554,-0.016118855043202866
2555,-0.07108103668530763
2556,0.0033439617670987117
2557,-0.004539839381769187
2558,0.010643019020327502
2559,0.007827843993390834
2560,-0.007768169275955315
2561,-0.00815321234419956
2562,0.018471904328216153
2563,0.001351744849913886
2564,0.00221352539634257
2565,0.05412721859074574
2566,-0.0011873966784511718
2567,0.00479461129321707
2568,0.018675186046160985
2569,-0.0007174149155027473
2570,0.0056834248212741315
2571,0.0028905279193840914
2572,-0.07925390021186358
2573,-0.05502386548310909
2574,-0.013307782004865563
2575,0.016251431193386293
2576,-0.02839618437628696
2577,-0.09310766012636826
2578,-0.009228774271267599
2579,0.008022611453054804
2580,-0.029731684807346198
2581,-0.001194169137762268
2582,0.007624925313083729
2583,0.07422637920977589
2584,-0.023407272825245358
2585,-0.012897786384700778
2586,-0.0020188299631437373
2587,-0.0007174852103978621
2588,0.0010170238075751295
2589,-0.04631301821353198
2590,0.004940043495278476
2591,-0.009600038597911132
2592,0.0006442659543195395
2593,-0.0481447089077669
2594,-0.003268461972986616
2595,0.00013157060142144443
2596,0.04097333777682488
2597,0.007848364854799714
2598,0.008058653548792651
2599,0.0021464463454417674
2600,-0.004526658542341815
2601,-0.06499709796380121
2602,-0.0038571920282019596
2603,0.04475476754742746
2604,-0.004005009164490875
2605,-0.006265635362678179
2606,-0.015056330306426762
2607,-0.008702675939448543
2608,-0.0026437916615292705
2609,-0.008933027973107743
2610,0.016786842743041715
2611,0.0016520468166851586
2612,0.03759678254166965
2613,0.011896399636827561
2614,0.09083050722205088
2615,-0.006426315957076977
2616,0.029526901220140036
2617,-0.06500805709972651
2618,-0.018787747677118816
2619,0.0010942198008372192
2620,0.009869787662632941
2621,0.002086757751160595
2622,-0.06338119556766132
2623,-0.01733864294845196
2624,0.0010715313873823433
2625,-0.025287332800667344
2626,-0.003493227902181864
2627,0.0013971999977126274
2628,-0.022917343396603913
2629,-0.0052711945582768665
2630,-0.011057473981187548
2631,0.023541007346877883
2632,0.0033283814648234263
2633,-0.03800298106428921
2634,4.177119614092935e-05
2635,-0.053159241207837694
2636,0.0329562585740931
2637,-0.039680936566369944
2638,0.02269210382430787
2639,0.02104897762672512
2640,0.0008386973007319181
2641,0.15048587538692285
2642,0.00012837711738884476
2643,0.0009668042204481958
2644,0.03846619847962719
2645,0.009034028436883312
2646,-0.012257912563470188
2647,-0.0073756648845134535
2648,-0.0005839496444725545
2649,-0.11196262971786457
2650,-0.0018320988746544653
2651,0.008607762655504508
2652,-0.004916646225310333
2653,-0.016882863044275474
2654,9.534238358195286e-05
2655,-0.00533619489273558
2656,0.03228522210407773
2657,0.0026383656134918196
2658,-0.0450488577233689
2659,-0.011474509189924894
2660,-0.008403820085253219
2661,-0.0009359753077829803
2662,-0.015531988259129402
2663,0.0002043357099646237
2664,0.04005635826883363
2665,0.002306982465234647
2666,0.025495249321694575
2667,-0.0033537440055559247
2668,-0.007828529584502949
2669,0.008876698134121461
2670,-4.5958376399815216e-05
2671,-0.007901614719848632
2672,0.06013625880733826
2673,-0.003004576906844037
2674,0.0001427951966780365
2675,0.009423405774527747
2676,0.09611234501509089
2677,0.03086401658824648
2678,-0.06222288725987114
2679,-0.015528738199453773
2680,0.08229030576466195
2681,-0.03169677845848519
2682,-0.00019275310328336533
2683,0.004392835697434578
2684,0.05775101509715454
2685,0.05053139337210318
2686,-0.03506564137763097
2687,-0.002548209718776996
2688,0.0015061740622941656
2689,-0.002257103557743663
2690,0.004865845083336459
2691,0.015452644134875784
2692,-0.005738361684867424
2693,0.0015947548938587924
2694,-0.023812038384034923
2695,0.0043113952157419425
2696,0.0007838144648546807
2697,-0.004390150372708308
2698,0.009623754302179481
2699,-0.003065678887089158
2700,-0.13030809940358787
2701,0.01768452994284959
2702,0.0020670181811023865
2703,-0.04867998213432956
2704,0.005844957226856712
2705,0.001524085842785902
2706,0.07326807931676249
2707,-0.0015201034163601387
2708,-0.04067324760239331
2709,0.025560998617303318
2710,3.951427817339124e-05
2711,0.04896279094117602
2712,-0.006213603762660656
2713,0.016507506695108323
2714,-0.05664662775873405
2715,-0.0007961326828024178
2716,0.0012623143850968397
2717,0.16053188684596587
2718,-0.05265461557115105
2719,0.006193722373841423
2720,0.004715436066966382
2721,-0.0004742802153518079
2722,-0.004791788094133183
2723,0.005044963806749691
2724,-0.021083170550918958
2725,0.001840309477249145
2726,-0.0007030823842173087
2727,-0.0386423225876043
2728,-0.06163474671281227
2729,-0.09554475953449738
2730,-0.004180681680106255
2731,0.0029710669961955983
2732,0.07437366507474602
2733,0.00040798907202982794
2734,-0.07539801700924668
2735,0.015059965987501324
2736,-0.017089726869177764
2737,-0.001885901846173777
2738,-0.0055980838579468535
2739,-0.03092186621891317
2740,0.008451677916746989
2741,-0.004527868445260698
2742,0.026343129617231356
2743,0.011683683230834954
2744,-0.0012349454727638152
2745,-0.10057558974143727
2746,-0.0007673167337528562
2747,0.0004363810802556914
2748,-0.011413806374354669
2749,0.0694199547486309
2750,0.0003479718425653048
2751,0.0001907196663352969
2752,-0.0029775404624253856
2753,0.05203374550209532
2754,0.01308319036285857
2755,0.018350581669448113
2756,-0.03943169456137301
2757,-0.04164813924317046
2758,-0.013685385188610167
2759,0.07455953276800423
2760,-0.20227709868559593
2761,-0.020129338249678105
2762,0.0045797825387931534
2763,-0.0021048722895317742
2764,-0.06966575201340051
2765,-0.015124036151764629
2766,0.034645827631822376
2767,-0.025515834106685037
2768,-0.014013502538241651
2769,0.06796590796744768
2770,-0.0016137524165962137
2771,0.0278577579457359
2772,-0.010568878219748438
2773,-0.007243286721816647
2774,0.023327944328836378
2775,-0.028022737500242006
2776,-0.011625633286723017
2777,0.002394133882546392
2778,0.1098242182405456
2779,-0.005582775621059102
2780,0.022993067838447057
2781,0.1274180340133765
2782,0.014297331860943814
2783,0.004657563045055491
2784,0.10377838507419088
2785,0.12178117002999934
2786,0.01326695189050145
2787,-0.006656107963154412
2788,-0.001203320759552496
2789,0.03597485459743337
2790,-0.006251840590593999
2791,0.001636843372521167
2792,0.05409511198522594
2793,-0.005954365469064433
2794,0.007758193132238518
2795,-0.005013999226391473
2796,-0.0005422357970236456
2797,-0.003237812045286568
2798,-0.01290834356916365
2799,-0.003473799990529745
2800,-0.025733651634208182
2801,0.0231579701995564
2802,0.006294150961153641
2803,0.07035859689596627
2804,0.012682136854705596
2805,0.007459511040864732
2806,0.027904792356036528
2807,0.007443623398927049
2808,0.0026362444287649825
2809,0.014744217604582945
2810,-0.006484220021636248
2811,0.004672282223612203
2812,-0.0019971261123898454
2813,0.043836261444167066
2814,-0.00011508006328404283
2815,-0.055718671451821584
2816,0.008981226479400674
2817,0.04003573840599514
2818,-0.05435209706834032
2819,-0.004113887783517376
2820,-0.06424957346810038
2821,-0.0006435114568329111
2822,0.04333348387253451
2823,-0.013079973421225386
2824,-0.03762822427831253
2825,-0.017013174325146048
2826,0.004510342970015473
2827,0.04710050295124547
2828,-0.0010396264295153604
2829,-0.029087277530534885
2830,-0.008438090823456203
2831,0.04700446032997304
2832,0.11095669922493487
2833,0.004842398889817465
2834,-0.021053962797536744
2835,-0.08774473078176004
2836,0.014087947029673056
2837,-0.007197459621499637
2838,0.0009598939692580836
2839,-0.04250732960416764
2840,-0.03888148679849529
2841,0.002419082953905975
2842,-0.005223975863553483
2843,0.00019390119269749144
2844,0.004818721177184609
2845,0.04086828893066607
2846,-0.004891438688282949
2847,-0.010242086348956705
2848,-0.017110420322405593
2849,-0.022083087170099266
2850,-0.005882853283830438
2851,0.030265502917086833
2852,0.002133517426931846
2853,0.013309974379546924
2854,-0.019264537351245867
2855,-0.00013542239804574386
2856,0.0050787982341620585
2857,0.051963397952015565
2858,0.01473815551480663
2859,-0.06573322953152319
2860,-0.04422874893203613
2861,0.04710563773737135
2862,-0.049601319257436
2863,-0.0026279607323242875
2864,-0.10012098348208728
2865,-0.033971799395571725
2866,0.011999647231207842
2867,0.001971818161336773
2868,-0.016177176548038245
2869,0.07986739218973915
2870,-0.08360335446314424
2871,2.0979797516820362e-05
2872,0.006019847245077082
2873,-0.0250407866341842
2874,-0.005874469446686633
2875,0.010732149925230411
2876,-0.10703564984349924
2877,0.015214911659603966
2878,-0.0168590851463846
2879,-0.011174104419428581
2880,-0.0024230190598457106
2881,-0.005337753554495584
2882,-0.012669237297729589
2883,-0.007607257054615842
2884,0.00021523480615188358
2885,-0.01875729635220778
2886,0.08479301561434593
2887,0.009676474642679995
2888,0.002246909903154858
2889,0.03866938934557467
2890,-0.009464931502005466
2891,0.0005603081017518415
2892,-0.02402408715414122
2893,0.025532747007899665
2894,-0.004423427142801509
2895,0.00014913563769528823
2896,0.0018925076035234902
2897,-0.05183973439846002
2898,-0.016424348650977593
2899,-0.047248998793567705
2900,-0.08662356009527604
2901,0.013798522551625138
2902,-0.006810172096225892
2903,-0.032392812793000936
2904,0.0025829699215847973
2905,-0.003656302803836499
2906,-0.110728466927236
2907,-0.00023660258125158355
2908,0.04591006898917541
2909,-0.03856555650608284
2910,0.00824923009882679
2911,-0.017695258097587124
2912,-0.012426748381066992
2913,-0.018676390708263293
2914,-0.12317410018508047
2915,-0.016159881741311236
2916,0.0018263015617171602
2917,-0.0010062505232949013
2918,-0.08009920093600022
2919,0.04538523532453277
2920,0.006510704106285208
2921,-0.024583974613996983
2922,0.05213929720487118
2923,-0.0022956740749408024
2924,-0.04427712415476195
2925,0.03692300356529773
2926,-0.004315397847749696
2927,0.05537851556734649
2928,-0.003982524412558745
2929,0.04785177136855946
2930,0.0005235823828581478
2931,0.00639196011782142
2932,-0.002523485655113656
2933,-0.0007918210347501507
2934,-0.025776689017937608
2935,0.018814154951554658
2936,-0.008584163411571925
2937,-0.0006088419687189352
2938,0.0021966084357119536
2939,0.009382431856048768
2940,-0.014459592943857645
2941,-0.028695288133973682
2942,-0.008946800196075615
2943,0.009693762377823482
2944,0.0015728711390567945
2945,0.0221374484271662
2946,0.014226215727115774
2947,-0.0008481669531879622
2948,-0.06769994036064668
2949,-0.003292561040532529
2950,0.0017718207750020214
2951,0.00604181386969942
2952,0.1456488428011333
2953,0.005185057462592765
2954,-0.06626057223872292
2955,0.08779879518258593
2956,0.0057361003663771665
2957,-0.013755512777114358
2958,0.08807131871615816
2959,-0.00029905710080822053
2960,-0.09450665126438242
2961,0.06942050225864349
2962,-0.010171126587197508
2963,0.028204186054079265
2964,0.05146383920931541
2965,-0.10531682213491805
2966,0.03227825846271329
2967,0.0025977378352145283
2968,-0.010023662011741844
2969,0.0022096432193118394
2970,-0.0004804586599860058
2971,-0.016421539612865865
2972,0.005094244838024518
2973,0.00014057529574296111
2974,0.09706399752571035
2975,0.032502166643201984
2976,-0.0062156999296057135
2977,-0.06543794512688175
2978,0.024256184090399962
2979,-0.0020968666063978054
2980,0.002745271728416098
2981,-0.0282910508030307
2982,-0.0024265277053650194
2983,0.0016819348237481528
2984,-0.002443161336550269
2985,0.013385774717477858
2986,-0.07467165762253716
2987,0.01798162143095887
2988,0.02129167130837486
2989,0.001841059380389149
2990,-0.006621131495433639
2991,0.006456447940911963
2992,-0.06054282275731627
2993,0.02563863148762645
2994,-0.02723598096255073
2995,-0.04268909935984729
2996,0.015840176778677967
2997,0.011880074043187359
2998,-0.03923843765363322
2999,-0.0006036834382262184
