,0
0,-0.03812054524354429
1,0.025037604644305586
2,-0.01888889443933619
3,0.0002238407999258856
4,-0.08777191499767903
5,-0.07823839085594791
6,0.007291346515695445
7,-0.017974071283687325
8,-0.1084212544714201
9,0.03842135980574754
10,-0.05077333366718024
11,0.004597406700835182
12,0.004148145901998692
13,0.008468558571955307
14,-0.04499473637931752
15,0.006712588512760035
16,0.0017766505101869477
17,8.15010421304539e-05
18,-0.0593760258990428
19,0.07525401495767625
20,-0.047008671029805105
21,0.022721700766617146
22,0.007995144982483224
23,0.03194046445304209
24,-0.006487313354071844
25,-0.020699176189413214
26,-0.05315318424111732
27,-0.004576514152023014
28,-0.03563261103135665
29,0.018384531991266422
30,0.008559209303617633
31,-0.0019437694441482396
32,0.16193392327659054
33,0.010842488406533223
34,0.007833647365559178
35,-0.05411718200451931
36,0.029811225912422353
37,0.0007532570368457367
38,0.018255688237072767
39,0.06559810835180735
40,0.018003967167439707
41,-0.0037856247388224915
42,0.010461969691699328
43,0.004545528843627917
44,-0.01804406674378347
45,0.004306364409266888
46,0.11539274523871405
47,-0.018366425384357603
48,-0.02687976576356023
49,-0.011748720613716011
50,0.04636725081599017
51,0.03757214507853327
52,0.019952974317773913
53,0.10906508864597841
54,0.007927677125961024
55,0.011599417190955747
56,0.0567642858207458
57,0.004844796170907538
58,0.0027132999488651923
59,0.057379656818561615
60,0.02018765051314368
61,-0.05435462492600863
62,-0.1622691887769803
63,0.023128347650249965
64,0.024162496946480316
65,-0.01607391705089027
66,0.006799197358400376
67,0.09099382791590117
68,-0.060658948146830906
69,-0.03547657340589939
70,0.005263543777944832
71,0.003285859064080769
72,0.041268939736282984
73,0.0007070969592505412
74,-0.0012508222092884767
75,0.003946025093208008
76,-0.02373024238032285
77,-0.026930538495231367
78,-0.0038486726001303183
79,-0.005115937073136513
80,0.03422256664116244
81,-0.0032279887976507655
82,0.003809964580163853
83,0.037999565250198236
84,0.008103022785238752
85,0.0093066660506467
86,-0.0044300997422987475
87,0.0034903913948752803
88,0.01786986322343806
89,0.0012343566489025617
90,0.03650252599424886
91,-0.028528910559220796
92,-0.061938077037048636
93,0.06018382165627693
94,0.07261587006690794
95,-0.0067858406621850486
96,-0.0304682278093354
97,0.05155292109952746
98,-0.04481656477247265
99,0.02831270352590978
100,-0.003920157923757547
101,0.05398942146378132
102,-0.008951621579426375
103,-0.006880338611638596
104,-0.0018021505508283445
105,-0.00437312899147325
106,-0.0038516195106482083
107,0.01926656136344097
108,-0.14118972483460338
109,0.05382208011778382
110,-0.0006994822278758097
111,-0.09045085675003267
112,-0.06621120986740323
113,0.0023639732090049237
114,0.0411103691192184
115,0.045304890589792375
116,0.0162005284269851
117,-0.06217879754235352
118,-0.014857915045540758
119,0.0006466466017218069
120,-0.009035474186009182
121,0.05380880256713246
122,-0.062149674086610374
123,0.03802310736132306
124,-0.01769894176433162
125,-0.004752307461350675
126,0.0076685072758072926
127,0.014661800575040894
128,-0.0002706948813516063
129,0.016293811142955986
130,-0.00599496934395643
131,-0.04063205848600853
132,0.0022143023252734614
133,-0.039738734282965114
134,-0.03760703913382783
135,-0.007674414529234685
136,0.08846995852097825
137,0.0049674523763804275
138,0.011269243434510414
139,-0.004212149448985406
140,0.01922190880419648
141,0.0067505887944246485
142,-0.006826768107100435
143,-0.03582677814797012
144,0.005813631959999899
145,0.06777478839409543
146,0.005403071873818114
147,0.012228586212436063
148,-0.013921821150395218
149,-0.09247297548805597
150,0.00941282985800155
151,0.07425000237587369
152,0.0010315999218269392
153,-0.03018758204181037
154,0.0677116216960204
155,-0.014855143803860353
156,-0.013307485304868846
157,0.026364600134631197
158,0.011183226080862738
159,0.0722276548287419
160,0.006837934274110863
161,-0.016821525768550873
162,0.0001409811210154101
163,0.0017739078401423298
164,-0.003729830095546645
165,-0.017066050920926775
166,0.007650461056962036
167,-0.018956490230267638
168,-0.015456316214227514
169,-0.006617737368263609
170,0.0028488658230944167
171,-0.016554994772018505
172,0.01619249943261147
173,0.000625816007387878
174,0.006226956338407286
175,-0.17396868405395394
176,0.004947723848742324
177,0.006148663373778654
178,0.018918787901208406
179,-0.0022948119323666803
180,0.07986786895012073
181,-0.014209114935839397
182,0.0170082981653131
183,0.020388311263707375
184,0.006901949706058073
185,-2.4575825141044878e-05
186,-0.00927999240141281
187,-0.0398262790360248
188,0.048040699490389346
189,0.00894596593796421
190,0.06482953385812178
191,-0.006916581014096401
192,0.015115522033923313
193,-0.03814787766383794
194,0.018194160585417115
195,-0.02382555793236553
196,-0.005343275615274254
197,-0.044868656073993776
198,0.0007939438171480756
199,-0.018615442787697795
200,0.05517256397212551
201,0.0301814019836752
202,0.001429916026780096
203,0.05926023130115922
204,-0.027811905377814104
205,-0.0059752518952459945
206,-0.04488665088279573
207,-0.08613635734394762
208,-0.00014498880872865368
209,0.0005962817368826934
210,0.001111657676654662
211,-0.0018683565633899047
212,5.747703074608858e-05
213,0.0019730930972755556
214,-0.003367842576712564
215,0.002008583174345037
216,0.012631944515446733
217,0.03747001800488666
218,-0.03927706240437471
219,-0.05081633031023727
220,0.0064532380248630335
221,0.023135443002368517
222,0.009254674192039819
223,-0.004641182074346727
224,-0.05715068234113654
225,0.009120084453472758
226,0.008225932380087854
227,-0.03860814279013149
228,0.0352995663217882
229,-0.048812743622571986
230,-0.039951630931385367
231,0.028624018670895913
232,0.001879320655293593
233,0.001445856383889358
234,0.0017248284671989925
235,0.012001814792568316
236,-0.0004732577715988867
237,-0.025475114333144845
238,0.05843659005705578
239,4.295741894071218e-05
240,0.023708549500326293
241,0.0025335272192214572
242,0.0373380413364885
243,-0.033792339289668606
244,-0.04529945841650994
245,0.005249537085846187
246,0.0002190057122543242
247,-0.08705805672234398
248,-0.009090791090211218
249,-0.003925030567294902
250,-0.01019367510563219
251,-0.02135381561741466
252,0.0005912548484648157
253,0.052733916122311285
254,-0.006351638815991066
255,0.006996754540766439
256,-0.005849096523957287
257,-0.006030399480228568
258,-0.00016694932163659562
259,0.014246313391348896
260,-0.0003538151545527954
261,0.026245805174220795
262,7.724836543886598e-05
263,0.012936674953050262
264,-0.0651942345693759
265,-0.010221436837734223
266,0.01092788058994935
267,-2.374249356074624e-05
268,-0.0019238591291620797
269,-0.08215817491352326
270,0.005997581790912609
271,-0.001812405322965299
272,-0.02430631784635607
273,0.008660051132874325
274,-0.02878116120850001
275,0.0010506752108820144
276,-0.05436553500025162
277,0.01331169235055299
278,-0.024657727865905265
279,-0.009041477575360916
280,0.0016001584542977162
281,-0.0491246844250174
282,-0.005420187019774313
283,-0.0009775537333878048
284,0.005729014955348164
285,-0.0003319689922253771
286,0.05669440489325865
287,-0.03704319892640081
288,-0.004609437335892275
289,0.018175719105826816
290,-0.09989123151322334
291,0.0003294207288661833
292,0.006958363416172139
293,-0.0037302704653431632
294,0.001592755073665656
295,0.006830962676690925
296,0.05350942087670161
297,-0.10700703611174553
298,0.0021340947461055723
299,0.06955247706253673
300,0.017179555317045337
301,-0.0044848991424499204
302,-0.0012150376755223882
303,0.017381694268107633
304,-0.010558372003588364
305,-0.047336285881365174
306,-0.0786996385974632
307,0.0020101183086976655
308,0.0023005869701623826
309,-0.020435879554978248
310,-0.013660458457458384
311,-0.1260434017430898
312,-0.0006497266171445716
313,-0.0276999752844456
314,-0.06559188539764679
315,-0.005965639498333764
316,0.0023992789113678856
317,0.0038545468212981557
318,-0.04704465948232065
319,-0.004677958020768402
320,-0.045478499433500505
321,-0.10550052119735069
322,0.0026388625922579585
323,0.0026285656669519293
324,-0.0012586797828543646
325,0.0862917749639682
326,-0.12100277810674054
327,-0.0015631851543344854
328,-0.0027232680103987717
329,0.17994819658352573
330,-0.01928005667828479
331,0.009606386703702284
332,0.011450966342718204
333,-0.032126827279537376
334,0.002124733656048235
335,0.03740940598078756
336,0.0029980476622080768
337,0.004811145955241918
338,0.007918055060177911
339,0.05855282129745723
340,-0.0042533753019471385
341,-0.02193065593137575
342,-0.026411399801839864
343,0.011335859951773547
344,0.007487241368872563
345,-0.03342430918798569
346,-0.03320083034137696
347,0.004517270518474792
348,0.022884878610272556
349,0.044498219793461205
350,0.012989717108478788
351,0.0038027055459587842
352,-0.008171076761564398
353,0.07245309624951787
354,0.012097905039913672
355,0.05631032252594733
356,0.026469346595447446
357,0.019892476814245486
358,0.07450116405252347
359,-0.001522013776304212
360,0.004652321020856234
361,-0.002291628070119983
362,-0.014120437275554015
363,0.002857347968913486
364,0.0005346152119603993
365,0.0011683156940756547
366,-0.0282348892556733
367,0.028960187888281926
368,-0.20472665263502698
369,-0.08552871645731717
370,0.020408509278633604
371,0.026618467889680354
372,-0.07294214701582799
373,-0.0003382589095426173
374,-0.005740199656498214
375,0.0027526825473686203
376,-0.0023694764118161104
377,0.004069800164402643
378,0.0011868967769900931
379,-0.0009931009460411315
380,0.011899639595796214
381,-0.0026072418251130956
382,0.006190095825921127
383,-0.013551548503787912
384,0.026386597033963118
385,0.0005650974237962345
386,0.014232546506014541
387,-0.005558008854264126
388,-0.06348232073248394
389,0.0699181873203
390,-0.012678236447465692
391,0.004544543989535991
392,-0.0008974136577495035
393,0.039362836292336625
394,-0.016560760384434367
395,-0.0018380878161141534
396,-1.7864420401632008e-05
397,0.03329569946409002
398,-0.0022175629859213387
399,-0.02871196943921414
400,0.008971661708016103
401,0.07045888353013083
402,-0.015221670560736547
403,0.04150468535325748
404,-0.007283345442521101
405,0.00026820096574687463
406,0.009389410784020417
407,0.1335465018730746
408,0.056934910818661116
409,-0.0011189550626822164
410,0.025235990863179604
411,0.047355196840504876
412,-0.004360766121404078
413,0.02774282004487539
414,0.02954807364924215
415,-0.06545330669102545
416,-0.003607824441144579
417,-0.021708500660453073
418,6.61584918347235e-05
419,0.005967693031027844
420,-0.007694146730723118
421,0.005701503669682031
422,-0.003973891011499811
423,-0.0031452216864036016
424,0.11753879339546036
425,0.027275965655637936
426,-0.01224939713105682
427,0.017255925695893914
428,-0.010825724372051015
429,-0.00036053161337312343
430,-0.00403830993095318
431,0.00015621104979790515
432,-0.000503864544248745
433,-0.05874801114797736
434,0.002675501059643953
435,0.05734236925239227
436,-0.043489463812809256
437,0.028562597321334995
438,0.04023419433475031
439,0.0011674897994831935
440,-0.00548375762951435
441,-0.015289144828211074
442,0.009022768793454424
443,0.02821226389788996
444,-0.0007939268664134814
445,0.003665429997844608
446,0.02779964834108541
447,-0.0029556015075782502
448,-0.0065812561816499145
449,0.028765761486328475
450,0.03862635236489553
451,-0.02005150587334161
452,0.0822116567815841
453,0.01153849305340926
454,-0.006282750250412766
455,0.0016840747024202201
456,-0.015503442495983134
457,0.18459608849446474
458,-0.006326270262600437
459,-0.04719937885452604
460,-0.0020468760165213338
461,0.0015262905018568343
462,0.014088750906102036
463,-0.09332213797869916
464,0.043948889274177574
465,0.004103540637187927
466,-0.04164350379793836
467,-0.08796167085075532
468,-0.10858381675255434
469,-0.1430109504415679
470,-0.018069717848598683
471,-0.003559927886860812
472,5.6136732809277275e-05
473,-0.010586356236038812
474,0.0046253428578178594
475,-0.01751052701421495
476,-0.05109391662294033
477,-0.001369230973767654
478,-0.0001562663529566693
479,0.004403172387553762
480,-0.10310087675847486
481,-0.0011173133810394734
482,-0.013784736299706704
483,0.05263075920210725
484,0.04521828695676385
485,0.015518329213065327
486,0.0025161198764703484
487,-0.0004730882571984468
488,0.07084958213076517
489,0.006576315643553026
490,-0.03770221549423264
491,0.15449975716016678
492,-0.029438201190514112
493,0.0003907498202114537
494,0.005802033065668336
495,-0.006145774829627288
496,-0.0035950747395114254
497,-0.011301928553092902
498,0.003817921647252797
499,0.029665123415772755
500,-0.06632878768333976
501,0.008922040402010565
502,-0.0016899227269764816
503,-0.0031539935905424603
504,-0.023135643660081525
505,0.005843657016158245
506,0.029237876610281818
507,0.0938570452498389
508,-0.028265992067395204
509,-0.0029526495078225265
510,0.0038346231347961106
511,0.031408671716974625
512,0.03191741911566201
513,-0.01646721943946078
514,0.03261751991675205
515,0.0088587708457698
516,0.011885211015613578
517,-0.019805568915706607
518,0.0006106836466768629
519,-0.0005529604827199679
520,0.10602735044175111
521,0.0012162060154173905
522,0.005500317141523541
523,0.0013316097689608322
524,-0.09665426567125841
525,-0.022258989571368265
526,-0.01751909367717171
527,0.040627261192578035
528,-0.0070177448341498475
529,-0.0021260750452769006
530,-0.06457780440203881
531,-0.0036167567926888495
532,-0.03771040627132006
533,0.009220678025722556
534,-0.0007758502838654941
535,0.00464473695147906
536,-0.021932435492080786
537,0.01389338703681517
538,0.10504285966603592
539,0.028733019120780915
540,0.07290059074757546
541,0.0004531226300426341
542,0.045806920028132164
543,0.024774760387536725
544,-0.004724238103753451
545,-0.01822365282546174
546,0.11404591704177684
547,0.036378731634103496
548,-0.01646578290968778
549,-0.01018973348697742
550,0.02773152804800994
551,0.018994737052583983
552,0.007209320678961912
553,-0.009183971994391258
554,0.0019439786065910307
555,0.0040341402122371015
556,0.10074368534193527
557,-0.061534823230584755
558,0.00022744223800438856
559,0.07184812869480814
560,0.01164948212067913
561,-0.00037719738004212214
562,0.009098448775878579
563,-0.00019701646140004108
564,-0.0074658033452059906
565,0.08856355624202866
566,0.008321264724148429
567,0.0005365961046842788
568,0.0001584215962869449
569,0.037022638333616326
570,0.02141654083894973
571,-0.0016342220017720843
572,-0.027662779195464823
573,0.0024581731826110523
574,0.025789215240818737
575,0.007665378823914661
576,0.0023175744763992007
577,-0.13966245566988295
578,-0.010876295185103454
579,-0.026424095372621224
580,0.007756752983643521
581,0.010103108629880049
582,0.003430717805740062
583,-0.00014322456663832901
584,-0.002764846967570602
585,0.014552068163518148
586,0.011650662347562261
587,-0.028134577753590368
588,0.0006293912219690912
589,-0.06240613991397506
590,-0.004837754241271958
591,-0.03844393911142218
592,0.013286722585029212
593,0.0003752103232598029
594,0.01613302696257232
595,0.009927930915822027
596,0.005683572352605839
597,-0.0038642861054937
598,0.038254710106433006
599,0.030289475611780293
600,-0.009708842205374636
601,0.15552497657228773
602,-0.0007833469229587486
603,-0.04175691273663794
604,-0.009706717793967467
605,-0.0021705025122773234
606,-0.0009283871824462856
607,-0.02210233708304556
608,0.0009027393383579088
609,0.00015011216638695612
610,-0.12360175419356631
611,-0.004380965913319273
612,0.009110190911125199
613,0.0029726867216918864
614,-0.008847081560730006
615,0.1270017351960893
616,-0.03475363256756933
617,0.00020131776843397388
618,0.0010867936315111198
619,0.04637095929976602
620,-0.000541069478055423
621,-0.07072115224967296
622,0.0024936161134003552
623,0.02726644800708987
624,0.0022126051691486823
625,0.00025758740503677423
626,0.013372671201958175
627,-0.007993095428380627
628,-0.005409654151669232
629,0.00044208577896722145
630,0.0012008555099841357
631,0.02690096008777875
632,0.01195996952272567
633,0.006187258520396005
634,-0.042447557133452045
635,-7.772981578021402e-05
636,-0.008186441235445166
637,-0.09777543265669877
638,-0.07712128163251397
639,-0.010803496392653314
640,0.0010822118335770841
641,0.029015826819676196
642,0.03289699888300162
643,-0.04246291089183513
644,0.0455288950668889
645,0.0157870604635829
646,0.012884645625910388
647,-0.056345278084734024
648,0.0023048197293279037
649,-0.03242700142047447
650,-0.0010730896676503184
651,-0.07345442040050189
652,-0.03393632682320573
653,-0.03937614412876478
654,-0.020736895874955648
655,-0.007886629391058013
656,0.009061638936005782
657,-0.0010622971708386154
658,0.018023349289152703
659,-0.0031752063123890225
660,-0.07417477011809805
661,-0.030636881107741955
662,-0.04042336523226474
663,-0.0355362739451842
664,-0.002407565924097826
665,0.011629133149496368
666,-0.03926538781990613
667,0.012102897256739159
668,0.0018962408731564497
669,0.013316819578091662
670,0.12009807813841454
671,-0.018551227399834554
672,0.012640902465220113
673,-0.003605748105391327
674,-0.008084518777725988
675,-0.06686733902409739
676,-0.0247475531397965
677,-0.013312617499999995
678,-0.0037783041595225385
679,-0.10083354068917888
680,0.023244042573841064
681,-0.005388900168397099
682,0.11565356720011553
683,-0.005236463194312893
684,-0.01482082955731062
685,-0.03256091139756361
686,9.756314764779719e-05
687,-0.17675573689219296
688,0.042553305836556324
689,-0.03332273921881522
690,0.15829444720922936
691,-0.024331785116390624
692,0.0058298758772857215
693,0.10689184887529514
694,-0.08850957162733687
695,0.07112964342686978
696,-0.0463825687223759
697,-0.02451158758425166
698,-0.0049423580273763685
699,-0.011450601396597237
700,-0.01728127239677886
701,-0.009327197618365767
702,0.009130193799582664
703,-0.04938924039014677
704,-0.11739413652659957
705,0.009562008717797924
706,0.0027247614481578767
707,0.004164401830629002
708,0.0001320975568803563
709,-0.010216050321749156
710,0.021860845186455917
711,-0.017321023194891323
712,-0.055034809730310864
713,0.0014079340674322382
714,0.003772297321434506
715,0.009475971822016772
716,-0.00024974867735794577
717,0.0001437483108819257
718,0.004222944454013103
719,0.017396933711508782
720,0.026250949154501626
721,-0.006347489476936433
722,0.0006581501801194358
723,0.010244379164994495
724,0.16175357448259087
725,0.00021612402534637194
726,-0.06659156073489539
727,0.001223539109919667
728,-0.0204684657056387
729,-0.002634331431014093
730,0.0007839892034655394
731,-0.0010998351635035492
732,0.007829595691405464
733,-0.002714575992937568
734,0.002753698481008277
735,-0.08536066206440837
736,0.07938903259905358
737,-0.02487502921149351
738,-0.00012514579319657275
739,0.0025375212226490984
740,0.0004912174015924117
741,0.005776799378853196
742,0.010252903283249638
743,-0.15722117660162124
744,0.033110638563749815
745,-0.010405252373404743
746,0.0013609199067328311
747,-0.010171536033737551
748,0.049333880787206165
749,-0.011265560882855293
750,0.018429376700401037
751,0.015193630337197027
752,0.016412780145899804
753,0.08252174626823754
754,0.010503118932603783
755,0.0012848195829069213
756,-0.03615197227624074
757,0.013232055440939618
758,-0.11118614525670174
759,-0.05185813812129034
760,-0.05567187147631047
761,0.016205830979228734
762,0.008460758541311921
763,0.08527882572713873
764,0.018163171082242816
765,0.03509615593592998
766,0.014126719718346626
767,0.02593916984431704
768,0.04801345977759938
769,0.03851708622107219
770,0.0010724421138842142
771,0.010644219846262633
772,0.004178070823794631
773,-0.03709932906960336
774,-0.013760504667846186
775,0.013616310580290522
776,-0.0012419165455296143
777,-0.06085223905706132
778,-0.00021654602578308595
779,-0.016407868459758057
780,-0.057292945864016905
781,0.010925164611085702
782,-0.04850601345641647
783,-0.005013895509993169
784,0.0022202405287508817
785,-0.00756875467559868
786,-0.017648482707292426
787,-0.00138227120730422
788,0.0005117906652608206
789,-0.0026806173268854906
790,-0.01978706904633518
791,-0.009095852602275063
792,0.005763747283350173
793,-0.004719120155046079
794,-0.007267408840547575
795,0.04015129098991086
796,0.005450100443064394
797,-0.006780869900118783
798,-0.010032709229175417
799,-0.004853354327872135
800,0.0020513978252262675
801,0.020766734354841852
802,-0.004692186263960078
803,0.001441069438163614
804,0.03495420373673805
805,-0.005131377103798919
806,0.020276515056342537
807,0.0006436157349995642
808,-0.025297265494546077
809,0.1337572324908194
810,0.009356889702505054
811,0.03580846819925677
812,-0.08103776900361369
813,0.05854078253620414
814,-0.004233974566386576
815,0.0003600067311972903
816,-0.017222463463414512
817,0.02272848203132806
818,-0.08153635883056477
819,0.028900183723503312
820,0.016381932940559705
821,0.013062865972995805
822,-5.731239926446146e-05
823,0.026327564590399772
824,0.01999826231562487
825,-0.0003726552126249691
826,-0.004478182632686686
827,-0.11169077907549307
828,0.0016214465126695938
829,0.012643923641521716
830,0.07158917324253271
831,0.012587291131073684
832,0.013060273433970425
833,0.0065113923349034595
834,0.03881328212199054
835,0.00409736582405363
836,-0.0010537688662897431
837,0.002868582980516466
838,0.0515144124462395
839,-0.03451302671256395
840,0.04831469182342496
841,-0.013398835585183684
842,-0.0223994463380242
843,-0.000547609643417044
844,0.0014990575472786122
845,0.10958930298330949
846,-0.020774159217048442
847,-0.005589186209628564
848,0.0011701509240628597
849,0.007222700326423204
850,0.006007918006456625
851,0.0005645900282115379
852,-0.03204953848767682
853,0.03425260259446391
854,-0.06062568054996582
855,-0.001158280081347519
856,0.006367322516560161
857,-0.08344773623123976
858,0.004252000394281567
859,0.014758789632887502
860,0.0033601895114229283
861,0.0045301694990657814
862,-0.016693643142424896
863,-0.005009784897843408
864,-0.05042728032928675
865,0.1180390294183377
866,0.009142874135858169
867,0.0020450184487827783
868,-0.03241678834849769
869,-0.002103068462379176
870,-0.0017519587127711412
871,0.02657707291465691
872,0.034125358948485195
873,-0.04177216107870604
874,0.007789740103112497
875,-0.0025291030256035327
876,0.00010533532944412662
877,0.0037299411659215843
878,0.0171105586263111
879,0.006129997207569335
880,0.007794171503775473
881,-0.027531933471301343
882,0.012804457562704421
883,0.033475183852006374
884,-0.030219509465526664
885,-0.011657475509949868
886,-0.006323887311477909
887,0.050592638754828195
888,-0.1035185650513636
889,0.004879029057648401
890,-0.0006821798435997933
891,-0.009220173795352204
892,0.013868961387840438
893,0.0021809656012454154
894,-0.03813127806554621
895,0.04690057878201163
896,0.0017462820569859267
897,0.03251573201388103
898,0.004370474782345219
899,0.0007531324728077333
900,-0.030475023485962104
901,-0.002269147575243014
902,-0.008610907973215122
903,0.0070523784139425155
904,-0.007117330822528638
905,-0.005204007796643888
906,-0.005041042069724489
907,0.002216211677874132
908,-0.11604304019630489
909,0.004810196504760663
910,0.009543764892591419
911,0.0006199065427406575
912,0.04438575780704865
913,-5.379155356447367e-05
914,0.019076330730636918
915,0.045696526522286084
916,0.027993370074128755
917,0.040535387879994965
918,-0.0022772761052089092
919,0.005061401673658061
920,-0.027829601366237054
921,-0.10792942434673199
922,0.019437989206811435
923,-0.0011114768166549426
924,-0.03932516930862391
925,-0.04327600130242877
926,0.00979287992186708
927,-0.16951830449505328
928,0.0077540436813678115
929,-0.01999006517378313
930,-0.05150467414959564
931,0.0026537005358446986
932,0.0498781016572463
933,0.022436060157599448
934,-0.08436754096681812
935,0.012339131064462244
936,-0.004030495716687784
937,-0.028720459318635618
938,-0.0008622967489842266
939,0.0016637025927277514
940,0.06204354543464677
941,-0.0034175609688612486
942,-0.029020353937851708
943,7.837685548161695e-05
944,-0.022993521135638486
945,-0.009837985956291241
946,-0.0008459602270364476
947,0.07545503654103519
948,0.0011463475169793292
949,-0.0044182704880076995
950,0.002400920055808741
951,-0.06396386243398196
952,-0.0010252221682043126
953,-0.0022814498111592956
954,-0.07952614951873858
955,0.005943727299731615
956,0.0072571967634865965
957,0.006410762949840051
958,-0.013000832663876059
959,0.045140685488686424
960,0.008816264119789115
961,-0.0005509025331660344
962,-0.0011051555381461511
963,0.013500517344268501
964,0.0408590262725484
965,0.001441426123949767
966,-0.08042764501654569
967,0.019954525421497393
968,-0.05889937327917167
969,-0.023336002081570762
970,-0.01537943790968733
971,-0.02779322027223213
972,0.012961523459186296
973,-0.0035348989547462598
974,-0.005067635370418391
975,0.05795052976682781
976,-0.05454727976383612
977,0.0010835863773032443
978,-0.006964972783780619
979,0.016479674362703367
980,0.003987233071484526
981,0.024626840331552522
982,0.0026368144681541594
983,-0.06877124214400314
984,-0.023310789368547594
985,0.0018134351628765301
986,0.001790886569025636
987,0.0019112823750801406
988,-0.02663817820344084
989,-0.005451483223667684
990,0.00220492571826473
991,0.00863338975269668
992,0.005910065798641171
993,-0.0008279555592816523
994,-0.026300862042471
995,0.0927873626684315
996,0.0023228155142110147
997,-0.17531035705024794
998,0.002303169268782101
999,0.09393869324847529
1000,0.011004466373036802
1001,0.010624331740492104
1002,0.032115917633181244
1003,0.0325987500923602
1004,0.0011071188852312098
1005,-0.0024752362466581193
1006,-0.0006132678785946491
1007,0.07470326092516065
1008,-0.011001503185534294
1009,0.1763208500521729
1010,0.012709197247951422
1011,0.03533451873624891
1012,0.003558000054844717
1013,0.018853432913935333
1014,-0.011020526233615898
1015,0.01816513891202598
1016,0.006571458782540719
1017,0.058595432079265694
1018,-0.15973239863004282
1019,-0.05026970803289893
1020,0.007394231067989772
1021,5.206268289387269e-05
1022,0.01216773203260251
1023,0.0007615493225362103
1024,0.03244550007865487
1025,-0.04917759672786435
1026,-0.041359997613463484
1027,0.2109705390277636
1028,-0.0011865036971739089
1029,-0.03537898941394795
1030,0.007258990067089887
1031,0.000486646207152643
1032,0.06041989720657177
1033,-0.00016417615510297618
1034,-9.456650108067942e-05
1035,-0.04121229208267775
1036,0.001551727340838307
1037,0.029779309763576303
1038,-0.09324388109746311
1039,-0.004048979486983581
1040,0.0365777424211629
1041,0.021836307973755652
1042,-0.012246744569811474
1043,0.026358036112998695
1044,0.041388790225582645
1045,-0.11390619047595832
1046,-0.044076009503642995
1047,0.004208975362933724
1048,-0.07493566065928906
1049,-0.019841813232316378
1050,-0.0030885972834614767
1051,-0.08291003582119162
1052,0.039913945807881775
1053,0.03837375160595066
1054,-0.20215191905438576
1055,0.027117790016004846
1056,0.002421561851156643
1057,0.01901071429067182
1058,0.00370674201626288
1059,-0.12306838319450511
1060,0.06745463894399178
1061,-0.0027968632714484134
1062,0.042379690441107586
1063,-0.00687067726795745
1064,0.023811471745326825
1065,0.021355430593646463
1066,0.010842178571638598
1067,0.1735889385482616
1068,0.0020793125556004322
1069,0.004511275823405028
1070,0.06141504851543559
1071,-0.022926085449054345
1072,-0.01534089675298254
1073,-0.0683369730152157
1074,-0.03007920877301264
1075,-0.09193672573994623
1076,0.006794657644881924
1077,-0.0005268411883018634
1078,0.0028613139508501697
1079,0.11441062630059252
1080,-0.011719987620868145
1081,0.09893505693595173
1082,-0.03191668622622614
1083,-0.0019870387087522795
1084,0.14964608227365178
1085,-0.05590058992327088
1086,-0.07363785886424089
1087,-0.03980882961970885
1088,0.0017048966837443938
1089,-0.0021046739419451938
1090,0.0010086494938834837
1091,0.002552991392119792
1092,-0.015739157344372673
1093,-0.004504541766957454
1094,0.026619836537284662
1095,0.021590029288356374
1096,0.00643996693528323
1097,-0.003687839135611237
1098,-0.04634927001225224
1099,0.06342480460596504
1100,0.006679816129311052
1101,-0.0023623792861358884
1102,0.0006708560434482726
1103,0.051065419961830234
1104,0.04919634781871244
1105,-0.001741609588243875
1106,0.01050996868322391
1107,6.513858907002128e-05
1108,-0.009119822040178506
1109,0.0004048209522600627
1110,-0.053220495980060616
1111,-0.014766911015376876
1112,0.04699437908007333
1113,0.21201151263347517
1114,0.0007877461761385494
1115,0.0008434449966426236
1116,0.002915768184323116
1117,0.0026343803397122674
1118,0.01329199258264874
1119,-0.03828228595424712
1120,-0.0006494029018257447
1121,0.006951648236549156
1122,-0.04030733256126528
1123,0.00928179141009378
1124,0.04010376123993435
1125,-0.0030127015370502584
1126,0.004522244921831803
1127,0.0008419900311040942
1128,-0.007903828790047815
1129,-0.012342366712767715
1130,0.05456336017829662
1131,-0.01244134630068938
1132,-0.0033076378403995603
1133,-0.0036150699207030236
1134,0.015122113980907606
1135,-0.07048672523160512
1136,-0.01428319081127012
1137,0.029154114021612106
1138,-0.018284618390074715
1139,-0.008790580896816353
1140,-0.005159362978352052
1141,-0.016851842361817887
1142,0.04070731613309393
1143,0.002077517430988116
1144,-0.023795197328269183
1145,-0.032283161134502684
1146,0.0028675989150872424
1147,0.005836241122024379
1148,-0.006488956889084191
1149,0.026637158751225586
1150,-0.040946706930149394
1151,0.006499254134253841
1152,0.0065430232802544275
1153,0.0005431192081042431
1154,0.033104257690491044
1155,0.008199843500729763
1156,0.006958691599201341
1157,0.0033892814447385425
1158,-0.016390437374167184
1159,0.02436314727192369
1160,-0.005209805693317576
1161,-0.03107008765191452
1162,-0.05153886090094234
1163,0.004161670995485163
1164,-0.00043541455996268333
1165,0.0011079068153569255
1166,-0.004706024715841012
1167,-0.018363287053061287
1168,0.03544673720191837
1169,0.010252028729848603
1170,0.015969245343479533
1171,0.030850846164130488
1172,0.027703685178450226
1173,-0.03085169874138208
1174,0.017230450674154955
1175,0.14033908460513397
1176,-0.024880414528476384
1177,0.0013825890864544537
1178,0.00041360002380251435
1179,-0.1003218600384114
1180,-0.08097532240690623
1181,-0.012748832681832868
1182,-0.005291179657658847
1183,0.022416940727357663
1184,-0.15377165870230827
1185,-0.00027779947767462947
1186,0.0002061363086432315
1187,-0.001187388632565303
1188,0.03743962185359767
1189,-0.0024584709542561627
1190,-0.08078249525240797
1191,0.03489641484740019
1192,-0.007467759112178732
1193,-0.014012618890844812
1194,-6.307980529629483e-05
1195,0.05720254293567195
1196,0.10247590501101203
1197,-0.00109078303693383
1198,0.004226866035020507
1199,0.004726817438768616
1200,0.0061120471047651365
1201,0.020816432581203314
1202,-0.12826612325762543
1203,0.011724208365926135
1204,0.1363479052378044
1205,-0.0907326856915815
1206,-0.00045669338919715843
1207,0.002232916165355843
1208,-0.015515678500792163
1209,-0.002136615659833344
1210,0.0019962749896966486
1211,-0.012635548524201285
1212,-0.00013227024347268467
1213,-0.00748111334070573
1214,0.009964289270810736
1215,-0.01449883839350957
1216,-0.00036438598978242275
1217,0.0002928581298411111
1218,0.013132222880148448
1219,-0.0007216022921222439
1220,-9.678311011501621e-05
1221,0.017650201882292993
1222,-0.029219115038342822
1223,0.0335682950269255
1224,-0.05686245807008968
1225,0.0014352074688741298
1226,-0.010178895674441085
1227,0.0515466497149063
1228,-0.1345366857992772
1229,-0.01989600201710704
1230,0.005809557653758178
1231,0.01719676945293154
1232,0.02160068480747903
1233,0.0006136490806033519
1234,-0.0050333922489581625
1235,-0.004079092539801089
1236,-0.0010026921123386951
1237,-0.017814391804678687
1238,-0.00029110847207132045
1239,-0.0795681097070634
1240,-0.0018572762692919062
1241,0.013973503459672309
1242,-0.0023659280250062815
1243,-0.0020223014948943254
1244,0.06685239404763502
1245,-0.0010277443774015485
1246,-0.0026823912060817807
1247,-0.027841131589178576
1248,0.02707705850730798
1249,-0.0025157443631681005
1250,-0.04643265111676709
1251,0.0038527984162708057
1252,-0.05163472815850125
1253,0.030813995385325015
1254,0.009195179793143288
1255,0.010248750509804
1256,0.005558020564008848
1257,-0.0013636079357359763
1258,0.015139740940970807
1259,0.015764679545503642
1260,0.0025599404464793215
1261,-0.027213625817871963
1262,0.0229248802988719
1263,-0.15227064275989616
1264,-0.0679183416048968
1265,-0.003070299630988455
1266,-0.039640009067388605
1267,-0.002299563198314292
1268,0.07045058400262093
1269,-0.05045770177046033
1270,0.027112165283371195
1271,0.06806242802169465
1272,-0.0020976246202203375
1273,0.008331137233357662
1274,-0.008831166438846001
1275,-0.03745758748374857
1276,-0.008119086380051597
1277,0.03044982750243872
1278,0.06440970180972173
1279,-0.05910574720108922
1280,-0.006351078288775481
1281,-0.0011626606968206743
1282,0.05405540190312906
1283,-0.11344137939165895
1284,-0.1400649472157412
1285,-0.02447295699891029
1286,0.024804421540086424
1287,0.046036823139059976
1288,-0.029090086719490357
1289,0.0040263189379121204
1290,-0.0004782458085290172
1291,0.0006964484914565356
1292,-0.10891764383287236
1293,-0.08775087441186027
1294,-0.03047762553901561
1295,0.02581025717672856
1296,-0.001656007174711845
1297,0.03463777432467361
1298,0.005968792603617444
1299,0.06133633122027321
1300,-0.009002240705996149
1301,0.06456172003324974
1302,-0.027047209328805676
1303,0.06361370279714121
1304,0.01417151120151338
1305,-0.002045405850384192
1306,-0.026440182354759662
1307,0.0029434126371375596
1308,-0.00017893515713384632
1309,0.003524439230410086
1310,-0.007200313910123278
1311,0.003912732276308127
1312,0.005026019612388053
1313,-0.026121787004904792
1314,0.035762244441159836
1315,-0.004007186767212345
1316,0.005561106992150833
1317,-0.030083228097439164
1318,0.06779417813564653
1319,0.00040114524098218207
1320,-0.06657330978350236
1321,0.02359174503843169
1322,0.00020217568000513724
1323,-0.04244733029611686
1324,-0.07598538600693173
1325,0.0014274932602002255
1326,0.014584784883831475
1327,-0.11713128680232066
1328,-0.02541095785575602
1329,-0.027333531394032103
1330,0.0022186253586631024
1331,-0.015789476155567313
1332,-0.003289297460903318
1333,0.0028311134537771653
1334,0.027345279746070646
1335,-0.00721137791469639
1336,0.02611791139053073
1337,-0.009827260757169897
1338,-0.0007455792732660597
1339,0.13599690178463786
1340,0.000748746789053425
1341,-0.0036043356191072825
1342,0.002428844081790373
1343,-0.003766531089828768
1344,-0.01918181240230892
1345,0.003607884069595905
1346,-0.003239604925323091
1347,0.003673845729329526
1348,0.00036532313661823053
1349,-0.015335002650228155
1350,0.0014841102166468145
1351,0.0015478421648504321
1352,-0.005523534702092344
1353,0.0011327576239536419
1354,-0.026578694811455236
1355,-0.0009378263318850266
1356,-0.10922728760630704
1357,-0.04143688505567275
1358,0.000930598062180168
1359,-0.012498226479468017
1360,-0.007879566427211172
1361,0.06226281820723908
1362,-0.042895343604532496
1363,0.000942365339763726
1364,-0.015590856211938538
1365,-0.005383253966372762
1366,-0.02204709480610845
1367,0.0289209618762294
1368,-0.005741754173877573
1369,-0.027218759787867402
1370,0.09760692768238244
1371,0.02307332797854156
1372,-0.08643068636283584
1373,0.010754156711098821
1374,-0.011007142553495344
1375,-0.11098188769042634
1376,0.0025945674952759508
1377,-0.002318364474349591
1378,-0.06875234062486417
1379,0.000736326009222406
1380,-0.005044608847220059
1381,0.059376228454600825
1382,0.0048019362873227365
1383,-0.05114759532171343
1384,-0.027870746642803573
1385,0.005051550786681785
1386,-0.1563075911006511
1387,-0.01110573103724048
1388,0.014398348162805434
1389,0.046677200841597
1390,0.0005205561234853052
1391,-0.11302553395922735
1392,-0.007123745817337177
1393,0.026829407504713906
1394,-0.01644956348939205
1395,-0.006240284452117759
1396,-0.016506005973624026
1397,0.011153992818506457
1398,0.038959566591922255
1399,-0.019501740481130476
1400,0.03875099493885576
1401,-0.1575455011053442
1402,-0.015678991989520157
1403,-0.020411198304958175
1404,0.008887679126594552
1405,-0.01979894793670775
1406,-0.0009935328778979205
1407,0.026751417441947128
1408,0.0018820035631288388
1409,0.03123243407320071
1410,0.00011273843379570036
1411,0.06406278123675142
1412,0.014235614522401858
1413,0.0003508709175966719
1414,-0.06651948662401264
1415,0.023983334076301564
1416,-0.001847880049334829
1417,0.002578049017483659
1418,-0.0049233115886148544
1419,0.001080747774672788
1420,0.005638499771223392
1421,-0.06938001366197377
1422,-0.023541943246129186
1423,0.09706094847953084
1424,0.004985942950759685
1425,0.011313566656372571
1426,-0.057709281791740404
1427,-0.0025107633727696576
1428,-0.023875650860039448
1429,0.010744690903918547
1430,0.007904617866359525
1431,0.006088669580291273
1432,0.015883299179133725
1433,-0.06479026327055357
1434,-0.08332692325013752
1435,-0.023701645769833548
1436,0.00014726182355758165
1437,-0.002594215305098613
1438,-0.012427904949356004
1439,0.041968377094849
1440,-0.0006631346082808076
1441,-0.0052347086576594315
1442,-0.008663606017788603
1443,-0.007131603965903919
1444,0.0019793172347973374
1445,-0.004200992183991917
1446,0.14026922757741186
1447,0.07413985707494704
1448,-0.12600466527922563
1449,-0.06932200816957097
1450,0.0907116002112323
1451,-0.0010647350039786386
1452,-0.032400082404960694
1453,-0.0011229413031733787
1454,0.06316671599433227
1455,0.1022421557638331
1456,0.0012566836829126715
1457,0.006817248308067204
1458,-0.0015921648988563126
1459,4.129526262756522e-05
1460,-0.07091951352933325
1461,-0.01853500080004493
1462,-0.08806679490458706
1463,-0.003781988521017778
1464,0.008037641423650536
1465,-0.005529100031002771
1466,-0.025899540278189942
1467,0.01545974519139697
1468,0.05694004369721198
1469,-0.12599293967487055
1470,0.008448317426946333
1471,-0.022556378498842223
1472,1.368401933709621e-05
1473,0.03911768382025924
1474,-0.05914514170658252
1475,0.016193187243091996
1476,0.005536170488397107
1477,0.05599994048624876
1478,-0.0035410035401611676
1479,0.03420137577175742
1480,0.0010177687870946395
1481,-0.03399702939908509
1482,-0.0010589826692018103
1483,-0.14251388343157462
1484,0.004195194701110642
1485,0.006568560528458885
1486,0.14471942409437896
1487,-0.05301718401852837
1488,0.022336938793383356
1489,0.013483341440620586
1490,7.697008273392555e-05
1491,-0.0031893335499186305
1492,0.011569588983159091
1493,-0.11988211749197188
1494,0.005445757429188148
1495,0.0020054431498022244
1496,0.0077201170646498925
1497,-0.0050509116058630454
1498,0.005029389575032416
1499,0.016441869872249264
1500,-0.0014975241482079026
1501,-0.009590119642814232
1502,-0.0010973495317492402
1503,-0.15869954836140185
1504,0.04873856471259631
1505,0.002564860213746105
1506,0.08038104681130535
1507,-0.013977926792675599
1508,0.14218635870064755
1509,0.003912257374564123
1510,-0.009409101394306809
1511,0.0009696329328051945
1512,-0.026508362806672785
1513,0.0035070379544846065
1514,0.04722299798290379
1515,0.02817417538181601
1516,0.005431942046655409
1517,0.12079274083117712
1518,-0.0007050361835416186
1519,-9.239915808580215e-05
1520,0.009303323007485497
1521,-7.460450356708429e-05
1522,-0.05018048113048057
1523,-0.010014889682804047
1524,0.07219162712400157
1525,0.0018537307616153498
1526,0.00013862598486982482
1527,-0.0008924134557441988
1528,-0.014430850387400418
1529,0.014036096205478946
1530,0.07142197457158145
1531,0.006689317043667261
1532,0.02446494768354004
1533,0.017819462615251705
1534,-0.007786748386495617
1535,-0.046126981617993834
1536,-0.08557139507992009
1537,-0.013316852703953481
1538,0.004740772198902038
1539,-0.0008868485632175527
1540,0.0004100995944754926
1541,0.001316304848210775
1542,0.0032255586006209856
1543,-0.00029674031501983664
1544,-0.1093427085962694
1545,-0.08397171811397176
1546,-0.019045941738425165
1547,-0.038931203964020306
1548,-0.0021081913611389726
1549,-0.003727829238604732
1550,-0.02373627351470688
1551,0.018867716149487717
1552,0.005309126328822429
1553,-0.009725092416542281
1554,0.027434327584014023
1555,-0.027400875044748807
1556,-0.0011564413165101027
1557,-0.03106216860378637
1558,0.006304810039681647
1559,0.07353693930179955
1560,-0.021732862506951778
1561,-0.028060066125771988
1562,0.0010366473457975047
1563,-0.017851728058861295
1564,-0.0014640453380047119
1565,0.028159924807110222
1566,0.07580911364622374
1567,0.01007581174928506
1568,-0.002536816036676698
1569,0.0008327746914316785
1570,-0.10297558018132855
1571,0.00725194436725457
1572,-0.04992964017401288
1573,-0.0020211215567361098
1574,0.0024223603427803025
1575,0.05219422009951751
1576,-0.0011600768118203593
1577,0.005656726516645477
1578,-0.00039537023515455753
1579,-0.002860546600010123
1580,-0.105063644123049
1581,0.002732645870273441
1582,0.005139209773382794
1583,0.005935578355362931
1584,0.0039426952879675495
1585,0.0016423756773121482
1586,-0.06568896331431227
1587,-0.02662271270500228
1588,-0.005574512848977195
1589,0.015557076066698702
1590,0.0028000594715494776
1591,0.0010242834890199122
1592,0.0075153057009277584
1593,0.008263053360638473
1594,0.005692063548711239
1595,-0.07074568777431954
1596,0.19932964720554294
1597,0.0010996597144899319
1598,0.053370711529577
1599,-0.0003970909823362651
1600,-0.0695422240603571
1601,-0.0003929523497529735
1602,0.015390790119519443
1603,0.003834948705111632
1604,0.005952953480771153
1605,-0.07164197422081084
1606,0.03634337438394682
1607,-0.018850485227923656
1608,0.03644033256607779
1609,0.02764641328263207
1610,0.0370218721753922
1611,0.000997106560993589
1612,0.022527983892873037
1613,-0.13829412959980372
1614,-0.002975691378353622
1615,-0.0014132532595228142
1616,0.03053400374897532
1617,0.0004085815797062899
1618,0.015222754782965474
1619,0.008614332506153252
1620,0.013739498913060026
1621,0.010247711717641377
1622,-0.04322155035864763
1623,-0.004849549509426804
1624,-0.004034217255827214
1625,0.01011083881459915
1626,0.002585722288011948
1627,0.04063381435348787
1628,-0.01614021032095154
1629,-0.04149707934263397
1630,0.07072384746599972
1631,0.01612282258951831
1632,-0.034394737374356055
1633,-0.02439481244332486
1634,-0.0028506387222378615
1635,0.0008710670765374202
1636,-0.0040669586283772
1637,-0.017148369444094844
1638,0.0006011802070348474
1639,0.007426742685708971
1640,0.14985265954306956
1641,-0.02550863801632498
1642,0.024089392354448933
1643,-0.02494819846137029
1644,0.00603535485429844
1645,-0.019558608311511058
1646,-0.0033551956732605255
1647,0.0005154406241329191
1648,0.018116068140989497
1649,0.008579268016797804
1650,0.08159630143341746
1651,0.010280459108268516
1652,-0.008917042492338371
1653,0.009779067476914835
1654,0.009093834684658273
1655,-0.009078375933309716
1656,0.007366612398826582
1657,0.005878052791044986
1658,0.0014208474446950354
1659,0.007928839531866367
1660,-0.0005216119383495704
1661,0.04902042717012663
1662,0.005480141518783644
1663,-0.0014582841863628035
1664,-0.043686797601703686
1665,0.09013812709579047
1666,0.003575638499741236
1667,-0.018626554229431814
1668,-0.025383787294544567
1669,-0.01835488983434707
1670,0.0028723472451658363
1671,0.03684259675491511
1672,-0.031939614505061074
1673,-0.002026391970245001
1674,0.0014742419111002224
1675,0.04830014023405207
1676,-0.013230266910244903
1677,0.0009634434509388971
1678,0.05521843264923166
1679,-0.09038462456062518
1680,-0.048311735258557614
1681,-0.122786810801049
1682,-0.043682547343095526
1683,-0.0001698682264639647
1684,0.00022887154811148308
1685,-0.007929852882761861
1686,0.050061417622362714
1687,-0.05982484308670206
1688,0.0005212292099717539
1689,-0.08173130964820788
1690,-0.06025946533450006
1691,-0.05169175686277429
1692,0.006472593400446327
1693,0.0519497254495085
1694,-0.031077422517433832
1695,-0.0073956184070367165
1696,0.10170543041686925
1697,0.0033412739054432985
1698,0.04231066539894015
1699,-0.0026496550034114164
1700,-0.01141349885402684
1701,0.0009586137001523866
1702,0.08818914092318345
1703,-0.028142232593046452
1704,0.015313344208964904
1705,-0.1104548264911586
1706,-0.012682330949981592
1707,-0.0017384454314216778
1708,-0.04077973761229119
1709,0.08162238956420016
1710,0.006688003936076845
1711,0.005268042476198667
1712,-0.002444911108154281
1713,0.002739488754697041
1714,-0.06408777997686779
1715,-0.021603901457969393
1716,-0.0032749776784303836
1717,-0.08714913787611188
1718,-0.013786305123170113
1719,-0.005532613598321467
1720,0.018110795580025818
1721,0.003274730358395166
1722,-0.01672506113318414
1723,0.005066815227287806
1724,0.002432107796587464
1725,-0.00020897242498403348
1726,-0.007157900055153672
1727,0.12357612958986565
1728,-0.017829715889379746
1729,0.000964296044336259
1730,0.012991726469525764
1731,0.05760761168540095
1732,-0.03707536439329266
1733,0.005303761688410617
1734,-0.0508073097235185
1735,1.0875597992189773e-05
1736,-0.006437526130754151
1737,-0.000898303479743741
1738,-0.008858334178937959
1739,0.0024278391486443522
1740,-0.01259528997419051
1741,0.06555717134745746
1742,0.015620720134379104
1743,0.01536652970521985
1744,-0.013136061990062274
1745,-0.18525645706644936
1746,-0.0030414033812850936
1747,0.003596748553801314
1748,-7.030769627012237e-05
1749,-0.15165037582984495
1750,0.0008821484134825358
1751,0.07730884595646657
1752,-0.0342711910117286
1753,-0.006352089547824114
1754,-0.04330035361113392
1755,0.012979470768596587
1756,0.0006443255333767221
1757,-0.006653441049801081
1758,0.009893400977338663
1759,-0.007895606292657356
1760,0.002054612661530493
1761,-0.010021129999955216
1762,0.029299499659889823
1763,-0.0007531891117001245
1764,-0.06124958545692202
1765,-0.03121736750541998
1766,0.0005870216988395794
1767,-0.0010155363330127548
1768,-0.016190898437513902
1769,0.03220485468928481
1770,0.046300419692793894
1771,-0.001190782169609088
1772,0.005346315416426871
1773,0.004902843995349971
1774,0.002231703302497709
1775,0.03436612710906522
1776,-0.012208747745038892
1777,0.041021650695738224
1778,-0.02591798774299626
1779,-0.006085417323760498
1780,0.0004387256203846833
1781,0.012118248250132453
1782,0.011141976625482402
1783,-0.01796703610226644
1784,0.010102911531924845
1785,-0.01952987535184521
1786,-0.004832783812587955
1787,0.03492634083067465
1788,-0.001243262240766661
1789,0.07168667330581015
1790,0.006059411145475882
1791,-0.15738481890506287
1792,-0.05858111960954398
1793,0.02299750175280532
1794,-0.04968438527417139
1795,-0.03412933591490066
1796,-0.009522447727139421
1797,0.008047980622614867
1798,-0.00331784130223171
1799,-0.0052165601007050574
1800,-0.0037998440570530686
1801,-0.04128076952207876
1802,0.007740501932223957
1803,0.056561853212489
1804,0.008921400336759843
1805,-0.02888541944653957
1806,0.033338582733449695
1807,0.006420738146225569
1808,0.002836679567921123
1809,0.00543205817463481
1810,0.01645867422065997
1811,0.0019709235401540923
1812,0.07839529145236061
1813,0.0024416091790809423
1814,0.013737545854763627
1815,-0.04551658460872275
1816,0.00949184175959574
1817,-0.04268180008293113
1818,-0.004850117858253169
1819,-0.01056208350654749
1820,-0.03343712669352039
1821,-0.016277964938619254
1822,0.00045717661154016573
1823,-0.007501480293580154
1824,0.0040579441854709615
1825,0.02374933121909826
1826,-0.026368414370985714
1827,0.04719160459817451
1828,0.0049994348685760475
1829,-0.15287006251670374
1830,0.01546604439658467
1831,0.029264403930847713
1832,-0.01842831285315818
1833,-0.04828831818550094
1834,0.021495748456698733
1835,0.006670429403809916
1836,0.10358806614344013
1837,0.060734740673275375
1838,-0.05868976445026969
1839,-0.0007493800560485534
1840,-0.0004373614624659219
1841,0.005269446865334809
1842,-0.016045563625563947
1843,-0.00563560720263006
1844,-0.037554592855157706
1845,-0.05166372022417738
1846,-0.008845331827806434
1847,0.012112606043440104
1848,-0.05839539304399818
1849,0.02108045421879464
1850,-0.0011244082645526549
1851,0.0006782845014301317
1852,-0.0002948377292301712
1853,0.007912899142499496
1854,-0.021985217933596913
1855,0.02231980480579353
1856,0.05995012736424125
1857,0.034842562071139414
1858,-0.010963093829959062
1859,0.10535832507588745
1860,0.005332295644704607
1861,-0.01074684616661623
1862,0.07383620567711462
1863,-0.010779992911796779
1864,-0.02340774530337787
1865,-6.329609841225778e-05
1866,-0.00747947997296568
1867,0.00976140666720586
1868,-0.027723030975403653
1869,0.013816318131115399
1870,0.0015153663988646516
1871,-0.0648731627916152
1872,0.0006925770232488068
1873,-0.029295012466957024
1874,0.0024600327918976863
1875,0.018676915046255894
1876,-0.0038328979201368144
1877,0.10711395670418655
1878,-0.004996316657174583
1879,-0.0300001000591193
1880,0.006053085267120725
1881,0.01759559975686222
1882,0.0054896462913961545
1883,-0.005784913085655439
1884,0.2100424446296733
1885,-0.0018655300042967635
1886,0.009553191389140158
1887,-0.013418824223425248
1888,-0.033100715240893815
1889,-0.027047039502730127
1890,0.02829136997441841
1891,-0.011652695176239868
1892,-0.07384982885933873
1893,0.018428771144613665
1894,-0.0007960257709275981
1895,-0.08824849912576985
1896,-0.0030641042625158183
1897,0.012124498717443985
1898,0.02513812919140297
1899,-0.002713188208594566
1900,0.08286593839368069
1901,-0.010312341906506954
1902,0.004705089344780746
1903,-0.04471452155325196
1904,-0.012213141610165203
1905,-7.632641223208222e-06
1906,-0.008290791478913666
1907,-0.04384445776529987
1908,0.01744873387096203
1909,-0.0022916569043659766
1910,0.002332968457813224
1911,-0.0005229769934414869
1912,0.002562924422481296
1913,0.019958325323110985
1914,0.010062961030614659
1915,-0.11194080079470507
1916,-0.001558593693487804
1917,0.02539986356842256
1918,0.07235659562602897
1919,0.0024108168861053003
1920,-0.0009628507674981508
1921,0.038781591806342004
1922,0.004043089426224537
1923,-0.0007906282489203998
1924,0.004056656012757236
1925,0.09387275477397053
1926,0.0004951662602924917
1927,0.03654350632467796
1928,0.0022211270729285033
1929,0.08148485900950357
1930,0.002655379957653959
1931,-0.003914463038725152
1932,0.02056310869083172
1933,-0.007130205467881426
1934,0.0020666264569150824
1935,-0.02951061791481581
1936,0.03443663057027786
1937,0.0009880515023351151
1938,0.00412561442796985
1939,0.02190467214336718
1940,-0.004096860574984898
1941,0.030110198078521715
1942,0.0054645611071384385
1943,0.14727553526718107
1944,0.012963350545438585
1945,-0.040121309033011886
1946,-0.0034060080562685817
1947,0.04056054403247664
1948,-0.009074318393419123
1949,0.007836728198499385
1950,-0.003468118336295846
1951,-0.0793980423620853
1952,-0.003045949613682824
1953,0.0015779972816663311
1954,-0.00893954584767298
1955,-0.006682050805793458
1956,-0.0007900516339044446
1957,-0.0004528136328302918
1958,-0.0004217730033448826
1959,0.03586240519120448
1960,0.001150944285342836
1961,-0.0231717580007484
1962,-0.010225311682285144
1963,-0.07049068298760795
1964,-0.06273384876866837
1965,0.04033053156021531
1966,-0.03246413658793663
1967,0.01441996623360402
1968,-0.016234728860790425
1969,0.017314383108406092
1970,0.0304945587870733
1971,0.011088531314370164
1972,0.024364026125040933
1973,-0.02200452355681526
1974,-0.02104792058603832
1975,0.06503596556748906
1976,0.007259275110827248
1977,0.004129150274949456
1978,0.0669718572635469
1979,-0.0486786271204996
1980,0.0003068932297491401
1981,0.03125221406319176
1982,0.003791752280724752
1983,0.010759313304835073
1984,0.06092657327974877
1985,0.021177650445848517
1986,-0.018889238914362803
1987,0.02744120370155217
1988,0.032858441322724904
1989,-0.006218640080624539
1990,-0.002913086490849623
1991,-0.03405375713609961
1992,0.005614002388657753
1993,0.030620770880662576
1994,-0.043647442655116185
1995,0.015807257881725736
1996,-0.08502105092372915
1997,-0.0001353197439288361
1998,0.010636547959294175
1999,-0.008076772030804915
2000,0.012175388305553179
2001,-0.05507540874289764
2002,-0.0007974725116605283
2003,0.0594322818430075
2004,0.0008415920627203832
2005,-0.04375086643731805
2006,-0.04864095113932941
2007,0.012474242230352131
2008,-0.018439726409013056
2009,0.0007097015396764702
2010,0.009990318057638524
2011,0.030184689499227237
2012,-0.025443136614446544
2013,0.037401370609320535
2014,0.08969886622367675
2015,0.012091797682731699
2016,-0.004938976863647359
2017,5.850411932819046e-05
2018,-0.019247911223742524
2019,-0.01031311340933629
2020,0.005088098858326137
2021,-0.130798333540181
2022,0.0043784186834975826
2023,-0.009143415357763578
2024,-4.161939488672748e-05
2025,-0.0006181529796737295
2026,0.01449476639601644
2027,-0.008165724119731934
2028,-0.08247085016659025
2029,-0.03481653527506144
2030,-0.021351219993103042
2031,0.00882803374660874
2032,0.0036223498171293594
2033,0.0034524570763431127
2034,-0.14923423704605093
2035,-0.0009498019676626699
2036,-0.002060218076205334
2037,0.13692628072180282
2038,0.021297183669529943
2039,-0.005258993033943792
2040,-0.09063028899993648
2041,-0.07502030502990613
2042,-0.0013817149537806237
2043,0.03771358521039825
2044,0.05373519289437595
2045,-0.0761456351494077
2046,-0.020238837306024906
2047,-0.024193344374527435
2048,-0.023331177655815143
2049,0.005052108824593727
2050,0.00254521277460227
2051,-0.030199516882467883
2052,0.013642051685920698
2053,0.10274354891719983
2054,0.024552313106580553
2055,-0.016290059664802157
2056,-0.03490906476157867
2057,0.1340991024364067
2058,-0.015937025942268875
2059,-0.012411862765132883
2060,0.02315752668477084
2061,-0.09164150557363378
2062,0.010331757719798714
2063,-0.01664397198112948
2064,-0.0008776431446536206
2065,-0.0002661562131397472
2066,-0.03561815893888621
2067,-0.08014955685589953
2068,-0.015991081216071443
2069,-0.07287394401714416
2070,0.006874421414690696
2071,-0.029173591008354465
2072,0.009944368834086162
2073,-0.058546366906824285
2074,-0.0007641318292316671
2075,-0.009080603012829345
2076,-0.019272028551421037
2077,0.0023607368993077203
2078,-0.03070353638564975
2079,0.012475660357662819
2080,0.01919604119963775
2081,-0.025518919928323495
2082,0.007483450802434332
2083,-0.0014158305746872165
2084,-0.0012456855373186035
2085,0.0021865297027896663
2086,0.003882725867154983
2087,0.007842378931282529
2088,-0.0025865692842155868
2089,-0.0021158248360093118
2090,-0.0005038371685711382
2091,0.055867905363708045
2092,-0.015873089971467476
2093,-0.01284819489891341
2094,0.16111151218494157
2095,-0.0004689438450123962
2096,0.0033964850093159047
2097,-0.008606438782262157
2098,0.0111848606452318
2099,0.13182024527676056
2100,0.0021262120134424804
2101,-0.04631298967775717
2102,-0.0003920104508926238
2103,-0.008200750915885837
2104,0.023212592131165385
2105,0.0013933716274718553
2106,-0.011592358422392918
2107,-0.023433618723073826
2108,-0.013064772138964025
2109,-0.005692027469774875
2110,-0.04395980338320585
2111,-0.00036954537057699676
2112,-0.07178474063447808
2113,0.06408363020873853
2114,-0.007774941695573915
2115,0.024668968166698037
2116,0.03933643034108159
2117,0.002565663270420235
2118,0.0018731660553944454
2119,-0.04652722582819915
2120,0.0007756461910624464
2121,0.10531937702277216
2122,0.08516416707213838
2123,0.0024854463532238942
2124,0.0016018581068203961
2125,-0.030888491292650092
2126,0.0002612735310888809
2127,0.08653293301380598
2128,0.025188292385793596
2129,-0.0005379706204519822
2130,0.035244017820465684
2131,0.0062266967089440435
2132,-0.09262733046073501
2133,0.006396922576813492
2134,-0.06563550434768241
2135,0.02398931120501965
2136,-0.03153363238787764
2137,0.00684565938673294
2138,0.00733157836063261
2139,0.028945352200598243
2140,0.11246019749860026
2141,0.00448573498497488
2142,0.009428326189515931
2143,-0.0017082988782953859
2144,-0.007597648197051685
2145,0.009872686224825736
2146,0.001397434998661482
2147,-0.002216559198171483
2148,-0.006654302594849775
2149,-0.006944216085291211
2150,0.042340629012866206
2151,0.006716090058114639
2152,-0.003656359600901975
2153,-0.0035917008052259044
2154,-0.0005396416304705705
2155,0.09843082718036503
2156,-0.13390104048681334
2157,-0.007207711433068013
2158,0.003330659674520846
2159,-0.037372520883029114
2160,0.02840703698402882
2161,-0.00213110055179885
2162,-0.006653960732740127
2163,0.0014098172605134331
2164,-0.0013846828523844305
2165,0.028933010767324907
2166,-0.01565197467021847
2167,-0.07859796693952838
2168,-0.03292784531611067
2169,-0.018915489788699762
2170,-0.03595563367462925
2171,-0.01014069547352597
2172,0.026132881457743107
2173,0.0003059003350244455
2174,-0.024232249042371895
2175,0.0004217321736794578
2176,0.0014652376326011363
2177,0.0004700024872361544
2178,0.0043781056444859865
2179,0.015292185561395916
2180,-9.442054780260161e-05
2181,-0.015488820432599179
2182,0.0118319415404087
2183,-0.0535236282852201
2184,-0.005999019129180448
2185,0.00513176276773816
2186,0.0036007619768774583
2187,0.12586568036131332
2188,-0.00036237161089034434
2189,0.005140082171960064
2190,-0.04156182453109421
2191,-0.07166226660856603
2192,-0.07502260319499185
2193,0.006703920188600274
2194,-0.002632330168364784
2195,0.0925313605690568
2196,-0.018633678559790423
2197,-0.00899681647815382
2198,0.00028898566777174845
2199,-0.008362345617899017
2200,-0.0012881239660638972
2201,0.025785851467204652
2202,0.10441187479222344
2203,0.007791285158785022
2204,-0.0009961740402872731
2205,-0.03392657993682818
2206,0.005776044384604585
2207,-0.04688535250102444
2208,-0.001666099838253726
2209,0.03462527842400523
2210,-0.05005386204442709
2211,0.009398031657586568
2212,0.03246878211696651
2213,0.030060881718205677
2214,0.00590851760283581
2215,-0.0004461716695000459
2216,-0.06716006966778637
2217,0.11902238396163363
2218,0.00825641033590203
2219,-0.002346599631972856
2220,0.0015637318553881681
2221,0.03384342007317185
2222,0.06663786773071251
2223,-0.04782092073346135
2224,-0.0026907510242577433
2225,-0.0007354869707726537
2226,0.002301927788411621
2227,0.09727382046265598
2228,0.07343241689830243
2229,0.03219586664952371
2230,0.005041491120232804
2231,0.009876046778979719
2232,-0.0007686608763536282
2233,0.007508420149848343
2234,0.010569844619301143
2235,0.012104329989337798
2236,-0.001442167219155905
2237,0.011748411557237042
2238,0.0642827340148461
2239,0.09438562190173816
2240,0.18387914593448657
2241,0.07906126001758132
2242,0.004236366930574861
2243,0.021868484578700095
2244,0.01077996036703738
2245,-0.012308328367670431
2246,0.0012650003025404296
2247,-0.015620461987290332
2248,0.014108356094300457
2249,-0.00804884734612626
2250,0.003904605325577623
2251,0.11584475096893547
2252,-0.032146130175531945
2253,-0.046916546383181
2254,0.010037482312423495
2255,-0.1047386052564478
2256,-0.0002008254406095917
2257,0.01857710671607202
2258,0.0009387120992624937
2259,0.0011596872986974311
2260,0.1210520987380207
2261,-0.05367600175756215
2262,-0.11248877976212719
2263,-0.003164624052452229
2264,0.0049529688664443515
2265,0.04635138288437401
2266,-0.004756161032068643
2267,0.0033829604915107674
2268,-0.016825094347018833
2269,-0.02295299907295385
2270,0.004217984732367152
2271,0.016205927778914678
2272,-0.0020848130217872196
2273,-0.04032746123070687
2274,0.02094314650938353
2275,0.01193339577626322
2276,-0.0005582560622496214
2277,0.0011681783119974305
2278,-0.01322727160764733
2279,0.04760509927014563
2280,-0.004603371617506808
2281,-0.03898229663106204
2282,0.20027728117387492
2283,-0.005782391332758379
2284,0.003761142373774336
2285,0.018719962175830367
2286,-0.016809026815171626
2287,-0.008125416347924257
2288,0.10321524035515163
2289,-0.001267981194643191
2290,-0.00041226932155855376
2291,-0.00024500809977529085
2292,-0.038927135562768035
2293,0.014985585428686408
2294,-0.048215266930285446
2295,-0.05092979214369733
2296,-0.003734087564018572
2297,0.00041488623341241716
2298,0.050098613024360944
2299,-0.001659715048923753
2300,-0.001436417158240481
2301,-0.0594649292379234
2302,-0.022818795024713748
2303,0.0012112989658077365
2304,-0.019102457431160753
2305,-0.00011673093869482302
2306,0.004159169980207272
2307,0.001969293889115128
2308,-0.020820105918028582
2309,0.1346006272306725
2310,0.1761667946462385
2311,0.0012174685991175407
2312,0.20027428493198385
2313,0.05607871385104863
2314,-0.04664943655793103
2315,0.10923695070906479
2316,-0.003975969273611387
2317,-0.007396113962415164
2318,0.05250165580275568
2319,-0.0018906746392332104
2320,0.042083696918335294
2321,-0.0008928830194916702
2322,0.027816350609195396
2323,-0.0017553544883917404
2324,-0.006859180689341946
2325,-0.0022530115961959833
2326,-0.052439711615346433
2327,-0.00989583303930555
2328,0.00110940700229987
2329,-0.0020082245960144356
2330,0.036791931584893724
2331,-0.010209652850284297
2332,-0.017563247886177427
2333,0.007708288190803178
2334,-0.00949031208112915
2335,-0.05029158644717728
2336,-0.22481724367065536
2337,0.013583838908536004
2338,0.0011615999879264806
2339,-0.0034330628631111665
2340,0.002979048694444239
2341,0.023062828525589107
2342,0.00016022026291768532
2343,0.008518334740011386
2344,-0.00429496982671714
2345,-0.1081707435016869
2346,-0.17102405289114195
2347,-0.002682650133972263
2348,0.005895785738080899
2349,-0.04579176106279314
2350,0.00425305320931735
2351,0.278290913810018
2352,0.10999766433520144
2353,0.0039610259493133345
2354,-0.0014418393355107857
2355,-0.0027834672593745518
2356,0.016781546008195366
2357,-0.0029965043151168793
2358,0.008801694527433165
2359,-0.017038256801604514
2360,-0.004708080064677943
2361,0.013182981115648123
2362,-0.0008769039752497541
2363,0.006288380228222908
2364,0.004847046321360136
2365,0.001182947678039052
2366,0.05456400597893167
2367,0.009732100973245505
2368,-0.008815690340338002
2369,0.0006863680282297566
2370,0.05196054984946424
2371,-0.003635778808148877
2372,0.034336572639810166
2373,-0.0005791433355328945
2374,0.009130452191735264
2375,-0.013255134722227729
2376,0.006754204488522927
2377,-0.0008670825947531117
2378,0.006106544057599523
2379,0.03159765914217024
2380,0.005431600530714403
2381,0.0012262782024446495
2382,-0.00040840238222615945
2383,0.007726535694455198
2384,-0.005890219815939666
2385,0.17011944041685548
2386,0.0657273506147342
2387,-0.05657481830975731
2388,0.0032928019194945375
2389,-0.002972820443020432
2390,-0.003813759336260666
2391,-0.016015310169226606
2392,-0.013491595942040241
2393,0.01541938289271983
2394,-0.017572073179996213
2395,0.023824190891994137
2396,-0.027438021812766614
2397,-0.028666014205448294
2398,0.005574354327548677
2399,0.03779255776974925
2400,0.02771479556285535
2401,-0.13832571718358802
2402,-0.016247600849566918
2403,0.05464239220108571
2404,-0.0133441429119923
2405,-0.006693959508536589
2406,-0.0015750418513604697
2407,-0.0017453248345686663
2408,-7.498384060274251e-05
2409,0.00682618924377816
2410,0.019782748244742618
2411,-0.0009330317305243791
2412,-0.00047273504962113674
2413,0.04192284830889784
2414,-0.011034918010563456
2415,0.0013959695590220157
2416,-0.12326432547510158
2417,-0.032484537398255756
2418,0.01890912711591277
2419,-0.014849837495309692
2420,0.040457223018295574
2421,-0.018621873999907338
2422,-0.0472808393164273
2423,-0.04850323183812428
2424,-0.04259844031619834
2425,-0.001801540289850251
2426,-0.00021156127622413471
2427,-0.018646595798967186
2428,-0.04029910422584535
2429,0.00835881544421706
2430,0.013882814310202465
2431,0.03835338501848375
2432,0.0015173309470834647
2433,0.03386478386665103
2434,0.007583203628160701
2435,0.008892586287945137
2436,0.0026810184528304162
2437,-0.004100881482497316
2438,-0.016187213087881416
2439,-0.004363654092611254
2440,-0.00670314345744558
2441,0.0021947302454998576
2442,-0.04221858314697277
2443,-0.004602039442279775
2444,-0.0051714730708844765
2445,0.012423451628556258
2446,0.01689045975585373
2447,7.176426570160143e-05
2448,-0.049560884881092296
2449,-0.007487252541038261
2450,-0.06135866329985161
2451,-0.03485333587108469
2452,0.022422022038620787
2453,0.04045816122696567
2454,-0.013201595542260665
2455,-6.35504722742849e-05
2456,0.0021548064707655034
2457,-0.004416405481276025
2458,0.005687309513240301
2459,-0.08306312540705046
2460,-0.019719524625123636
2461,0.008630558885192489
2462,-0.08068903433300412
2463,0.032690127647053126
2464,8.287961467147606e-05
2465,0.02628753197792282
2466,-0.027913748604316675
2467,-0.06892387206789126
2468,-0.012587386481654014
2469,-0.12783144814303568
2470,0.007553214114519346
2471,-0.009654594058827645
2472,-0.005783965954975367
2473,-0.05103576359372672
2474,0.19742061537637534
2475,-0.004394952055848264
2476,-0.004678208065633627
2477,-0.01501395356972918
2478,0.0026177340292221876
2479,0.0051842758189335324
2480,-0.013110001949171843
2481,0.023370913499174577
2482,0.010952269688633364
2483,0.013243976009569813
2484,0.0010565938659217958
2485,-0.08510957530684186
2486,-0.024188738414740778
2487,-0.011169200226634328
2488,0.0767168302781238
2489,-0.002595958001014019
2490,0.008450950409689333
2491,-0.0027122930602691926
2492,0.008992227008728227
2493,0.006680139516760187
2494,0.011282676964212314
2495,-0.0017483666501701659
2496,-0.044791554802692285
2497,-0.010805036458782741
2498,0.002524919276227648
2499,0.0048966750247726
2500,0.004207633217761265
2501,0.18273468714944963
2502,0.01282996344956302
2503,0.027189162805384186
2504,0.0063965650982734145
2505,-0.007986579440856774
2506,-0.0004639573528764603
2507,0.004935104494954349
2508,-0.10963634376993443
2509,-0.006299866440195849
2510,-0.015889987181262697
2511,-0.023011486523853875
2512,-0.032400339143034126
2513,-0.03120547456119406
2514,0.017957553759010328
2515,-0.026225987559534203
2516,0.09397748620203905
2517,0.007731635488493792
2518,0.02789080223461557
2519,0.012894683466850142
2520,0.03860348415185762
2521,-0.0006821667003431401
2522,0.02536006711732895
2523,-0.01256366797849501
2524,0.00042902702211992493
2525,0.024965591385783054
2526,-0.03726014247908739
2527,-0.003281855238824644
2528,0.002045016458866228
2529,-0.0032411790535261126
2530,0.043456159580182875
2531,0.06081867711626791
2532,0.08444183539748708
2533,-0.020963876362417398
2534,0.014860980013521163
2535,0.004471651654487217
2536,0.027765438858962196
2537,-0.004739962623897488
2538,-0.004037432093891376
2539,-0.022832136195430997
2540,0.025330344156187044
2541,0.00368560281306574
2542,0.05738045350153047
2543,-0.009569124072490432
2544,0.0016771417238858962
2545,0.00034923463190148147
2546,0.02200730342550786
2547,0.06884541849151796
2548,-0.0018719604899479951
2549,-0.0011608881549705198
2550,-0.019297992195463746
2551,0.05923316025535017
2552,-0.010622863403072391
2553,0.1345938751642047
2554,-0.016118908019615498
2555,-0.0710811272292755
2556,0.003343971156550433
2557,-0.004539847956580812
2558,0.010643124967036493
2559,0.00782788032750808
2560,-0.007768176809019965
2561,-0.008153219096893987
2562,0.018471891701925286
2563,0.0013517722561232092
2564,0.0022135248040241985
2565,0.05412716299975053
2566,-0.0011874017056686616
2567,0.004794734659740907
2568,0.018675170231446707
2569,-0.0007174210609079061
2570,0.005683398935605506
2571,0.0028905367544443056
2572,-0.07925397898177396
2573,-0.055023901311709617
2574,-0.013307772683889916
2575,0.016251328573846015
2576,-0.028396038147572904
2577,-0.0931076341691492
2578,-0.009228772633782946
2579,0.008022585159348738
2580,-0.02973171348486089
2581,-0.0011941710275626901
2582,0.00762499730809403
2583,0.0742264386855629
2584,-0.02340724751495851
2585,-0.012897781827582163
2586,-0.0020188377211151766
2587,-0.0007174832778375366
2588,0.0010170206691049993
2589,-0.04631293644690743
2590,0.004940036616450162
2591,-0.009600027070055467
2592,0.0006442675707259447
2593,-0.048144978595210386
2594,-0.003268459865509532
2595,0.00013157219362682705
2596,0.04097347162542593
2597,0.007848363316422451
2598,0.00805868395449083
2599,0.0021463810620455377
2600,-0.004526648683255493
2601,-0.06499714426955402
2602,-0.003857196374891604
2603,0.044754759392969294
2604,-0.004005011283994597
2605,-0.006265676092202694
2606,-0.015056365215062272
2607,-0.008702675684716298
2608,-0.002643786598363834
2609,-0.008933038376219424
2610,0.016786835304171625
2611,0.0016520393055463514
2612,0.037597154134768454
2613,0.011896467561360131
2614,0.09083022478170537
2615,-0.006426314487521962
2616,0.02952701451376318
2617,-0.06500809116338951
2618,-0.018787723538106694
2619,0.0010942214608666327
2620,0.00986983709201883
2621,0.002086763361449407
2622,-0.06338145478125112
2623,-0.01733862769470349
2624,0.0010715260307849043
2625,-0.02528733888873889
2626,-0.003493233055981355
2627,0.0013971963996070316
2628,-0.02291733328967966
2629,-0.005271197312406187
2630,-0.011057473223848759
2631,0.02354101542361525
2632,0.003328379720919239
2633,-0.03800306386323324
2634,4.179709164923145e-05
2635,-0.05315916869417445
2636,0.03295625580259985
2637,-0.0396809977221034
2638,0.02269220249205767
2639,0.0210489311967952
2640,0.0008386929364993378
2641,0.15048610007713162
2642,0.00012838081053706605
2643,0.000966804030870323
2644,0.03846625378452885
2645,0.009034028069637214
2646,-0.01225788007676433
2647,-0.007375688762284122
2648,-0.0005839540964652206
2649,-0.11196244081375341
2650,-0.001832117382399761
2651,0.008607791607567347
2652,-0.004916616947703499
2653,-0.01688285363368679
2654,9.534408447911006e-05
2655,-0.005336195718053194
2656,0.03228520378222033
2657,0.0026383614272682326
2658,-0.04504881483361201
2659,-0.011474468055012713
2660,-0.00840380857178524
2661,-0.0009360280914996269
2662,-0.015531941276562697
2663,0.0002043544893315676
2664,0.04005599690627408
2665,0.002306993634488409
2666,0.02549524592473444
2667,-0.003353741614226545
2668,-0.007828542406738505
2669,0.008876693015991944
2670,-4.595994191398823e-05
2671,-0.007901668648819892
2672,0.060136075304143714
2673,-0.0030045803435217715
2674,0.0001427974448393502
2675,0.00942341804651851
2676,0.09611281012758476
2677,0.030863867344191383
2678,-0.06222280943153561
2679,-0.015528836329460921
2680,0.08229003914653324
2681,-0.03169689443450744
2682,-0.00019275122287155044
2683,0.00439277459842581
2684,0.05775099188399714
2685,0.0505313528596311
2686,-0.035065598943581064
2687,-0.0025482116342000856
2688,0.001506167622565223
2689,-0.0022570203700827394
2690,0.004865862204271714
2691,0.015452630429348553
2692,-0.005738338511378332
2693,0.0015948230101577468
2694,-0.023811994212838687
2695,0.004311409137717165
2696,0.000783815190828684
2697,-0.004390163117467442
2698,0.00962373243004491
2699,-0.0030656826795896408
2700,-0.13030801790636082
2701,0.017684573960143002
2702,0.002067019621072302
2703,-0.04867995000703491
2704,0.005844966584751725
2705,0.0015240837666288544
2706,0.07326728308759248
2707,-0.0015200431656877456
2708,-0.040673368757928464
2709,0.02556094447216551
2710,3.951459959425853e-05
2711,0.04896276059098288
2712,-0.0062135918887585495
2713,0.01650748506360065
2714,-0.056647077320007816
2715,-0.0007961351714204347
2716,0.0012623151133381576
2717,0.16053189330837123
2718,-0.05265464906811083
2719,0.006193715037128174
2720,0.004715472087733676
2721,-0.00047428227820922207
2722,-0.004791870799409013
2723,0.005044962388969657
2724,-0.021083152624588094
2725,0.0018402990504935355
2726,-0.0007030802077297993
2727,-0.038642317538384346
2728,-0.06163458207383085
2729,-0.09554481451055727
2730,-0.004180682845022128
2731,0.0029710688692525253
2732,0.07437383465087634
2733,0.00040799237533850825
2734,-0.07539802142135504
2735,0.015059772940677731
2736,-0.01708967705091387
2737,-0.0018859139655472952
2738,-0.005598069678357469
2739,-0.030921871022589233
2740,0.008451662975912684
2741,-0.004527864731750264
2742,0.026342469618886
2743,0.011683573846261626
2744,-0.0012349449185737977
2745,-0.10057550285004987
2746,-0.0007673012879308634
2747,0.00043638039242659414
2748,-0.011413791767805478
2749,0.06941993364304183
2750,0.0003479628680275416
2751,0.00019072132047525173
2752,-0.0029776113177160763
2753,0.052033878862443095
2754,0.013083165533925346
2755,0.01835058414943874
2756,-0.03943179292500723
2757,-0.041648389818414774
2758,-0.013685394737669708
2759,0.07455947046134255
2760,-0.20227734991517926
2761,-0.020129165828463223
2762,0.0045797849685309255
2763,-0.002104817399261137
2764,-0.06966563296039321
2765,-0.015124162235643186
2766,0.03464541176391245
2767,-0.025515918371881805
2768,-0.014013551332077788
2769,0.06796586117758564
2770,-0.0016137545501566852
2771,0.02785778263760178
2772,-0.010568867861762638
2773,-0.007243307876902069
2774,0.023327938952247485
2775,-0.028022745438116097
2776,-0.011625705931649277
2777,0.0023941378541164297
2778,0.10982437614775166
2779,-0.005582766614896898
2780,0.02299305407738676
2781,0.12741823974745795
2782,0.014297326220346771
2783,0.004657563254946577
2784,0.10377801552787433
2785,0.12178070054038773
2786,0.013266654742930003
2787,-0.006656074842912953
2788,-0.0012033305410227358
2789,0.03597476172171334
2790,-0.006251851030606476
2791,0.0016368415662006944
2792,0.0540951490933811
2793,-0.005954263916839387
2794,0.007758166253576099
2795,-0.005014011668111117
2796,-0.000542234931819185
2797,-0.0032378043418791495
2798,-0.012908326583053024
2799,-0.0034738060262403353
2800,-0.025733608191659218
2801,0.02315799534564779
2802,0.006294175848894736
2803,0.07035855512672254
2804,0.012682103843571638
2805,0.007459521588990113
2806,0.027904782473587346
2807,0.0074435909921455
2808,0.0026362406846481027
2809,0.014744190446594613
2810,-0.006484210954800881
2811,0.00467229771578601
2812,-0.0019971153402265226
2813,0.0438361873615453
2814,-0.00011508099774831319
2815,-0.05571866344697374
2816,0.008981180791639565
2817,0.0400351817183765
2818,-0.05435208995197704
2819,-0.004113876284832843
2820,-0.06424994260863441
2821,-0.0006435041638617627
2822,0.04333338072880402
2823,-0.013079944901125221
2824,-0.037628217639450276
2825,-0.017013164323862393
2826,0.004510330439045889
2827,0.047100124097447786
2828,-0.0010394010100604062
2829,-0.029087266933896846
2830,-0.008438136712336718
2831,0.04700448759534344
2832,0.11095652772717828
2833,0.004842398358076784
2834,-0.021054071117217514
2835,-0.08774407509512352
2836,0.01408793544135025
2837,-0.007197464284073557
2838,0.0009598959429617133
2839,-0.04250815989455942
2840,-0.03888175792118791
2841,0.00241912022927011
2842,-0.005223954736197592
2843,0.0001939041763794504
2844,0.004818779023897129
2845,0.040868190487015246
2846,-0.004891437273585233
2847,-0.01024215057785607
2848,-0.01711042162572851
2849,-0.022082878890479753
2850,-0.005882853021816514
2851,0.030265441785262442
2852,0.0021334740115447805
2853,0.013309975458552161
2854,-0.019264538039177295
2855,-0.0001354205736246049
2856,0.0050788182078147955
2857,0.051963597415928084
2858,0.014738151204766528
2859,-0.06573320295405012
2860,-0.044228841378276776
2861,0.04710593472021196
2862,-0.04960142289063621
2863,-0.002627943027294954
2864,-0.10012074365124857
2865,-0.03397170781087319
2866,0.0119994578813537
2867,0.0019718205050841264
2868,-0.016176867347602913
2869,0.07986737699501761
2870,-0.08360328396959706
2871,2.1363311431070445e-05
2872,0.006019847928019788
2873,-0.025040902237698406
2874,-0.005874474182086132
2875,0.010732193330927854
2876,-0.10703575734560822
2877,0.01521498972069184
2878,-0.016859099647592732
2879,-0.011174046951670234
2880,-0.0024230189558179893
2881,-0.005337757968471691
2882,-0.012669237360890597
2883,-0.007607245737628297
2884,0.0002152350976034857
2885,-0.018757288580949966
2886,0.08479278081029483
2887,0.009676568739560394
2888,0.0022468983614667842
2889,0.038669395178591685
2890,-0.009464905437441983
2891,0.0005603091816927312
2892,-0.024024068405432787
2893,0.025532695406638804
2894,-0.00442342408698038
2895,0.00014913592418420765
2896,0.0018925087338189828
2897,-0.05183961685275025
2898,-0.016424256232951146
2899,-0.047248970431640176
2900,-0.08662316699369217
2901,0.01379854139581216
2902,-0.006810220687139816
2903,-0.03239282917395633
2904,0.0025830163068939595
2905,-0.0036563076810473293
2906,-0.11072816810649688
2907,-0.00023660064352113325
2908,0.04591000836957079
2909,-0.038565609610037896
2910,0.008249237497059065
2911,-0.017695280248425822
2912,-0.012426743146783083
2913,-0.018676260227617873
2914,-0.123174122256284
2915,-0.016159878122774217
2916,0.0018262990587716084
2917,-0.001006244872099181
2918,-0.08009975791084314
2919,0.045385283695164695
2920,0.006510700598828009
2921,-0.024584027257146618
2922,0.052139233429723514
2923,-0.002295707045800173
2924,-0.0442770896397604
2925,0.03692280327258575
2926,-0.004315385284054755
2927,0.055378275300188524
2928,-0.003982522904055408
2929,0.04785181708635225
2930,0.000523567808006985
2931,0.006391971562740035
2932,-0.002523483846814835
2933,-0.0007918217055210366
2934,-0.025776711905218498
2935,0.018813749312389685
2936,-0.008584171062640075
2937,-0.0006088194864776473
2938,0.002196626703744569
2939,0.00938244196986707
2940,-0.014459612996628872
2941,-0.028695397256241477
2942,-0.008946612559666542
2943,0.009693755361455727
2944,0.0015728771738476297
2945,0.02213746784357499
2946,0.014225862646316388
2947,-0.0008481608209899147
2948,-0.06769983895933841
2949,-0.0032925814490739965
2950,0.0017718252809906857
2951,0.006041824817927491
2952,0.14564878414655974
2953,0.00518505820482977
2954,-0.06626097157309883
2955,0.0877987398577589
2956,0.00573605560744429
2957,-0.013755484047318309
2958,0.08807131669306588
2959,-0.00029904727651382674
2960,-0.09450657063248978
2961,0.06942051907586512
2962,-0.010171256075521775
2963,0.028204152124221088
2964,0.051463827232979376
2965,-0.10531693110158685
2966,0.0322787908685966
2967,0.0025977463130007913
2968,-0.010023573860885237
2969,0.002209644310167734
2970,-0.0004804506063022519
2971,-0.01642152672467997
2972,0.005094284224306143
2973,0.0001405753387355493
2974,0.09706402158934786
2975,0.03250199905649215
2976,-0.006215723596704287
2977,-0.06543801043775012
2978,0.024256184268668338
2979,-0.002096851667759592
2980,0.0027452744057194197
2981,-0.028291058592992108
2982,-0.002426527816990954
2983,0.0016819309237355612
2984,-0.0024431592379287785
2985,0.013385740027392616
2986,-0.07467174840918386
2987,0.01798182538937511
2988,0.021291673066023344
2989,0.0018410688275468474
2990,-0.006621161556798853
2991,0.006456491933525426
2992,-0.06054261582670042
2993,0.025638661086179026
2994,-0.02723602731524158
2995,-0.04268904157885041
2996,0.01584012344387588
2997,0.011880066085595284
2998,-0.03923850957626233
2999,-0.0006036982636727907
